[
  { "nodeid": 0, "depth": 0, "split": "f848", "split_condition": 0.728215754, "yes": 1, "no": 2, "missing": 1 , "children": [
    { "nodeid": 1, "depth": 1, "split": "f353", "split_condition": 0.531000018, "yes": 3, "no": 4, "missing": 3 , "children": [
      { "nodeid": 3, "depth": 2, "split": "f338", "split_condition": 0.794383168, "yes": 7, "no": 8, "missing": 7 , "children": [
        { "nodeid": 7, "depth": 3, "split": "f265", "split_condition": 0.60799998, "yes": 13, "no": 14, "missing": 13 , "children": [
          { "nodeid": 13, "depth": 4, "split": "f751", "split_condition": 0.832000017, "yes": 25, "no": 26, "missing": 25 , "children": [
            { "nodeid": 25, "depth": 5, "split": "f338", "split_condition": 0.425275832, "yes": 41, "no": 42, "missing": 41 , "children": [
              { "nodeid": 41, "leaf": -0.00493735308 }, 
              { "nodeid": 42, "depth": 6, "split": "f393", "split_condition": 0.172557175, "yes": 57, "no": 58, "missing": 57 , "children": [
                { "nodeid": 57, "depth": 7, "split": "f341", "split_condition": 0.27700001, "yes": 81, "no": 82, "missing": 81 , "children": [
                  { "nodeid": 81, "leaf": 0.00158536574 }, 
                  { "nodeid": 82, "leaf": -0.0022527473 }
                ]}, 
                { "nodeid": 58, "leaf": -0.00486301351 }
              ]}
            ]}, 
            { "nodeid": 26, "leaf": -0.00496318704 }
          ]}, 
          { "nodeid": 14, "depth": 4, "split": "f269", "split_condition": 0.815999985, "yes": 27, "no": 28, "missing": 27 , "children": [
            { "nodeid": 27, "leaf": 0.00100000005 }, 
            { "nodeid": 28, "leaf": -0.00369565212 }
          ]}
        ]}, 
        { "nodeid": 8, "depth": 3, "split": "f345", "split_condition": 0.772864342, "yes": 15, "no": 16, "missing": 15 , "children": [
          { "nodeid": 15, "leaf": 0.00136363634 }, 
          { "nodeid": 16, "leaf": -0.00394736836 }
        ]}
      ]}, 
      { "nodeid": 4, "depth": 2, "split": "f360", "split_condition": 0.603678942, "yes": 9, "no": 10, "missing": 9 , "children": [
        { "nodeid": 9, "depth": 3, "split": "f883", "split_condition": 0.00427807495, "yes": 17, "no": 18, "missing": 17 , "children": [
          { "nodeid": 17, "depth": 4, "split": "f394", "split_condition": 0.567134261, "yes": 29, "no": 30, "missing": 29 , "children": [
            { "nodeid": 29, "depth": 5, "split": "f727", "split_condition": 0.205231383, "yes": 43, "no": 44, "missing": 43 , "children": [
              { "nodeid": 43, "depth": 6, "split": "f691", "split_condition": 0.430000007, "yes": 59, "no": 60, "missing": 59 , "children": [
                { "nodeid": 59, "leaf": 0.00249999994 }, 
                { "nodeid": 60, "leaf": -0.00249999994 }
              ]}, 
              { "nodeid": 44, "depth": 6, "split": "f365", "split_condition": 0.869565189, "yes": 61, "no": 62, "missing": 61 , "children": [
                { "nodeid": 61, "leaf": 0.000454545458 }, 
                { "nodeid": 62, "leaf": 0.00449999981 }
              ]}
            ]}, 
            { "nodeid": 30, "depth": 5, "split": "f379", "split_condition": 0.339211613, "yes": 45, "no": 46, "missing": 45 , "children": [
              { "nodeid": 45, "depth": 6, "split": "f681", "split_condition": 0.906000018, "yes": 63, "no": 64, "missing": 63 , "children": [
                { "nodeid": 63, "depth": 7, "split": "f681", "split_condition": 0.00200000009, "yes": 83, "no": 84, "missing": 83 , "children": [
                  { "nodeid": 83, "leaf": -0.000555555569 }, 
                  { "nodeid": 84, "leaf": -0.00431034481 }
                ]}, 
                { "nodeid": 64, "leaf": 0.00100000005 }
              ]}, 
              { "nodeid": 46, "leaf": 0.00166666671 }
            ]}
          ]}, 
          { "nodeid": 18, "depth": 4, "split": "f831", "split_condition": 0.476000011, "yes": 31, "no": 32, "missing": 31 , "children": [
            { "nodeid": 31, "leaf": -0.00100000005 }, 
            { "nodeid": 32, "leaf": -0.00436170213 }
          ]}
        ]}, 
        { "nodeid": 10, "depth": 3, "split": "f393", "split_condition": 0.203742206, "yes": 19, "no": 20, "missing": 19 , "children": [
          { "nodeid": 19, "depth": 4, "split": "f327", "split_condition": 0.338, "yes": 33, "no": 34, "missing": 33 , "children": [
            { "nodeid": 33, "leaf": 0.000454545458 }, 
            { "nodeid": 34, "depth": 5, "split": "f732", "split_condition": 0.691999972, "yes": 47, "no": 48, "missing": 47 , "children": [
              { "nodeid": 47, "leaf": -0.00434782589 }, 
              { "nodeid": 48, "leaf": -0.000555555569 }
            ]}
          ]}, 
          { "nodeid": 20, "leaf": -0.00491513405 }
        ]}
      ]}
    ]}, 
    { "nodeid": 2, "depth": 1, "split": "f851", "split_condition": 0.00200000009, "yes": 5, "no": 6, "missing": 5 , "children": [
      { "nodeid": 5, "depth": 2, "split": "f690", "split_condition": 0.668705404, "yes": 11, "no": 12, "missing": 11 , "children": [
        { "nodeid": 11, "depth": 3, "split": "f883", "split_condition": 0.00427807495, "yes": 21, "no": 22, "missing": 21 , "children": [
          { "nodeid": 21, "depth": 4, "split": "f765", "split_condition": 0.370999992, "yes": 35, "no": 36, "missing": 35 , "children": [
            { "nodeid": 35, "depth": 5, "split": "f326", "split_condition": 0.420652181, "yes": 49, "no": 50, "missing": 49 , "children": [
              { "nodeid": 49, "depth": 6, "split": "f734", "split_condition": 0.70599997, "yes": 65, "no": 66, "missing": 65 , "children": [
                { "nodeid": 65, "depth": 7, "split": "f707", "split_condition": 0.563291132, "yes": 85, "no": 86, "missing": 85 , "children": [
                  { "nodeid": 85, "leaf": -0.00327841844 }, 
                  { "nodeid": 86, "leaf": 0.00249999994 }
                ]}, 
                { "nodeid": 66, "depth": 7, "split": "f15", "split_condition": 0.238000005, "yes": 87, "no": 88, "missing": 87 , "children": [
                  { "nodeid": 87, "leaf": -0.00187499996 }, 
                  { "nodeid": 88, "leaf": 0.00285714283 }
                ]}
              ]}, 
              { "nodeid": 50, "depth": 6, "split": "f828", "split_condition": 0.725000024, "yes": 67, "no": 68, "missing": 67 , "children": [
                { "nodeid": 67, "depth": 7, "split": "f839", "split_condition": 0.718999982, "yes": 89, "no": 90, "missing": 89 , "children": [
                  { "nodeid": 89, "leaf": 0.00214285706 }, 
                  { "nodeid": 90, "leaf": -0.00131578953 }
                ]}, 
                { "nodeid": 68, "leaf": -0.00323529425 }
              ]}
            ]}, 
            { "nodeid": 36, "depth": 5, "split": "f680", "split_condition": 0.286802024, "yes": 51, "no": 52, "missing": 51 , "children": [
              { "nodeid": 51, "depth": 6, "split": "f737", "split_condition": 0.600000024, "yes": 69, "no": 70, "missing": 69 , "children": [
                { "nodeid": 69, "depth": 7, "split": "f440", "split_condition": 0.88499999, "yes": 91, "no": 92, "missing": 91 , "children": [
                  { "nodeid": 91, "leaf": -0.00390196079 }, 
                  { "nodeid": 92, "leaf": -0.000238095236 }
                ]}, 
                { "nodeid": 70, "depth": 7, "split": "f727", "split_condition": 0.122736417, "yes": 93, "no": 94, "missing": 93 , "children": [
                  { "nodeid": 93, "leaf": 0.000416666677 }, 
                  { "nodeid": 94, "leaf": -0.00255102036 }
                ]}
              ]}, 
              { "nodeid": 52, "depth": 6, "split": "f663", "split_condition": 0.372208446, "yes": 71, "no": 72, "missing": 71 , "children": [
                { "nodeid": 71, "leaf": -0.00136363634 }, 
                { "nodeid": 72, "leaf": 0.00318181794 }
              ]}
            ]}
          ]}, 
          { "nodeid": 22, "leaf": -0.00486238534 }
        ]}, 
        { "nodeid": 12, "depth": 3, "split": "f884", "split_condition": 0.0120000001, "yes": 23, "no": 24, "missing": 23 , "children": [
          { "nodeid": 23, "depth": 4, "split": "f275", "split_condition": 0.953582227, "yes": 37, "no": 38, "missing": 37 , "children": [
            { "nodeid": 37, "depth": 5, "split": "f746", "split_condition": 0.484295845, "yes": 53, "no": 54, "missing": 53 , "children": [
              { "nodeid": 53, "depth": 6, "split": "f350", "split_condition": 0.998000026, "yes": 73, "no": 74, "missing": 73 , "children": [
                { "nodeid": 73, "depth": 7, "split": "f872", "split_condition": 0.352999985, "yes": 95, "no": 96, "missing": 95 , "children": [
                  { "nodeid": 95, "leaf": -0.00152777776 }, 
                  { "nodeid": 96, "leaf": 0.00117021275 }
                ]}, 
                { "nodeid": 74, "depth": 7, "split": "f327", "split_condition": 0.338, "yes": 97, "no": 98, "missing": 97 , "children": [
                  { "nodeid": 97, "leaf": -0.00124999997 }, 
                  { "nodeid": 98, "leaf": 0.00333333341 }
                ]}
              ]}, 
              { "nodeid": 54, "depth": 6, "split": "f331", "split_condition": 0.460000008, "yes": 75, "no": 76, "missing": 75 , "children": [
                { "nodeid": 75, "depth": 7, "split": "f26", "split_condition": 0.365999997, "yes": 99, "no": 100, "missing": 99 , "children": [
                  { "nodeid": 99, "leaf": -0.00298657711 }, 
                  { "nodeid": 100, "leaf": 0.00136363634 }
                ]}, 
                { "nodeid": 76, "depth": 7, "split": "f788", "split_condition": 0.342602879, "yes": 101, "no": 102, "missing": 101 , "children": [
                  { "nodeid": 101, "leaf": 0.00300000003 }, 
                  { "nodeid": 102, "leaf": -0.00166666671 }
                ]}
              ]}
            ]}, 
            { "nodeid": 38, "depth": 5, "split": "f791", "split_condition": 0.454035878, "yes": 55, "no": 56, "missing": 55 , "children": [
              { "nodeid": 55, "depth": 6, "split": "f731", "split_condition": 0.621149898, "yes": 77, "no": 78, "missing": 77 , "children": [
                { "nodeid": 77, "leaf": -0.00269230781 }, 
                { "nodeid": 78, "leaf": 0.00200000009 }
              ]}, 
              { "nodeid": 56, "depth": 6, "split": "f682", "split_condition": 0.490999997, "yes": 79, "no": 80, "missing": 79 , "children": [
                { "nodeid": 79, "leaf": 0.00400000019 }, 
                { "nodeid": 80, "leaf": -0 }
              ]}
            ]}
          ]}, 
          { "nodeid": 24, "depth": 4, "split": "f376", "split_condition": 0.973999977, "yes": 39, "no": 40, "missing": 39 , "children": [
            { "nodeid": 39, "leaf": -0.00477011502 }, 
            { "nodeid": 40, "leaf": -0.00136363634 }
          ]}
        ]}
      ]}, 
      { "nodeid": 6, "leaf": -0.00495179649 }
    ]}
  ]},
  { "nodeid": 0, "depth": 0, "split": "f848", "split_condition": 0.730290473, "yes": 1, "no": 2, "missing": 1 , "children": [
    { "nodeid": 1, "depth": 1, "split": "f265", "split_condition": 0.60799998, "yes": 3, "no": 4, "missing": 3 , "children": [
      { "nodeid": 3, "depth": 2, "split": "f338", "split_condition": 0.425275832, "yes": 7, "no": 8, "missing": 7 , "children": [
        { "nodeid": 7, "leaf": -0.00495086098 }, 
        { "nodeid": 8, "depth": 3, "split": "f352", "split_condition": 0.712000012, "yes": 13, "no": 14, "missing": 13 , "children": [
          { "nodeid": 13, "depth": 4, "split": "f884", "split_condition": 0.0120000001, "yes": 19, "no": 20, "missing": 19 , "children": [
            { "nodeid": 19, "leaf": 0.00437500002 }, 
            { "nodeid": 20, "depth": 5, "split": "f693", "split_condition": 0.40020898, "yes": 29, "no": 30, "missing": 29 , "children": [
              { "nodeid": 29, "leaf": -0.00374999992 }, 
              { "nodeid": 30, "leaf": -0 }
            ]}
          ]}, 
          { "nodeid": 14, "depth": 4, "split": "f393", "split_condition": 0.172557175, "yes": 21, "no": 22, "missing": 21 , "children": [
            { "nodeid": 21, "depth": 5, "split": "f854", "split_condition": 0.381999999, "yes": 31, "no": 32, "missing": 31 , "children": [
              { "nodeid": 31, "depth": 6, "split": "f345", "split_condition": 0.738693476, "yes": 41, "no": 42, "missing": 41 , "children": [
                { "nodeid": 41, "depth": 7, "split": "f883", "split_condition": 0.00427807495, "yes": 59, "no": 60, "missing": 59 , "children": [
                  { "nodeid": 59, "leaf": 0.00166666671 }, 
                  { "nodeid": 60, "leaf": -0.00249999994 }
                ]}, 
                { "nodeid": 42, "depth": 7, "split": "f736", "split_condition": 0.463983059, "yes": 61, "no": 62, "missing": 61 , "children": [
                  { "nodeid": 61, "leaf": -0.00412280718 }, 
                  { "nodeid": 62, "leaf": -0 }
                ]}
              ]}, 
              { "nodeid": 32, "depth": 6, "split": "f691", "split_condition": 0.404000014, "yes": 43, "no": 44, "missing": 43 , "children": [
                { "nodeid": 43, "leaf": 0.00300000003 }, 
                { "nodeid": 44, "depth": 7, "split": "f732", "split_condition": 0.639999986, "yes": 63, "no": 64, "missing": 63 , "children": [
                  { "nodeid": 63, "leaf": -0.00277777785 }, 
                  { "nodeid": 64, "leaf": 0.00100000005 }
                ]}
              ]}
            ]}, 
            { "nodeid": 22, "leaf": -0.00489179417 }
          ]}
        ]}
      ]}, 
      { "nodeid": 4, "depth": 2, "split": "f272", "split_condition": 0.726999998, "yes": 9, "no": 10, "missing": 9 , "children": [
        { "nodeid": 9, "leaf": 0.00124999997 }, 
        { "nodeid": 10, "leaf": -0.00342105259 }
      ]}
    ]}, 
    { "nodeid": 2, "depth": 1, "split": "f851", "split_condition": 0.00200000009, "yes": 5, "no": 6, "missing": 5 , "children": [
      { "nodeid": 5, "depth": 2, "split": "f690", "split_condition": 0.668705404, "yes": 11, "no": 12, "missing": 11 , "children": [
        { "nodeid": 11, "depth": 3, "split": "f883", "split_condition": 0.00427807495, "yes": 15, "no": 16, "missing": 15 , "children": [
          { "nodeid": 15, "depth": 4, "split": "f735", "split_condition": 0.327533275, "yes": 23, "no": 24, "missing": 23 , "children": [
            { "nodeid": 23, "depth": 5, "split": "f815", "split_condition": 0.147777781, "yes": 33, "no": 34, "missing": 33 , "children": [
              { "nodeid": 33, "depth": 6, "split": "f727", "split_condition": 0.302816898, "yes": 45, "no": 46, "missing": 45 , "children": [
                { "nodeid": 45, "depth": 7, "split": "f24", "split_condition": 0.592000008, "yes": 65, "no": 66, "missing": 65 , "children": [
                  { "nodeid": 65, "leaf": -0.00406976743 }, 
                  { "nodeid": 66, "leaf": -0.00033333333 }
                ]}, 
                { "nodeid": 46, "depth": 7, "split": "f733", "split_condition": 0.489208639, "yes": 67, "no": 68, "missing": 67 , "children": [
                  { "nodeid": 67, "leaf": -0.00200000009 }, 
                  { "nodeid": 68, "leaf": 0.00249999994 }
                ]}
              ]}, 
              { "nodeid": 34, "depth": 6, "split": "f362", "split_condition": 0.418918908, "yes": 47, "no": 48, "missing": 47 , "children": [
                { "nodeid": 47, "depth": 7, "split": "f843", "split_condition": 0.465999991, "yes": 69, "no": 70, "missing": 69 , "children": [
                  { "nodeid": 69, "leaf": -0.00241463399 }, 
                  { "nodeid": 70, "leaf": 0.0022727272 }
                ]}, 
                { "nodeid": 48, "depth": 7, "split": "f396", "split_condition": 0.598187327, "yes": 71, "no": 72, "missing": 71 , "children": [
                  { "nodeid": 71, "leaf": 0.00318181794 }, 
                  { "nodeid": 72, "leaf": -0.00124999997 }
                ]}
              ]}
            ]}, 
            { "nodeid": 24, "depth": 5, "split": "f680", "split_condition": 0.286802024, "yes": 35, "no": 36, "missing": 35 , "children": [
              { "nodeid": 35, "depth": 6, "split": "f460", "split_condition": 0.829999983, "yes": 49, "no": 50, "missing": 49 , "children": [
                { "nodeid": 49, "depth": 7, "split": "f257", "split_condition": 0.458417863, "yes": 73, "no": 74, "missing": 73 , "children": [
                  { "nodeid": 73, "leaf": -0.00376404496 }, 
                  { "nodeid": 74, "leaf": -0 }
                ]}, 
                { "nodeid": 50, "leaf": 0.00136363634 }
              ]}, 
              { "nodeid": 36, "depth": 6, "split": "f663", "split_condition": 0.372208446, "yes": 51, "no": 52, "missing": 51 , "children": [
                { "nodeid": 51, "leaf": -0.00124999997 }, 
                { "nodeid": 52, "leaf": 0.00318181794 }
              ]}
            ]}
          ]}, 
          { "nodeid": 16, "leaf": -0.0049147727 }
        ]}, 
        { "nodeid": 12, "depth": 3, "split": "f885", "split_condition": 0.692777216, "yes": 17, "no": 18, "missing": 17 , "children": [
          { "nodeid": 17, "depth": 4, "split": "f866", "split_condition": 0.434917361, "yes": 25, "no": 26, "missing": 25 , "children": [
            { "nodeid": 25, "depth": 5, "split": "f683", "split_condition": 0.501999974, "yes": 37, "no": 38, "missing": 37 , "children": [
              { "nodeid": 37, "depth": 6, "split": "f827", "split_condition": 0.664583325, "yes": 53, "no": 54, "missing": 53 , "children": [
                { "nodeid": 53, "depth": 7, "split": "f289", "split_condition": 0.957000017, "yes": 75, "no": 76, "missing": 75 , "children": [
                  { "nodeid": 75, "leaf": -0.00349999988 }, 
                  { "nodeid": 76, "leaf": 0.00100000005 }
                ]}, 
                { "nodeid": 54, "leaf": 0.00136363634 }
              ]}, 
              { "nodeid": 38, "depth": 6, "split": "f729", "split_condition": 0.426545084, "yes": 55, "no": 56, "missing": 55 , "children": [
                { "nodeid": 55, "depth": 7, "split": "f769", "split_condition": 0.123999998, "yes": 77, "no": 78, "missing": 77 , "children": [
                  { "nodeid": 77, "leaf": 0.00321428571 }, 
                  { "nodeid": 78, "leaf": -0.00033333333 }
                ]}, 
                { "nodeid": 56, "depth": 7, "split": "f792", "split_condition": 0.280000001, "yes": 79, "no": 80, "missing": 79 , "children": [
                  { "nodeid": 79, "leaf": -0.00300000003 }, 
                  { "nodeid": 80, "leaf": -0.000138888892 }
                ]}
              ]}
            ]}, 
            { "nodeid": 26, "depth": 5, "split": "f687", "split_condition": 0.62462461, "yes": 39, "no": 40, "missing": 39 , "children": [
              { "nodeid": 39, "depth": 6, "split": "f366", "split_condition": 0.404588103, "yes": 57, "no": 58, "missing": 57 , "children": [
                { "nodeid": 57, "depth": 7, "split": "f693", "split_condition": 0.392894477, "yes": 81, "no": 82, "missing": 81 , "children": [
                  { "nodeid": 81, "leaf": 0.00205882359 }, 
                  { "nodeid": 82, "leaf": -0.00107142853 }
                ]}, 
                { "nodeid": 58, "leaf": -0.00323529425 }
              ]}, 
              { "nodeid": 40, "leaf": 0.00349999988 }
            ]}
          ]}, 
          { "nodeid": 18, "depth": 4, "split": "f376", "split_condition": 0.973999977, "yes": 27, "no": 28, "missing": 27 , "children": [
            { "nodeid": 27, "leaf": -0.00469696941 }, 
            { "nodeid": 28, "leaf": -0.000555555569 }
          ]}
        ]}
      ]}, 
      { "nodeid": 6, "leaf": -0.00495311292 }
    ]}
  ]},
  { "nodeid": 0, "depth": 0, "split": "f848", "split_condition": 0.730290473, "yes": 1, "no": 2, "missing": 1 , "children": [
    { "nodeid": 1, "depth": 1, "split": "f331", "split_condition": 0.842999995, "yes": 3, "no": 4, "missing": 3 , "children": [
      { "nodeid": 3, "depth": 2, "split": "f265", "split_condition": 0.60799998, "yes": 7, "no": 8, "missing": 7 , "children": [
        { "nodeid": 7, "depth": 3, "split": "f338", "split_condition": 0.425275832, "yes": 13, "no": 14, "missing": 13 , "children": [
          { "nodeid": 13, "depth": 4, "split": "f353", "split_condition": 0.952000022, "yes": 21, "no": 22, "missing": 21 , "children": [
            { "nodeid": 21, "leaf": -0.0049506058 }, 
            { "nodeid": 22, "depth": 5, "split": "f690", "split_condition": 0.761467874, "yes": 31, "no": 32, "missing": 31 , "children": [
              { "nodeid": 31, "leaf": -0.00384615385 }, 
              { "nodeid": 32, "leaf": 0.00100000005 }
            ]}
          ]}, 
          { "nodeid": 14, "depth": 4, "split": "f352", "split_condition": 0.712000012, "yes": 23, "no": 24, "missing": 23 , "children": [
            { "nodeid": 23, "depth": 5, "split": "f883", "split_condition": 0.00427807495, "yes": 33, "no": 34, "missing": 33 , "children": [
              { "nodeid": 33, "leaf": 0.00431034481 }, 
              { "nodeid": 34, "depth": 6, "split": "f683", "split_condition": 0.51700002, "yes": 45, "no": 46, "missing": 45 , "children": [
                { "nodeid": 45, "leaf": -0 }, 
                { "nodeid": 46, "leaf": -0.00333333341 }
              ]}
            ]}, 
            { "nodeid": 24, "depth": 5, "split": "f393", "split_condition": 0.172557175, "yes": 35, "no": 36, "missing": 35 , "children": [
              { "nodeid": 35, "depth": 6, "split": "f802", "split_condition": 0.0120000001, "yes": 47, "no": 48, "missing": 47 , "children": [
                { "nodeid": 47, "depth": 7, "split": "f683", "split_condition": 0.291999996, "yes": 65, "no": 66, "missing": 65 , "children": [
                  { "nodeid": 65, "leaf": -0.000500000024 }, 
                  { "nodeid": 66, "leaf": -0.0042682928 }
                ]}, 
                { "nodeid": 48, "depth": 7, "split": "f769", "split_condition": 0.114, "yes": 67, "no": 68, "missing": 67 , "children": [
                  { "nodeid": 67, "leaf": -0.000833333354 }, 
                  { "nodeid": 68, "leaf": 0.00318181794 }
                ]}
              ]}, 
              { "nodeid": 36, "leaf": -0.00490427949 }
            ]}
          ]}
        ]}, 
        { "nodeid": 8, "depth": 3, "split": "f269", "split_condition": 0.815999985, "yes": 15, "no": 16, "missing": 15 , "children": [
          { "nodeid": 15, "leaf": 0.00124999997 }, 
          { "nodeid": 16, "leaf": -0.00366666657 }
        ]}
      ]}, 
      { "nodeid": 4, "depth": 2, "split": "f393", "split_condition": 0.139293134, "yes": 9, "no": 10, "missing": 9 , "children": [
        { "nodeid": 9, "leaf": 0.00200000009 }, 
        { "nodeid": 10, "leaf": -0.00425925944 }
      ]}
    ]}, 
    { "nodeid": 2, "depth": 1, "split": "f851", "split_condition": 0.00200000009, "yes": 5, "no": 6, "missing": 5 , "children": [
      { "nodeid": 5, "depth": 2, "split": "f690", "split_condition": 0.668705404, "yes": 11, "no": 12, "missing": 11 , "children": [
        { "nodeid": 11, "depth": 3, "split": "f883", "split_condition": 0.00427807495, "yes": 17, "no": 18, "missing": 17 , "children": [
          { "nodeid": 17, "depth": 4, "split": "f735", "split_condition": 0.433981568, "yes": 25, "no": 26, "missing": 25 , "children": [
            { "nodeid": 25, "depth": 5, "split": "f332", "split_condition": 0.453000009, "yes": 37, "no": 38, "missing": 37 , "children": [
              { "nodeid": 37, "depth": 6, "split": "f733", "split_condition": 0.674203515, "yes": 49, "no": 50, "missing": 49 , "children": [
                { "nodeid": 49, "depth": 7, "split": "f707", "split_condition": 0.563291132, "yes": 69, "no": 70, "missing": 69 , "children": [
                  { "nodeid": 69, "leaf": -0.00312929833 }, 
                  { "nodeid": 70, "leaf": 0.00249999994 }
                ]}, 
                { "nodeid": 50, "depth": 7, "split": "f17", "split_condition": 0.111000001, "yes": 71, "no": 72, "missing": 71 , "children": [
                  { "nodeid": 71, "leaf": -0.00153061224 }, 
                  { "nodeid": 72, "leaf": 0.00269230781 }
                ]}
              ]}, 
              { "nodeid": 38, "depth": 6, "split": "f386", "split_condition": 0.469999999, "yes": 51, "no": 52, "missing": 51 , "children": [
                { "nodeid": 51, "leaf": -0.00249999994 }, 
                { "nodeid": 52, "depth": 7, "split": "f345", "split_condition": 0.858291447, "yes": 73, "no": 74, "missing": 73 , "children": [
                  { "nodeid": 73, "leaf": 0.00349999988 }, 
                  { "nodeid": 74, "leaf": -0.00166666671 }
                ]}
              ]}
            ]}, 
            { "nodeid": 26, "depth": 5, "split": "f619", "split_condition": 0.44135803, "yes": 39, "no": 40, "missing": 39 , "children": [
              { "nodeid": 39, "depth": 6, "split": "f353", "split_condition": 0.486000001, "yes": 53, "no": 54, "missing": 53 , "children": [
                { "nodeid": 53, "depth": 7, "split": "f113", "split_condition": 0.745000005, "yes": 75, "no": 76, "missing": 75 , "children": [
                  { "nodeid": 75, "leaf": -0.00387559785 }, 
                  { "nodeid": 76, "leaf": 0.000833333354 }
                ]}, 
                { "nodeid": 54, "depth": 7, "split": "f324", "split_condition": 0.473150969, "yes": 77, "no": 78, "missing": 77 , "children": [
                  { "nodeid": 77, "leaf": 0.00249999994 }, 
                  { "nodeid": 78, "leaf": -0.00124999997 }
                ]}
              ]}, 
              { "nodeid": 40, "depth": 6, "split": "f624", "split_condition": 0.591000021, "yes": 55, "no": 56, "missing": 55 , "children": [
                { "nodeid": 55, "leaf": 0.00277777785 }, 
                { "nodeid": 56, "leaf": -0.00166666671 }
              ]}
            ]}
          ]}, 
          { "nodeid": 18, "leaf": -0.00489547011 }
        ]}, 
        { "nodeid": 12, "depth": 3, "split": "f884", "split_condition": 0.0120000001, "yes": 19, "no": 20, "missing": 19 , "children": [
          { "nodeid": 19, "depth": 4, "split": "f746", "split_condition": 0.503546119, "yes": 27, "no": 28, "missing": 27 , "children": [
            { "nodeid": 27, "depth": 5, "split": "f829", "split_condition": 0.592000008, "yes": 41, "no": 42, "missing": 41 , "children": [
              { "nodeid": 41, "depth": 6, "split": "f843", "split_condition": 0.460000008, "yes": 57, "no": 58, "missing": 57 , "children": [
                { "nodeid": 57, "depth": 7, "split": "f397", "split_condition": 0.366594374, "yes": 79, "no": 80, "missing": 79 , "children": [
                  { "nodeid": 79, "leaf": -0.000949367066 }, 
                  { "nodeid": 80, "leaf": 0.00300000003 }
                ]}, 
                { "nodeid": 58, "depth": 7, "split": "f687", "split_condition": 0.418418407, "yes": 81, "no": 82, "missing": 81 , "children": [
                  { "nodeid": 81, "leaf": -0.00200000009 }, 
                  { "nodeid": 82, "leaf": 0.00324999983 }
                ]}
              ]}, 
              { "nodeid": 42, "depth": 6, "split": "f727", "split_condition": 0.203219309, "yes": 59, "no": 60, "missing": 59 , "children": [
                { "nodeid": 59, "leaf": -0.00333333341 }, 
                { "nodeid": 60, "leaf": -0.000454545458 }
              ]}
            ]}, 
            { "nodeid": 28, "depth": 5, "split": "f776", "split_condition": 0.938000023, "yes": 43, "no": 44, "missing": 43 , "children": [
              { "nodeid": 43, "depth": 6, "split": "f848", "split_condition": 0.785269737, "yes": 61, "no": 62, "missing": 61 , "children": [
                { "nodeid": 61, "depth": 7, "split": "f777", "split_condition": 0.931999981, "yes": 83, "no": 84, "missing": 83 , "children": [
                  { "nodeid": 83, "leaf": 0.00249999994 }, 
                  { "nodeid": 84, "leaf": -0.00277777785 }
                ]}, 
                { "nodeid": 62, "depth": 7, "split": "f376", "split_condition": 0.968999982, "yes": 85, "no": 86, "missing": 85 , "children": [
                  { "nodeid": 85, "leaf": -0.00453488389 }, 
                  { "nodeid": 86, "leaf": -0.000555555569 }
                ]}
              ]}, 
              { "nodeid": 44, "depth": 6, "split": "f811", "split_condition": 0.336930454, "yes": 63, "no": 64, "missing": 63 , "children": [
                { "nodeid": 63, "depth": 7, "split": "f798", "split_condition": 0.163502112, "yes": 87, "no": 88, "missing": 87 , "children": [
                  { "nodeid": 87, "leaf": -0.00166666671 }, 
                  { "nodeid": 88, "leaf": 0.00224137935 }
                ]}, 
                { "nodeid": 64, "leaf": -0.00342105259 }
              ]}
            ]}
          ]}, 
          { "nodeid": 20, "depth": 4, "split": "f376", "split_condition": 0.973999977, "yes": 29, "no": 30, "missing": 29 , "children": [
            { "nodeid": 29, "leaf": -0.00461538462 }, 
            { "nodeid": 30, "leaf": -0.000555555569 }
          ]}
        ]}
      ]}, 
      { "nodeid": 6, "leaf": -0.00496058678 }
    ]}
  ]},
  { "nodeid": 0, "depth": 0, "split": "f848", "split_condition": 0.731327772, "yes": 1, "no": 2, "missing": 1 , "children": [
    { "nodeid": 1, "depth": 1, "split": "f265", "split_condition": 0.60799998, "yes": 3, "no": 4, "missing": 3 , "children": [
      { "nodeid": 3, "leaf": -0.00494965073 }, 
      { "nodeid": 4, "depth": 2, "split": "f269", "split_condition": 0.815999985, "yes": 7, "no": 8, "missing": 7 , "children": [
        { "nodeid": 7, "leaf": 0.00124999997 }, 
        { "nodeid": 8, "leaf": -0.00357142859 }
      ]}
    ]}, 
    { "nodeid": 2, "depth": 1, "split": "f850", "split_condition": 0.129999995, "yes": 5, "no": 6, "missing": 5 , "children": [
      { "nodeid": 5, "depth": 2, "split": "f690", "split_condition": 0.668705404, "yes": 9, "no": 10, "missing": 9 , "children": [
        { "nodeid": 9, "depth": 3, "split": "f883", "split_condition": 0.00427807495, "yes": 11, "no": 12, "missing": 11 , "children": [
          { "nodeid": 11, "depth": 4, "split": "f358", "split_condition": 0.860160947, "yes": 15, "no": 16, "missing": 15 , "children": [
            { "nodeid": 15, "depth": 5, "split": "f735", "split_condition": 0.289662242, "yes": 21, "no": 22, "missing": 21 , "children": [
              { "nodeid": 21, "depth": 6, "split": "f24", "split_condition": 0.811999977, "yes": 29, "no": 30, "missing": 29 , "children": [
                { "nodeid": 29, "depth": 7, "split": "f63", "split_condition": 0.663481951, "yes": 41, "no": 42, "missing": 41 , "children": [
                  { "nodeid": 41, "leaf": -0.00291666645 }, 
                  { "nodeid": 42, "leaf": 0.000500000024 }
                ]}, 
                { "nodeid": 30, "depth": 7, "split": "f10", "split_condition": 0.0480000004, "yes": 43, "no": 44, "missing": 43 , "children": [
                  { "nodeid": 43, "leaf": -0.00166666671 }, 
                  { "nodeid": 44, "leaf": 0.00285714283 }
                ]}
              ]}, 
              { "nodeid": 22, "depth": 6, "split": "f58", "split_condition": 0.551102221, "yes": 31, "no": 32, "missing": 31 , "children": [
                { "nodeid": 31, "depth": 7, "split": "f680", "split_condition": 0.286802024, "yes": 45, "no": 46, "missing": 45 , "children": [
                  { "nodeid": 45, "leaf": -0.00373793603 }, 
                  { "nodeid": 46, "leaf": 0.00136363634 }
                ]}, 
                { "nodeid": 32, "depth": 7, "split": "f776", "split_condition": 0.936999977, "yes": 47, "no": 48, "missing": 47 , "children": [
                  { "nodeid": 47, "leaf": 0.00300000003 }, 
                  { "nodeid": 48, "leaf": -0.00166666671 }
                ]}
              ]}
            ]}, 
            { "nodeid": 16, "depth": 5, "split": "f757", "split_condition": 0.0920000002, "yes": 23, "no": 24, "missing": 23 , "children": [
              { "nodeid": 23, "leaf": 0.00285714283 }, 
              { "nodeid": 24, "leaf": -0.00166666671 }
            ]}
          ]}, 
          { "nodeid": 12, "leaf": -0.00487179495 }
        ]}, 
        { "nodeid": 10, "depth": 3, "split": "f884", "split_condition": 0.0120000001, "yes": 13, "no": 14, "missing": 13 , "children": [
          { "nodeid": 13, "depth": 4, "split": "f729", "split_condition": 0.503546119, "yes": 17, "no": 18, "missing": 17 , "children": [
            { "nodeid": 17, "depth": 5, "split": "f751", "split_condition": 0.828999996, "yes": 25, "no": 26, "missing": 25 , "children": [
              { "nodeid": 25, "depth": 6, "split": "f771", "split_condition": 0.430999994, "yes": 33, "no": 34, "missing": 33 , "children": [
                { "nodeid": 33, "depth": 7, "split": "f340", "split_condition": 0.95095098, "yes": 49, "no": 50, "missing": 49 , "children": [
                  { "nodeid": 49, "leaf": 0.00300000003 }, 
                  { "nodeid": 50, "leaf": -0.00166666671 }
                ]}, 
                { "nodeid": 34, "depth": 7, "split": "f692", "split_condition": 0.493000001, "yes": 51, "no": 52, "missing": 51 , "children": [
                  { "nodeid": 51, "leaf": 0.00222222228 }, 
                  { "nodeid": 52, "leaf": -0.00151162781 }
                ]}
              ]}, 
              { "nodeid": 26, "depth": 6, "split": "f741", "split_condition": 0.493763, "yes": 35, "no": 36, "missing": 35 , "children": [
                { "nodeid": 35, "leaf": -0.00357142859 }, 
                { "nodeid": 36, "leaf": 0.000555555569 }
              ]}
            ]}, 
            { "nodeid": 18, "depth": 5, "split": "f776", "split_condition": 0.938000023, "yes": 27, "no": 28, "missing": 27 , "children": [
              { "nodeid": 27, "depth": 6, "split": "f733", "split_condition": 0.547790349, "yes": 37, "no": 38, "missing": 37 , "children": [
                { "nodeid": 37, "leaf": -0.00391304353 }, 
                { "nodeid": 38, "leaf": -0.000555555569 }
              ]}, 
              { "nodeid": 28, "depth": 6, "split": "f811", "split_condition": 0.336930454, "yes": 39, "no": 40, "missing": 39 , "children": [
                { "nodeid": 39, "depth": 7, "split": "f798", "split_condition": 0.163502112, "yes": 53, "no": 54, "missing": 53 , "children": [
                  { "nodeid": 53, "leaf": -0.00166666671 }, 
                  { "nodeid": 54, "leaf": 0.00239130436 }
                ]}, 
                { "nodeid": 40, "leaf": -0.00312499981 }
              ]}
            ]}
          ]}, 
          { "nodeid": 14, "depth": 4, "split": "f730", "split_condition": 0.546099305, "yes": 19, "no": 20, "missing": 19 , "children": [
            { "nodeid": 19, "leaf": -0.00448717922 }, 
            { "nodeid": 20, "leaf": -0.00100000005 }
          ]}
        ]}
      ]}, 
      { "nodeid": 6, "leaf": -0.0049607777 }
    ]}
  ]},
  { "nodeid": 0, "depth": 0, "split": "f848", "split_condition": 0.744813263, "yes": 1, "no": 2, "missing": 1 , "children": [
    { "nodeid": 1, "depth": 1, "split": "f265", "split_condition": 0.60799998, "yes": 3, "no": 4, "missing": 3 , "children": [
      { "nodeid": 3, "leaf": -0.0049494016 }, 
      { "nodeid": 4, "depth": 2, "split": "f272", "split_condition": 0.726999998, "yes": 7, "no": 8, "missing": 7 , "children": [
        { "nodeid": 7, "leaf": 0.00124999997 }, 
        { "nodeid": 8, "leaf": -0.00333333341 }
      ]}
    ]}, 
    { "nodeid": 2, "depth": 1, "split": "f849", "split_condition": 0.0450000018, "yes": 5, "no": 6, "missing": 5 , "children": [
      { "nodeid": 5, "depth": 2, "split": "f690", "split_condition": 0.668705404, "yes": 9, "no": 10, "missing": 9 , "children": [
        { "nodeid": 9, "depth": 3, "split": "f883", "split_condition": 0.00427807495, "yes": 11, "no": 12, "missing": 11 , "children": [
          { "nodeid": 11, "depth": 4, "split": "f358", "split_condition": 0.860160947, "yes": 15, "no": 16, "missing": 15 , "children": [
            { "nodeid": 15, "depth": 5, "split": "f765", "split_condition": 0.370999992, "yes": 19, "no": 20, "missing": 19 , "children": [
              { "nodeid": 19, "depth": 6, "split": "f24", "split_condition": 0.837000012, "yes": 27, "no": 28, "missing": 27 , "children": [
                { "nodeid": 27, "depth": 7, "split": "f799", "split_condition": 0.689024389, "yes": 35, "no": 36, "missing": 35 , "children": [
                  { "nodeid": 35, "leaf": -0.00310176122 }, 
                  { "nodeid": 36, "leaf": 0.00200000009 }
                ]}, 
                { "nodeid": 28, "depth": 7, "split": "f30", "split_condition": 0.556556582, "yes": 37, "no": 38, "missing": 37 , "children": [
                  { "nodeid": 37, "leaf": 0.00285714283 }, 
                  { "nodeid": 38, "leaf": -0.00147058826 }
                ]}
              ]}, 
              { "nodeid": 20, "depth": 6, "split": "f58", "split_condition": 0.551102221, "yes": 29, "no": 30, "missing": 29 , "children": [
                { "nodeid": 29, "depth": 7, "split": "f134", "split_condition": 0.552999973, "yes": 39, "no": 40, "missing": 39 , "children": [
                  { "nodeid": 39, "leaf": -0.00396503508 }, 
                  { "nodeid": 40, "leaf": -0.000833333354 }
                ]}, 
                { "nodeid": 30, "leaf": 0.00136363634 }
              ]}
            ]}, 
            { "nodeid": 16, "depth": 5, "split": "f325", "split_condition": 0.258510649, "yes": 21, "no": 22, "missing": 21 , "children": [
              { "nodeid": 21, "leaf": -0.00124999997 }, 
              { "nodeid": 22, "leaf": 0.00318181794 }
            ]}
          ]}, 
          { "nodeid": 12, "leaf": -0.00483783754 }
        ]}, 
        { "nodeid": 10, "depth": 3, "split": "f883", "split_condition": 0.0171122998, "yes": 13, "no": 14, "missing": 13 , "children": [
          { "nodeid": 13, "depth": 4, "split": "f263", "split_condition": 0.571108639, "yes": 17, "no": 18, "missing": 17 , "children": [
            { "nodeid": 17, "depth": 5, "split": "f792", "split_condition": 0.31099999, "yes": 23, "no": 24, "missing": 23 , "children": [
              { "nodeid": 23, "depth": 6, "split": "f864", "split_condition": 0.782782793, "yes": 31, "no": 32, "missing": 31 , "children": [
                { "nodeid": 31, "depth": 7, "split": "f841", "split_condition": 0.296999991, "yes": 41, "no": 42, "missing": 41 , "children": [
                  { "nodeid": 41, "leaf": -0.00033333333 }, 
                  { "nodeid": 42, "leaf": -0.00394736836 }
                ]}, 
                { "nodeid": 32, "depth": 7, "split": "f693", "split_condition": 0.428422153, "yes": 43, "no": 44, "missing": 43 , "children": [
                  { "nodeid": 43, "leaf": 0.00285714283 }, 
                  { "nodeid": 44, "leaf": -0.00200000009 }
                ]}
              ]}, 
              { "nodeid": 24, "depth": 6, "split": "f693", "split_condition": 0.42110762, "yes": 33, "no": 34, "missing": 33 , "children": [
                { "nodeid": 33, "depth": 7, "split": "f871", "split_condition": 0.666666687, "yes": 45, "no": 46, "missing": 45 , "children": [
                  { "nodeid": 45, "leaf": 0.000517241366 }, 
                  { "nodeid": 46, "leaf": -0.00321428571 }
                ]}, 
                { "nodeid": 34, "depth": 7, "split": "f360", "split_condition": 0.705685616, "yes": 47, "no": 48, "missing": 47 , "children": [
                  { "nodeid": 47, "leaf": 0.00249999994 }, 
                  { "nodeid": 48, "leaf": -0.00200000009 }
                ]}
              ]}
            ]}, 
            { "nodeid": 18, "depth": 5, "split": "f291", "split_condition": 0.116999999, "yes": 25, "no": 26, "missing": 25 , "children": [
              { "nodeid": 25, "leaf": 0.00323529425 }, 
              { "nodeid": 26, "leaf": -0.00124999997 }
            ]}
          ]}, 
          { "nodeid": 14, "leaf": -0.00442857156 }
        ]}
      ]}, 
      { "nodeid": 6, "leaf": -0.00495868642 }
    ]}
  ]},
  { "nodeid": 0, "depth": 0, "split": "f848", "split_condition": 0.744813263, "yes": 1, "no": 2, "missing": 1 , "children": [
    { "nodeid": 1, "depth": 1, "split": "f265", "split_condition": 0.60799998, "yes": 3, "no": 4, "missing": 3 , "children": [
      { "nodeid": 3, "depth": 2, "split": "f390", "split_condition": 0.842999995, "yes": 7, "no": 8, "missing": 7 , "children": [
        { "nodeid": 7, "leaf": -0.00494908122 }, 
        { "nodeid": 8, "depth": 3, "split": "f734", "split_condition": 0.382999986, "yes": 13, "no": 14, "missing": 13 , "children": [
          { "nodeid": 13, "leaf": -0.00357142859 }, 
          { "nodeid": 14, "leaf": 0.00124999997 }
        ]}
      ]}, 
      { "nodeid": 4, "depth": 2, "split": "f272", "split_condition": 0.726999998, "yes": 9, "no": 10, "missing": 9 , "children": [
        { "nodeid": 9, "leaf": 0.00124999997 }, 
        { "nodeid": 10, "leaf": -0.00300000003 }
      ]}
    ]}, 
    { "nodeid": 2, "depth": 1, "split": "f849", "split_condition": 0.0450000018, "yes": 5, "no": 6, "missing": 5 , "children": [
      { "nodeid": 5, "depth": 2, "split": "f690", "split_condition": 0.637104988, "yes": 11, "no": 12, "missing": 11 , "children": [
        { "nodeid": 11, "depth": 3, "split": "f58", "split_condition": 0.551102221, "yes": 15, "no": 16, "missing": 15 , "children": [
          { "nodeid": 15, "depth": 4, "split": "f254", "split_condition": 0.180999994, "yes": 19, "no": 20, "missing": 19 , "children": [
            { "nodeid": 19, "depth": 5, "split": "f363", "split_condition": 0.488636374, "yes": 25, "no": 26, "missing": 25 , "children": [
              { "nodeid": 25, "depth": 6, "split": "f24", "split_condition": 0.739000022, "yes": 31, "no": 32, "missing": 31 , "children": [
                { "nodeid": 31, "depth": 7, "split": "f799", "split_condition": 0.689024389, "yes": 41, "no": 42, "missing": 41 , "children": [
                  { "nodeid": 41, "leaf": -0.00391918188 }, 
                  { "nodeid": 42, "leaf": 0.000454545458 }
                ]}, 
                { "nodeid": 32, "depth": 7, "split": "f47", "split_condition": 0.116004296, "yes": 43, "no": 44, "missing": 43 , "children": [
                  { "nodeid": 43, "leaf": -0.00244186027 }, 
                  { "nodeid": 44, "leaf": 0.00200000009 }
                ]}
              ]}, 
              { "nodeid": 26, "depth": 6, "split": "f838", "split_condition": 0.555999994, "yes": 33, "no": 34, "missing": 33 , "children": [
                { "nodeid": 33, "leaf": -0.00300000003 }, 
                { "nodeid": 34, "leaf": 0.00192307692 }
              ]}
            ]}, 
            { "nodeid": 20, "leaf": 0.00166666671 }
          ]}, 
          { "nodeid": 16, "depth": 4, "split": "f17", "split_condition": 0.331999987, "yes": 21, "no": 22, "missing": 21 , "children": [
            { "nodeid": 21, "leaf": 0.0022727272 }, 
            { "nodeid": 22, "leaf": -0.00166666671 }
          ]}
        ]}, 
        { "nodeid": 12, "depth": 3, "split": "f883", "split_condition": 0.00427807495, "yes": 17, "no": 18, "missing": 17 , "children": [
          { "nodeid": 17, "depth": 4, "split": "f815", "split_condition": 0.188888893, "yes": 23, "no": 24, "missing": 23 , "children": [
            { "nodeid": 23, "depth": 5, "split": "f378", "split_condition": 0.50060904, "yes": 27, "no": 28, "missing": 27 , "children": [
              { "nodeid": 27, "depth": 6, "split": "f447", "split_condition": 0.0219999999, "yes": 35, "no": 36, "missing": 35 , "children": [
                { "nodeid": 35, "depth": 7, "split": "f688", "split_condition": 0.356356353, "yes": 45, "no": 46, "missing": 45 , "children": [
                  { "nodeid": 45, "leaf": 0.000555555569 }, 
                  { "nodeid": 46, "leaf": -0.00401960779 }
                ]}, 
                { "nodeid": 36, "leaf": 0.00124999997 }
              ]}, 
              { "nodeid": 28, "leaf": 0.00100000005 }
            ]}, 
            { "nodeid": 24, "depth": 5, "split": "f827", "split_condition": 0.383333325, "yes": 29, "no": 30, "missing": 29 , "children": [
              { "nodeid": 29, "depth": 6, "split": "f393", "split_condition": 0.139293134, "yes": 37, "no": 38, "missing": 37 , "children": [
                { "nodeid": 37, "depth": 7, "split": "f729", "split_condition": 0.528875351, "yes": 47, "no": 48, "missing": 47 , "children": [
                  { "nodeid": 47, "leaf": 0.00366666657 }, 
                  { "nodeid": 48, "leaf": -0.000624999986 }
                ]}, 
                { "nodeid": 38, "depth": 7, "split": "f798", "split_condition": 0.212025315, "yes": 49, "no": 50, "missing": 49 , "children": [
                  { "nodeid": 49, "leaf": 0.00166666671 }, 
                  { "nodeid": 50, "leaf": -0.00266666664 }
                ]}
              ]}, 
              { "nodeid": 30, "depth": 6, "split": "f784", "split_condition": 0.460000008, "yes": 39, "no": 40, "missing": 39 , "children": [
                { "nodeid": 39, "leaf": -0.00369565212 }, 
                { "nodeid": 40, "depth": 7, "split": "f799", "split_condition": 0.406504065, "yes": 51, "no": 52, "missing": 51 , "children": [
                  { "nodeid": 51, "leaf": 0.00249999994 }, 
                  { "nodeid": 52, "leaf": -0.00200000009 }
                ]}
              ]}
            ]}
          ]}, 
          { "nodeid": 18, "leaf": -0.00444444455 }
        ]}
      ]}, 
      { "nodeid": 6, "leaf": -0.00495930528 }
    ]}
  ]},
  { "nodeid": 0, "depth": 0, "split": "f848", "split_condition": 0.744813263, "yes": 1, "no": 2, "missing": 1 , "children": [
    { "nodeid": 1, "depth": 1, "split": "f265", "split_condition": 0.60799998, "yes": 3, "no": 4, "missing": 3 , "children": [
      { "nodeid": 3, "depth": 2, "split": "f331", "split_condition": 0.842999995, "yes": 7, "no": 8, "missing": 7 , "children": [
        { "nodeid": 7, "depth": 3, "split": "f346", "split_condition": 0.97299999, "yes": 13, "no": 14, "missing": 13 , "children": [
          { "nodeid": 13, "depth": 4, "split": "f194", "split_condition": 0.704626322, "yes": 21, "no": 22, "missing": 21 , "children": [
            { "nodeid": 21, "leaf": -0.00494949427 }, 
            { "nodeid": 22, "depth": 5, "split": "f248", "split_condition": 0.450761408, "yes": 31, "no": 32, "missing": 31 , "children": [
              { "nodeid": 31, "leaf": 0.00124999997 }, 
              { "nodeid": 32, "leaf": -0.00366666657 }
            ]}
          ]}, 
          { "nodeid": 14, "depth": 4, "split": "f325", "split_condition": 0.415957451, "yes": 23, "no": 24, "missing": 23 , "children": [
            { "nodeid": 23, "leaf": -0.00333333341 }, 
            { "nodeid": 24, "leaf": 0.00124999997 }
          ]}
        ]}, 
        { "nodeid": 8, "depth": 3, "split": "f337", "split_condition": 0.667336702, "yes": 15, "no": 16, "missing": 15 , "children": [
          { "nodeid": 15, "leaf": -0.00318181794 }, 
          { "nodeid": 16, "leaf": 0.00124999997 }
        ]}
      ]}, 
      { "nodeid": 4, "depth": 2, "split": "f253", "split_condition": 0.433750004, "yes": 9, "no": 10, "missing": 9 , "children": [
        { "nodeid": 9, "leaf": 0.00124999997 }, 
        { "nodeid": 10, "leaf": -0.00249999994 }
      ]}
    ]}, 
    { "nodeid": 2, "depth": 1, "split": "f850", "split_condition": 0.129999995, "yes": 5, "no": 6, "missing": 5 , "children": [
      { "nodeid": 5, "depth": 2, "split": "f690", "split_condition": 0.637104988, "yes": 11, "no": 12, "missing": 11 , "children": [
        { "nodeid": 11, "depth": 3, "split": "f58", "split_condition": 0.551102221, "yes": 17, "no": 18, "missing": 17 , "children": [
          { "nodeid": 17, "depth": 4, "split": "f254", "split_condition": 0.180999994, "yes": 25, "no": 26, "missing": 25 , "children": [
            { "nodeid": 25, "depth": 5, "split": "f24", "split_condition": 0.739000022, "yes": 33, "no": 34, "missing": 33 , "children": [
              { "nodeid": 33, "depth": 6, "split": "f358", "split_condition": 0.604627788, "yes": 39, "no": 40, "missing": 39 , "children": [
                { "nodeid": 39, "depth": 7, "split": "f805", "split_condition": 0.590534985, "yes": 49, "no": 50, "missing": 49 , "children": [
                  { "nodeid": 49, "leaf": -0.0040133982 }, 
                  { "nodeid": 50, "leaf": 0.000555555569 }
                ]}, 
                { "nodeid": 40, "depth": 7, "split": "f777", "split_condition": 0.938000023, "yes": 51, "no": 52, "missing": 51 , "children": [
                  { "nodeid": 51, "leaf": 0.00277777785 }, 
                  { "nodeid": 52, "leaf": -0.00200000009 }
                ]}
              ]}, 
              { "nodeid": 34, "depth": 6, "split": "f48", "split_condition": 0.518072307, "yes": 41, "no": 42, "missing": 41 , "children": [
                { "nodeid": 41, "depth": 7, "split": "f827", "split_condition": 0.197916672, "yes": 53, "no": 54, "missing": 53 , "children": [
                  { "nodeid": 53, "leaf": 0.00166666671 }, 
                  { "nodeid": 54, "leaf": -0.00257575745 }
                ]}, 
                { "nodeid": 42, "leaf": 0.00249999994 }
              ]}
            ]}, 
            { "nodeid": 26, "leaf": 0.00166666671 }
          ]}, 
          { "nodeid": 18, "depth": 4, "split": "f17", "split_condition": 0.331999987, "yes": 27, "no": 28, "missing": 27 , "children": [
            { "nodeid": 27, "leaf": 0.0022727272 }, 
            { "nodeid": 28, "leaf": -0.00166666671 }
          ]}
        ]}, 
        { "nodeid": 12, "depth": 3, "split": "f883", "split_condition": 0.00427807495, "yes": 19, "no": 20, "missing": 19 , "children": [
          { "nodeid": 19, "depth": 4, "split": "f692", "split_condition": 0.536000013, "yes": 29, "no": 30, "missing": 29 , "children": [
            { "nodeid": 29, "depth": 5, "split": "f395", "split_condition": 0.477999985, "yes": 35, "no": 36, "missing": 35 , "children": [
              { "nodeid": 35, "depth": 6, "split": "f818", "split_condition": 0.19189766, "yes": 43, "no": 44, "missing": 43 , "children": [
                { "nodeid": 43, "depth": 7, "split": "f749", "split_condition": 0.462487161, "yes": 55, "no": 56, "missing": 55 , "children": [
                  { "nodeid": 55, "leaf": -0.00318181794 }, 
                  { "nodeid": 56, "leaf": 0.00100000005 }
                ]}, 
                { "nodeid": 44, "depth": 7, "split": "f784", "split_condition": 0.400000006, "yes": 57, "no": 58, "missing": 57 , "children": [
                  { "nodeid": 57, "leaf": -0.00166666671 }, 
                  { "nodeid": 58, "leaf": 0.00433333311 }
                ]}
              ]}, 
              { "nodeid": 36, "depth": 6, "split": "f332", "split_condition": 0.490999997, "yes": 45, "no": 46, "missing": 45 , "children": [
                { "nodeid": 45, "leaf": -0 }, 
                { "nodeid": 46, "leaf": -0.00366666657 }
              ]}
            ]}, 
            { "nodeid": 30, "depth": 5, "split": "f734", "split_condition": 0.286000013, "yes": 37, "no": 38, "missing": 37 , "children": [
              { "nodeid": 37, "leaf": 0.00136363634 }, 
              { "nodeid": 38, "depth": 6, "split": "f779", "split_condition": 0.00499999989, "yes": 47, "no": 48, "missing": 47 , "children": [
                { "nodeid": 47, "depth": 7, "split": "f733", "split_condition": 0.527235329, "yes": 59, "no": 60, "missing": 59 , "children": [
                  { "nodeid": 59, "leaf": -0.00372727262 }, 
                  { "nodeid": 60, "leaf": -0.00033333333 }
                ]}, 
                { "nodeid": 48, "depth": 7, "split": "f755", "split_condition": 0.805999994, "yes": 61, "no": 62, "missing": 61 , "children": [
                  { "nodeid": 61, "leaf": 0.00249999994 }, 
                  { "nodeid": 62, "leaf": -0.000555555569 }
                ]}
              ]}
            ]}
          ]}, 
          { "nodeid": 20, "leaf": -0.00416666642 }
        ]}
      ]}, 
      { "nodeid": 6, "leaf": -0.00495960936 }
    ]}
  ]},
  { "nodeid": 0, "depth": 0, "split": "f848", "split_condition": 0.744813263, "yes": 1, "no": 2, "missing": 1 , "children": [
    { "nodeid": 1, "depth": 1, "split": "f331", "split_condition": 0.842999995, "yes": 3, "no": 4, "missing": 3 , "children": [
      { "nodeid": 3, "depth": 2, "split": "f265", "split_condition": 0.60799998, "yes": 7, "no": 8, "missing": 7 , "children": [
        { "nodeid": 7, "depth": 3, "split": "f194", "split_condition": 0.704626322, "yes": 13, "no": 14, "missing": 13 , "children": [
          { "nodeid": 13, "depth": 4, "split": "f335", "split_condition": 1, "yes": 19, "no": 20, "missing": 19 , "children": [
            { "nodeid": 19, "leaf": -0.00495054759 }, 
            { "nodeid": 20, "leaf": -0.00166666671 }
          ]}, 
          { "nodeid": 14, "depth": 4, "split": "f248", "split_condition": 0.450761408, "yes": 21, "no": 22, "missing": 21 , "children": [
            { "nodeid": 21, "leaf": 0.00124999997 }, 
            { "nodeid": 22, "leaf": -0.00346153858 }
          ]}
        ]}, 
        { "nodeid": 8, "leaf": -0.000555555569 }
      ]}, 
      { "nodeid": 4, "depth": 2, "split": "f324", "split_condition": 0.49949342, "yes": 9, "no": 10, "missing": 9 , "children": [
        { "nodeid": 9, "leaf": 0.00124999997 }, 
        { "nodeid": 10, "leaf": -0.00277777785 }
      ]}
    ]}, 
    { "nodeid": 2, "depth": 1, "split": "f849", "split_condition": 0.0450000018, "yes": 5, "no": 6, "missing": 5 , "children": [
      { "nodeid": 5, "depth": 2, "split": "f690", "split_condition": 0.637104988, "yes": 11, "no": 12, "missing": 11 , "children": [
        { "nodeid": 11, "depth": 3, "split": "f254", "split_condition": 0.180999994, "yes": 15, "no": 16, "missing": 15 , "children": [
          { "nodeid": 15, "depth": 4, "split": "f24", "split_condition": 0.739000022, "yes": 23, "no": 24, "missing": 23 , "children": [
            { "nodeid": 23, "depth": 5, "split": "f735", "split_condition": 0.147389963, "yes": 27, "no": 28, "missing": 27 , "children": [
              { "nodeid": 27, "leaf": 0.000454545458 }, 
              { "nodeid": 28, "depth": 6, "split": "f358", "split_condition": 0.604627788, "yes": 35, "no": 36, "missing": 35 , "children": [
                { "nodeid": 35, "depth": 7, "split": "f135", "split_condition": 0.845000029, "yes": 41, "no": 42, "missing": 41 , "children": [
                  { "nodeid": 41, "leaf": -0.00395612698 }, 
                  { "nodeid": 42, "leaf": -0.000384615385 }
                ]}, 
                { "nodeid": 36, "depth": 7, "split": "f326", "split_condition": 0.518478274, "yes": 43, "no": 44, "missing": 43 , "children": [
                  { "nodeid": 43, "leaf": -0.00124999997 }, 
                  { "nodeid": 44, "leaf": 0.00124999997 }
                ]}
              ]}
            ]}, 
            { "nodeid": 24, "depth": 5, "split": "f13", "split_condition": 0.482972145, "yes": 29, "no": 30, "missing": 29 , "children": [
              { "nodeid": 29, "depth": 6, "split": "f729", "split_condition": 0.522796333, "yes": 37, "no": 38, "missing": 37 , "children": [
                { "nodeid": 37, "leaf": -0.00388888898 }, 
                { "nodeid": 38, "depth": 7, "split": "f831", "split_condition": 0.481999993, "yes": 45, "no": 46, "missing": 45 , "children": [
                  { "nodeid": 45, "leaf": -0.00200000009 }, 
                  { "nodeid": 46, "leaf": 0.00277777785 }
                ]}
              ]}, 
              { "nodeid": 30, "leaf": 0.00166666671 }
            ]}
          ]}, 
          { "nodeid": 16, "leaf": 0.00166666671 }
        ]}, 
        { "nodeid": 12, "depth": 3, "split": "f883", "split_condition": 0.00427807495, "yes": 17, "no": 18, "missing": 17 , "children": [
          { "nodeid": 17, "depth": 4, "split": "f734", "split_condition": 0.305999994, "yes": 25, "no": 26, "missing": 25 , "children": [
            { "nodeid": 25, "depth": 5, "split": "f324", "split_condition": 0.49949342, "yes": 31, "no": 32, "missing": 31 , "children": [
              { "nodeid": 31, "leaf": 0.00300000003 }, 
              { "nodeid": 32, "leaf": -0 }
            ]}, 
            { "nodeid": 26, "depth": 5, "split": "f272", "split_condition": 0.81099999, "yes": 33, "no": 34, "missing": 33 , "children": [
              { "nodeid": 33, "depth": 6, "split": "f738", "split_condition": 0.333000004, "yes": 39, "no": 40, "missing": 39 , "children": [
                { "nodeid": 39, "depth": 7, "split": "f725", "split_condition": 0.312000006, "yes": 47, "no": 48, "missing": 47 , "children": [
                  { "nodeid": 47, "leaf": 0.000789473648 }, 
                  { "nodeid": 48, "leaf": -0.00282608671 }
                ]}, 
                { "nodeid": 40, "depth": 7, "split": "f784", "split_condition": 0.660000026, "yes": 49, "no": 50, "missing": 49 , "children": [
                  { "nodeid": 49, "leaf": -0.00392857147 }, 
                  { "nodeid": 50, "leaf": -0.000555555569 }
                ]}
              ]}, 
              { "nodeid": 34, "leaf": 0.00277777785 }
            ]}
          ]}, 
          { "nodeid": 18, "leaf": -0.00409090891 }
        ]}
      ]}, 
      { "nodeid": 6, "leaf": -0.00495817652 }
    ]}
  ]},
  { "nodeid": 0, "depth": 0, "split": "f848", "split_condition": 0.744813263, "yes": 1, "no": 2, "missing": 1 , "children": [
    { "nodeid": 1, "depth": 1, "split": "f331", "split_condition": 0.842999995, "yes": 3, "no": 4, "missing": 3 , "children": [
      { "nodeid": 3, "depth": 2, "split": "f335", "split_condition": 1, "yes": 7, "no": 8, "missing": 7 , "children": [
        { "nodeid": 7, "leaf": -0.00495017041 }, 
        { "nodeid": 8, "leaf": -0.000555555569 }
      ]}, 
      { "nodeid": 4, "leaf": -0 }
    ]}, 
    { "nodeid": 2, "depth": 1, "split": "f849", "split_condition": 0.0450000018, "yes": 5, "no": 6, "missing": 5 , "children": [
      { "nodeid": 5, "depth": 2, "split": "f690", "split_condition": 0.626911342, "yes": 9, "no": 10, "missing": 9 , "children": [
        { "nodeid": 9, "depth": 3, "split": "f735", "split_condition": 0.289662242, "yes": 11, "no": 12, "missing": 11 , "children": [
          { "nodeid": 11, "depth": 4, "split": "f2", "split_condition": 0.726999998, "yes": 15, "no": 16, "missing": 15 , "children": [
            { "nodeid": 15, "depth": 5, "split": "f695", "split_condition": 0.671999991, "yes": 23, "no": 24, "missing": 23 , "children": [
              { "nodeid": 23, "depth": 6, "split": "f6", "split_condition": 0.074000001, "yes": 33, "no": 34, "missing": 33 , "children": [
                { "nodeid": 33, "depth": 7, "split": "f729", "split_condition": 0.350557238, "yes": 45, "no": 46, "missing": 45 , "children": [
                  { "nodeid": 45, "leaf": 0.00124999997 }, 
                  { "nodeid": 46, "leaf": -0.00404761918 }
                ]}, 
                { "nodeid": 34, "leaf": 0.00124999997 }
              ]}, 
              { "nodeid": 24, "depth": 6, "split": "f743", "split_condition": 0.221000001, "yes": 35, "no": 36, "missing": 35 , "children": [
                { "nodeid": 35, "leaf": 0.00277777785 }, 
                { "nodeid": 36, "leaf": -0.00192307692 }
              ]}
            ]}, 
            { "nodeid": 16, "depth": 5, "split": "f18", "split_condition": 0.985000014, "yes": 25, "no": 26, "missing": 25 , "children": [
              { "nodeid": 25, "leaf": 0.00318181794 }, 
              { "nodeid": 26, "leaf": -0.00124999997 }
            ]}
          ]}, 
          { "nodeid": 12, "depth": 4, "split": "f24", "split_condition": 0.739000022, "yes": 17, "no": 18, "missing": 17 , "children": [
            { "nodeid": 17, "depth": 5, "split": "f134", "split_condition": 0.552999973, "yes": 27, "no": 28, "missing": 27 , "children": [
              { "nodeid": 27, "depth": 6, "split": "f32", "split_condition": 0.95185554, "yes": 37, "no": 38, "missing": 37 , "children": [
                { "nodeid": 37, "depth": 7, "split": "f308", "split_condition": 0.936999977, "yes": 47, "no": 48, "missing": 47 , "children": [
                  { "nodeid": 47, "leaf": -0.00413241982 }, 
                  { "nodeid": 48, "leaf": -0 }
                ]}, 
                { "nodeid": 38, "leaf": -0 }
              ]}, 
              { "nodeid": 28, "depth": 6, "split": "f733", "split_condition": 0.431654662, "yes": 39, "no": 40, "missing": 39 , "children": [
                { "nodeid": 39, "leaf": -0.00318181794 }, 
                { "nodeid": 40, "leaf": 0.00136363634 }
              ]}
            ]}, 
            { "nodeid": 18, "depth": 5, "split": "f829", "split_condition": 0.409999996, "yes": 29, "no": 30, "missing": 29 , "children": [
              { "nodeid": 29, "leaf": 0.00200000009 }, 
              { "nodeid": 30, "depth": 6, "split": "f13", "split_condition": 0.470588237, "yes": 41, "no": 42, "missing": 41 , "children": [
                { "nodeid": 41, "leaf": -0.00357142859 }, 
                { "nodeid": 42, "leaf": -0 }
              ]}
            ]}
          ]}
        ]}, 
        { "nodeid": 10, "depth": 3, "split": "f321", "split_condition": 0.653999984, "yes": 13, "no": 14, "missing": 13 , "children": [
          { "nodeid": 13, "depth": 4, "split": "f838", "split_condition": 0.63499999, "yes": 19, "no": 20, "missing": 19 , "children": [
            { "nodeid": 19, "depth": 5, "split": "f827", "split_condition": 0.648958325, "yes": 31, "no": 32, "missing": 31 , "children": [
              { "nodeid": 31, "depth": 6, "split": "f686", "split_condition": 0.419878304, "yes": 43, "no": 44, "missing": 43 , "children": [
                { "nodeid": 43, "depth": 7, "split": "f778", "split_condition": 0.00600000005, "yes": 49, "no": 50, "missing": 49 , "children": [
                  { "nodeid": 49, "leaf": -0.00233333325 }, 
                  { "nodeid": 50, "leaf": 0.0022727272 }
                ]}, 
                { "nodeid": 44, "depth": 7, "split": "f864", "split_condition": 0.822822809, "yes": 51, "no": 52, "missing": 51 , "children": [
                  { "nodeid": 51, "leaf": -0.00425925944 }, 
                  { "nodeid": 52, "leaf": -0.000714285707 }
                ]}
              ]}, 
              { "nodeid": 32, "leaf": 0.00136363634 }
            ]}, 
            { "nodeid": 20, "leaf": 0.00192307692 }
          ]}, 
          { "nodeid": 14, "depth": 4, "split": "f788", "split_condition": 0.230255842, "yes": 21, "no": 22, "missing": 21 , "children": [
            { "nodeid": 21, "leaf": -0.00124999997 }, 
            { "nodeid": 22, "leaf": 0.00333333341 }
          ]}
        ]}
      ]}, 
      { "nodeid": 6, "leaf": -0.00495331921 }
    ]}
  ]},
  { "nodeid": 0, "depth": 0, "split": "f848", "split_condition": 0.794605792, "yes": 1, "no": 2, "missing": 1 , "children": [
    { "nodeid": 1, "depth": 1, "split": "f335", "split_condition": 1, "yes": 3, "no": 4, "missing": 3 , "children": [
      { "nodeid": 3, "depth": 2, "split": "f194", "split_condition": 0.704626322, "yes": 7, "no": 8, "missing": 7 , "children": [
        { "nodeid": 7, "depth": 3, "split": "f353", "split_condition": 0.952000022, "yes": 11, "no": 12, "missing": 11 , "children": [
          { "nodeid": 11, "leaf": -0.00494983187 }, 
          { "nodeid": 12, "leaf": -0.00166666671 }
        ]}, 
        { "nodeid": 8, "leaf": -0.000454545458 }
      ]}, 
      { "nodeid": 4, "leaf": -0.000555555569 }
    ]}, 
    { "nodeid": 2, "depth": 1, "split": "f849", "split_condition": 0.0450000018, "yes": 5, "no": 6, "missing": 5 , "children": [
      { "nodeid": 5, "depth": 2, "split": "f254", "split_condition": 0.186000004, "yes": 9, "no": 10, "missing": 9 , "children": [
        { "nodeid": 9, "depth": 3, "split": "f733", "split_condition": 0.394655704, "yes": 13, "no": 14, "missing": 13 , "children": [
          { "nodeid": 13, "depth": 4, "split": "f798", "split_condition": 0.248945147, "yes": 15, "no": 16, "missing": 15 , "children": [
            { "nodeid": 15, "depth": 5, "split": "f836", "split_condition": 0.398999989, "yes": 19, "no": 20, "missing": 19 , "children": [
              { "nodeid": 19, "depth": 6, "split": "f812", "split_condition": 0.00300000003, "yes": 27, "no": 28, "missing": 27 , "children": [
                { "nodeid": 27, "leaf": 0.00300000003 }, 
                { "nodeid": 28, "leaf": -0.00166666671 }
              ]}, 
              { "nodeid": 20, "depth": 6, "split": "f27", "split_condition": 0.986000001, "yes": 29, "no": 30, "missing": 29 , "children": [
                { "nodeid": 29, "depth": 7, "split": "f755", "split_condition": 0.47299999, "yes": 33, "no": 34, "missing": 33 , "children": [
                  { "nodeid": 33, "leaf": 0.000555555569 }, 
                  { "nodeid": 34, "leaf": -0.00393333333 }
                ]}, 
                { "nodeid": 30, "depth": 7, "split": "f769", "split_condition": 0.148000002, "yes": 35, "no": 36, "missing": 35 , "children": [
                  { "nodeid": 35, "leaf": -0.00124999997 }, 
                  { "nodeid": 36, "leaf": 0.00249999994 }
                ]}
              ]}
            ]}, 
            { "nodeid": 16, "depth": 5, "split": "f741", "split_condition": 0.231808737, "yes": 21, "no": 22, "missing": 21 , "children": [
              { "nodeid": 21, "leaf": 0.00333333341 }, 
              { "nodeid": 22, "leaf": -0.00192307692 }
            ]}
          ]}, 
          { "nodeid": 14, "depth": 4, "split": "f8", "split_condition": 0.68900001, "yes": 17, "no": 18, "missing": 17 , "children": [
            { "nodeid": 17, "depth": 5, "split": "f449", "split_condition": 0.248999998, "yes": 23, "no": 24, "missing": 23 , "children": [
              { "nodeid": 23, "depth": 6, "split": "f116", "split_condition": 0.696938753, "yes": 31, "no": 32, "missing": 31 , "children": [
                { "nodeid": 31, "depth": 7, "split": "f802", "split_condition": 0.0160000008, "yes": 37, "no": 38, "missing": 37 , "children": [
                  { "nodeid": 37, "leaf": -0.00428571412 }, 
                  { "nodeid": 38, "leaf": -0.0022499999 }
                ]}, 
                { "nodeid": 32, "depth": 7, "split": "f90", "split_condition": 0.534031391, "yes": 39, "no": 40, "missing": 39 , "children": [
                  { "nodeid": 39, "leaf": 0.00166666671 }, 
                  { "nodeid": 40, "leaf": -0.00249999994 }
                ]}
              ]}, 
              { "nodeid": 24, "leaf": 0.000555555569 }
            ]}, 
            { "nodeid": 18, "depth": 5, "split": "f735", "split_condition": 0.542476952, "yes": 25, "no": 26, "missing": 25 , "children": [
              { "nodeid": 25, "leaf": 0.0022727272 }, 
              { "nodeid": 26, "leaf": -0.00333333341 }
            ]}
          ]}
        ]}, 
        { "nodeid": 10, "leaf": 0.00166666671 }
      ]}, 
      { "nodeid": 6, "leaf": -0.00495784124 }
    ]}
  ]},
  { "nodeid": 0, "depth": 0, "split": "f848", "split_condition": 0.744813263, "yes": 1, "no": 2, "missing": 1 , "children": [
    { "nodeid": 1, "depth": 1, "split": "f194", "split_condition": 0.704626322, "yes": 3, "no": 4, "missing": 3 , "children": [
      { "nodeid": 3, "depth": 2, "split": "f336", "split_condition": 0.945619345, "yes": 7, "no": 8, "missing": 7 , "children": [
        { "nodeid": 7, "depth": 3, "split": "f353", "split_condition": 0.952000022, "yes": 11, "no": 12, "missing": 11 , "children": [
          { "nodeid": 11, "leaf": -0.00495100766 }, 
          { "nodeid": 12, "leaf": -0.00166666671 }
        ]}, 
        { "nodeid": 8, "leaf": -0.00166666671 }
      ]}, 
      { "nodeid": 4, "leaf": -0.00100000005 }
    ]}, 
    { "nodeid": 2, "depth": 1, "split": "f849", "split_condition": 0.0450000018, "yes": 5, "no": 6, "missing": 5 , "children": [
      { "nodeid": 5, "depth": 2, "split": "f688", "split_condition": 0.57557559, "yes": 9, "no": 10, "missing": 9 , "children": [
        { "nodeid": 9, "depth": 3, "split": "f755", "split_condition": 0.531000018, "yes": 13, "no": 14, "missing": 13 , "children": [
          { "nodeid": 13, "depth": 4, "split": "f727", "split_condition": 0.122736417, "yes": 17, "no": 18, "missing": 17 , "children": [
            { "nodeid": 17, "leaf": -0.00249999994 }, 
            { "nodeid": 18, "depth": 5, "split": "f8", "split_condition": 0.423000008, "yes": 23, "no": 24, "missing": 23 , "children": [
              { "nodeid": 23, "depth": 6, "split": "f782", "split_condition": 0.0109999999, "yes": 33, "no": 34, "missing": 33 , "children": [
                { "nodeid": 33, "leaf": -0.00249999994 }, 
                { "nodeid": 34, "leaf": 0.00124999997 }
              ]}, 
              { "nodeid": 24, "leaf": 0.00300000003 }
            ]}
          ]}, 
          { "nodeid": 14, "depth": 4, "split": "f24", "split_condition": 0.739000022, "yes": 19, "no": 20, "missing": 19 , "children": [
            { "nodeid": 19, "depth": 5, "split": "f619", "split_condition": 0.0154320989, "yes": 25, "no": 26, "missing": 25 , "children": [
              { "nodeid": 25, "depth": 6, "split": "f431", "split_condition": 0.65200001, "yes": 35, "no": 36, "missing": 35 , "children": [
                { "nodeid": 35, "depth": 7, "split": "f336", "split_condition": 0.745216489, "yes": 39, "no": 40, "missing": 39 , "children": [
                  { "nodeid": 39, "leaf": -0.00415300531 }, 
                  { "nodeid": 40, "leaf": 0.000555555569 }
                ]}, 
                { "nodeid": 36, "leaf": 0.00124999997 }
              ]}, 
              { "nodeid": 26, "leaf": 0.00124999997 }
            ]}, 
            { "nodeid": 20, "depth": 5, "split": "f827", "split_condition": 0.279166669, "yes": 27, "no": 28, "missing": 27 , "children": [
              { "nodeid": 27, "depth": 6, "split": "f9", "split_condition": 0.337000012, "yes": 37, "no": 38, "missing": 37 , "children": [
                { "nodeid": 37, "leaf": -0.00124999997 }, 
                { "nodeid": 38, "leaf": 0.00300000003 }
              ]}, 
              { "nodeid": 28, "leaf": -0.00277777785 }
            ]}
          ]}
        ]}, 
        { "nodeid": 10, "depth": 3, "split": "f837", "split_condition": 0.990999997, "yes": 15, "no": 16, "missing": 15 , "children": [
          { "nodeid": 15, "depth": 4, "split": "f815", "split_condition": 0.291111112, "yes": 21, "no": 22, "missing": 21 , "children": [
            { "nodeid": 21, "depth": 5, "split": "f398", "split_condition": 0.0182012841, "yes": 29, "no": 30, "missing": 29 , "children": [
              { "nodeid": 29, "leaf": -0.00384615385 }, 
              { "nodeid": 30, "leaf": -0 }
            ]}, 
            { "nodeid": 22, "depth": 5, "split": "f327", "split_condition": 0.314999998, "yes": 31, "no": 32, "missing": 31 , "children": [
              { "nodeid": 31, "leaf": 0.00318181794 }, 
              { "nodeid": 32, "leaf": -0.00277777785 }
            ]}
          ]}, 
          { "nodeid": 16, "leaf": 0.00300000003 }
        ]}
      ]}, 
      { "nodeid": 6, "leaf": -0.00495867757 }
    ]}
  ]},
  { "nodeid": 0, "depth": 0, "split": "f848", "split_condition": 0.744813263, "yes": 1, "no": 2, "missing": 1 , "children": [
    { "nodeid": 1, "depth": 1, "split": "f353", "split_condition": 0.952000022, "yes": 3, "no": 4, "missing": 3 , "children": [
      { "nodeid": 3, "depth": 2, "split": "f194", "split_condition": 0.704626322, "yes": 7, "no": 8, "missing": 7 , "children": [
        { "nodeid": 7, "leaf": -0.00494877342 }, 
        { "nodeid": 8, "leaf": -0.000555555569 }
      ]}, 
      { "nodeid": 4, "leaf": -0.000555555569 }
    ]}, 
    { "nodeid": 2, "depth": 1, "split": "f849", "split_condition": 0.0450000018, "yes": 5, "no": 6, "missing": 5 , "children": [
      { "nodeid": 5, "depth": 2, "split": "f429", "split_condition": 0.592391312, "yes": 9, "no": 10, "missing": 9 , "children": [
        { "nodeid": 9, "depth": 3, "split": "f755", "split_condition": 0.531000018, "yes": 11, "no": 12, "missing": 11 , "children": [
          { "nodeid": 11, "depth": 4, "split": "f687", "split_condition": 0.461461455, "yes": 13, "no": 14, "missing": 13 , "children": [
            { "nodeid": 13, "depth": 5, "split": "f848", "split_condition": 0.795643151, "yes": 17, "no": 18, "missing": 17 , "children": [
              { "nodeid": 17, "leaf": -0.00200000009 }, 
              { "nodeid": 18, "leaf": 0.00269230781 }
            ]}, 
            { "nodeid": 14, "leaf": -0.00318181794 }
          ]}, 
          { "nodeid": 12, "depth": 4, "split": "f321", "split_condition": 0.796000004, "yes": 15, "no": 16, "missing": 15 , "children": [
            { "nodeid": 15, "depth": 5, "split": "f619", "split_condition": 0.0154320989, "yes": 19, "no": 20, "missing": 19 , "children": [
              { "nodeid": 19, "depth": 6, "split": "f727", "split_condition": 0.342052311, "yes": 21, "no": 22, "missing": 21 , "children": [
                { "nodeid": 21, "depth": 7, "split": "f127", "split_condition": 0.397000015, "yes": 23, "no": 24, "missing": 23 , "children": [
                  { "nodeid": 23, "leaf": -0.00415540533 }, 
                  { "nodeid": 24, "leaf": -0 }
                ]}, 
                { "nodeid": 22, "depth": 7, "split": "f731", "split_condition": 0.601642728, "yes": 25, "no": 26, "missing": 25 , "children": [
                  { "nodeid": 25, "leaf": -0.00321428571 }, 
                  { "nodeid": 26, "leaf": 0.00142857141 }
                ]}
              ]}, 
              { "nodeid": 20, "leaf": 0.00124999997 }
            ]}, 
            { "nodeid": 16, "leaf": 0.00124999997 }
          ]}
        ]}, 
        { "nodeid": 10, "leaf": 0.00166666671 }
      ]}, 
      { "nodeid": 6, "leaf": -0.0049488754 }
    ]}
  ]},
  { "nodeid": 0, "depth": 0, "split": "f194", "split_condition": 0.704626322, "yes": 1, "no": 2, "missing": 1 , "children": [
    { "nodeid": 1, "depth": 1, "split": "f848", "split_condition": 0.744813263, "yes": 3, "no": 4, "missing": 3 , "children": [
      { "nodeid": 3, "leaf": -0.00494834874 }, 
      { "nodeid": 4, "depth": 2, "split": "f849", "split_condition": 0.0450000018, "yes": 5, "no": 6, "missing": 5 , "children": [
        { "nodeid": 5, "depth": 3, "split": "f622", "split_condition": 0.610991359, "yes": 7, "no": 8, "missing": 7 , "children": [
          { "nodeid": 7, "depth": 4, "split": "f398", "split_condition": 0.376873672, "yes": 9, "no": 10, "missing": 9 , "children": [
            { "nodeid": 9, "depth": 5, "split": "f755", "split_condition": 0.522000015, "yes": 11, "no": 12, "missing": 11 , "children": [
              { "nodeid": 11, "depth": 6, "split": "f687", "split_condition": 0.461461455, "yes": 13, "no": 14, "missing": 13 , "children": [
                { "nodeid": 13, "depth": 7, "split": "f731", "split_condition": 0.396303892, "yes": 17, "no": 18, "missing": 17 , "children": [
                  { "nodeid": 17, "leaf": -0.00166666671 }, 
                  { "nodeid": 18, "leaf": 0.00300000003 }
                ]}, 
                { "nodeid": 14, "leaf": -0.00277777785 }
              ]}, 
              { "nodeid": 12, "depth": 6, "split": "f367", "split_condition": 0.721074402, "yes": 15, "no": 16, "missing": 15 , "children": [
                { "nodeid": 15, "depth": 7, "split": "f24", "split_condition": 0.739000022, "yes": 19, "no": 20, "missing": 19 , "children": [
                  { "nodeid": 19, "leaf": -0.00394531246 }, 
                  { "nodeid": 20, "leaf": -0.00033333333 }
                ]}, 
                { "nodeid": 16, "leaf": 0.00124999997 }
              ]}
            ]}, 
            { "nodeid": 10, "leaf": 0.00124999997 }
          ]}, 
          { "nodeid": 8, "leaf": 0.00124999997 }
        ]}, 
        { "nodeid": 6, "leaf": -0.00493446924 }
      ]}
    ]}, 
    { "nodeid": 2, "leaf": -0 }
  ]},
  { "nodeid": 0, "depth": 0, "split": "f848", "split_condition": 0.744813263, "yes": 1, "no": 2, "missing": 1 , "children": [
    { "nodeid": 1, "leaf": -0.00494660996 }, 
    { "nodeid": 2, "depth": 1, "split": "f849", "split_condition": 0.0450000018, "yes": 3, "no": 4, "missing": 3 , "children": [
      { "nodeid": 3, "depth": 2, "split": "f728", "split_condition": 0.338725984, "yes": 5, "no": 6, "missing": 5 , "children": [
        { "nodeid": 5, "depth": 3, "split": "f625", "split_condition": 0.277777791, "yes": 7, "no": 8, "missing": 7 , "children": [
          { "nodeid": 7, "depth": 4, "split": "f8", "split_condition": 0.677999973, "yes": 11, "no": 12, "missing": 11 , "children": [
            { "nodeid": 11, "depth": 5, "split": "f743", "split_condition": 0.717999995, "yes": 15, "no": 16, "missing": 15 , "children": [
              { "nodeid": 15, "depth": 6, "split": "f107", "split_condition": 0.690999985, "yes": 17, "no": 18, "missing": 17 , "children": [
                { "nodeid": 17, "depth": 7, "split": "f263", "split_condition": 0.571108639, "yes": 21, "no": 22, "missing": 21 , "children": [
                  { "nodeid": 21, "leaf": -0.00424324302 }, 
                  { "nodeid": 22, "leaf": -0 }
                ]}, 
                { "nodeid": 18, "leaf": -0.000454545458 }
              ]}, 
              { "nodeid": 16, "depth": 6, "split": "f325", "split_condition": 0.125531912, "yes": 19, "no": 20, "missing": 19 , "children": [
                { "nodeid": 19, "depth": 7, "split": "f10", "split_condition": 0.256999999, "yes": 23, "no": 24, "missing": 23 , "children": [
                  { "nodeid": 23, "leaf": 0.00249999994 }, 
                  { "nodeid": 24, "leaf": -0.00124999997 }
                ]}, 
                { "nodeid": 20, "leaf": -0.00249999994 }
              ]}
            ]}, 
            { "nodeid": 12, "leaf": 0.000454545458 }
          ]}, 
          { "nodeid": 8, "leaf": 0.00124999997 }
        ]}, 
        { "nodeid": 6, "depth": 3, "split": "f731", "split_condition": 0.621149898, "yes": 9, "no": 10, "missing": 9 , "children": [
          { "nodeid": 9, "depth": 4, "split": "f804", "split_condition": 0.0759999976, "yes": 13, "no": 14, "missing": 13 , "children": [
            { "nodeid": 13, "leaf": -0.00346153858 }, 
            { "nodeid": 14, "leaf": 0.00124999997 }
          ]}, 
          { "nodeid": 10, "leaf": 0.00277777785 }
        ]}
      ]}, 
      { "nodeid": 4, "leaf": -0.00491896272 }
    ]}
  ]},
  { "nodeid": 0, "leaf": -0.00493588578 },
  { "nodeid": 0, "depth": 0, "split": "f848", "split_condition": 0.744813263, "yes": 1, "no": 2, "missing": 1 , "children": [
    { "nodeid": 1, "leaf": -0.00494305883 }, 
    { "nodeid": 2, "depth": 1, "split": "f849", "split_condition": 0.0450000018, "yes": 3, "no": 4, "missing": 3 , "children": [
      { "nodeid": 3, "depth": 2, "split": "f864", "split_condition": 0.814814806, "yes": 5, "no": 6, "missing": 5 , "children": [
        { "nodeid": 5, "depth": 3, "split": "f24", "split_condition": 0.615999997, "yes": 7, "no": 8, "missing": 7 , "children": [
          { "nodeid": 7, "depth": 4, "split": "f779", "split_condition": 0.00600000005, "yes": 11, "no": 12, "missing": 11 , "children": [
            { "nodeid": 11, "depth": 5, "split": "f2", "split_condition": 0.763000011, "yes": 17, "no": 18, "missing": 17 , "children": [
              { "nodeid": 17, "depth": 6, "split": "f837", "split_condition": 0.991999984, "yes": 21, "no": 22, "missing": 21 , "children": [
                { "nodeid": 21, "depth": 7, "split": "f8", "split_condition": 0.672999978, "yes": 23, "no": 24, "missing": 23 , "children": [
                  { "nodeid": 23, "leaf": -0.00448979577 }, 
                  { "nodeid": 24, "leaf": -0.000555555569 }
                ]}, 
                { "nodeid": 22, "leaf": -0.000454545458 }
              ]}, 
              { "nodeid": 18, "leaf": -0 }
            ]}, 
            { "nodeid": 12, "depth": 5, "split": "f838", "split_condition": 0.561999977, "yes": 19, "no": 20, "missing": 19 , "children": [
              { "nodeid": 19, "leaf": 0.00136363634 }, 
              { "nodeid": 20, "leaf": -0.00300000003 }
            ]}
          ]}, 
          { "nodeid": 8, "depth": 4, "split": "f10", "split_condition": 0.266000003, "yes": 13, "no": 14, "missing": 13 , "children": [
            { "nodeid": 13, "leaf": 0.00166666671 }, 
            { "nodeid": 14, "leaf": -0.00249999994 }
          ]}
        ]}, 
        { "nodeid": 6, "depth": 3, "split": "f815", "split_condition": 0.271111101, "yes": 9, "no": 10, "missing": 9 , "children": [
          { "nodeid": 9, "leaf": -0.00269230781 }, 
          { "nodeid": 10, "depth": 4, "split": "f728", "split_condition": 0.267947435, "yes": 15, "no": 16, "missing": 15 , "children": [
            { "nodeid": 15, "leaf": -0 }, 
            { "nodeid": 16, "leaf": 0.00277777785 }
          ]}
        ]}
      ]}, 
      { "nodeid": 4, "leaf": -0.00489949761 }
    ]}
  ]},
  { "nodeid": 0, "depth": 0, "split": "f168", "split_condition": 0.597322345, "yes": 1, "no": 2, "missing": 1 , "children": [
    { "nodeid": 1, "leaf": -0.0049378043 }, 
    { "nodeid": 2, "depth": 1, "split": "f192", "split_condition": 0.629999995, "yes": 3, "no": 4, "missing": 3 , "children": [
      { "nodeid": 3, "leaf": -0.00333333341 }, 
      { "nodeid": 4, "leaf": 0.00124999997 }
    ]}
  ]},
  { "nodeid": 0, "depth": 0, "split": "f168", "split_condition": 0.597322345, "yes": 1, "no": 2, "missing": 1 , "children": [
    { "nodeid": 1, "depth": 1, "split": "f848", "split_condition": 0.784232378, "yes": 3, "no": 4, "missing": 3 , "children": [
      { "nodeid": 3, "leaf": -0.00494666677 }, 
      { "nodeid": 4, "depth": 2, "split": "f849", "split_condition": 0.0450000018, "yes": 7, "no": 8, "missing": 7 , "children": [
        { "nodeid": 7, "depth": 3, "split": "f15", "split_condition": 0.270999998, "yes": 9, "no": 10, "missing": 9 , "children": [
          { "nodeid": 9, "depth": 4, "split": "f758", "split_condition": 0.285858572, "yes": 11, "no": 12, "missing": 11 , "children": [
            { "nodeid": 11, "depth": 5, "split": "f24", "split_condition": 0.542999983, "yes": 15, "no": 16, "missing": 15 , "children": [
              { "nodeid": 15, "depth": 6, "split": "f838", "split_condition": 0.44600001, "yes": 19, "no": 20, "missing": 19 , "children": [
                { "nodeid": 19, "leaf": -0 }, 
                { "nodeid": 20, "leaf": -0.00442307675 }
              ]}, 
              { "nodeid": 16, "leaf": -0 }
            ]}, 
            { "nodeid": 12, "depth": 5, "split": "f42", "split_condition": 1, "yes": 17, "no": 18, "missing": 17 , "children": [
              { "nodeid": 17, "leaf": 0.00166666671 }, 
              { "nodeid": 18, "leaf": -0.00300000003 }
            ]}
          ]}, 
          { "nodeid": 10, "depth": 4, "split": "f3", "split_condition": 0.400000006, "yes": 13, "no": 14, "missing": 13 , "children": [
            { "nodeid": 13, "leaf": 0.00249999994 }, 
            { "nodeid": 14, "leaf": -0.00136363634 }
          ]}
        ]}, 
        { "nodeid": 8, "leaf": -0.00484455982 }
      ]}
    ]}, 
    { "nodeid": 2, "depth": 1, "split": "f240", "split_condition": 0.62512666, "yes": 5, "no": 6, "missing": 5 , "children": [
      { "nodeid": 5, "leaf": 0.00124999997 }, 
      { "nodeid": 6, "leaf": -0.00249999994 }
    ]}
  ]},
  { "nodeid": 0, "depth": 0, "split": "f168", "split_condition": 0.597322345, "yes": 1, "no": 2, "missing": 1 , "children": [
    { "nodeid": 1, "depth": 1, "split": "f848", "split_condition": 0.784232378, "yes": 3, "no": 4, "missing": 3 , "children": [
      { "nodeid": 3, "leaf": -0.00494509144 }, 
      { "nodeid": 4, "depth": 2, "split": "f850", "split_condition": 0.129999995, "yes": 5, "no": 6, "missing": 5 , "children": [
        { "nodeid": 5, "depth": 3, "split": "f12", "split_condition": 0.48588711, "yes": 7, "no": 8, "missing": 7 , "children": [
          { "nodeid": 7, "depth": 4, "split": "f779", "split_condition": 0.00100000005, "yes": 9, "no": 10, "missing": 9 , "children": [
            { "nodeid": 9, "depth": 5, "split": "f736", "split_condition": 0.34533897, "yes": 13, "no": 14, "missing": 13 , "children": [
              { "nodeid": 13, "leaf": 0.00277777785 }, 
              { "nodeid": 14, "leaf": -0.00249999994 }
            ]}, 
            { "nodeid": 10, "depth": 5, "split": "f734", "split_condition": 0.286000013, "yes": 15, "no": 16, "missing": 15 , "children": [
              { "nodeid": 15, "leaf": -0 }, 
              { "nodeid": 16, "leaf": -0.00419999985 }
            ]}
          ]}, 
          { "nodeid": 8, "depth": 4, "split": "f9", "split_condition": 0.476000011, "yes": 11, "no": 12, "missing": 11 , "children": [
            { "nodeid": 11, "leaf": -0.00166666671 }, 
            { "nodeid": 12, "leaf": 0.00277777785 }
          ]}
        ]}, 
        { "nodeid": 6, "leaf": -0.00482248515 }
      ]}
    ]}, 
    { "nodeid": 2, "leaf": -0.00100000005 }
  ]},
  { "nodeid": 0, "depth": 0, "split": "f168", "split_condition": 0.597322345, "yes": 1, "no": 2, "missing": 1 , "children": [
    { "nodeid": 1, "leaf": -0.00492865592 }, 
    { "nodeid": 2, "leaf": -0.000555555569 }
  ]},
  { "nodeid": 0, "leaf": -0.00492561189 },
  { "nodeid": 0, "leaf": -0.0049151564 },
  { "nodeid": 0, "depth": 0, "split": "f848", "split_condition": 0.845435679, "yes": 1, "no": 2, "missing": 1 , "children": [
    { "nodeid": 1, "leaf": -0.00492299208 }, 
    { "nodeid": 2, "depth": 1, "split": "f78", "split_condition": 0.442000002, "yes": 3, "no": 4, "missing": 3 , "children": [
      { "nodeid": 3, "depth": 2, "split": "f688", "split_condition": 0.539539516, "yes": 5, "no": 6, "missing": 5 , "children": [
        { "nodeid": 5, "depth": 3, "split": "f704", "split_condition": 0.475659221, "yes": 7, "no": 8, "missing": 7 , "children": [
          { "nodeid": 7, "leaf": -0.00451219501 }, 
          { "nodeid": 8, "leaf": -0 }
        ]}, 
        { "nodeid": 6, "leaf": -0 }
      ]}, 
      { "nodeid": 4, "leaf": 0.00124999997 }
    ]}
  ]},
  { "nodeid": 0, "leaf": -0.00492954534 },
  { "nodeid": 0, "leaf": -0.00492659491 },
  { "nodeid": 0, "leaf": -0.00492947828 },
  { "nodeid": 0, "leaf": -0.00491254916 },
  { "nodeid": 0, "leaf": -0.00491767284 },
  { "nodeid": 0, "depth": 0, "split": "f848", "split_condition": 0.848547697, "yes": 1, "no": 2, "missing": 1 , "children": [
    { "nodeid": 1, "leaf": -0.00491631776 }, 
    { "nodeid": 2, "depth": 1, "split": "f737", "split_condition": 0.465999991, "yes": 3, "no": 4, "missing": 3 , "children": [
      { "nodeid": 3, "leaf": 0.00124999997 }, 
      { "nodeid": 4, "leaf": -0.00249999994 }
    ]}
  ]},
  { "nodeid": 0, "leaf": -0.00487878779 },
  { "nodeid": 0, "leaf": -0.00486344518 },
  { "nodeid": 0, "leaf": -0.00484126993 },
  { "nodeid": 0, "depth": 0, "split": "f22", "split_condition": 0.258835763, "yes": 1, "no": 2, "missing": 1 , "children": [
    { "nodeid": 1, "leaf": -0.00488274684 }, 
    { "nodeid": 2, "leaf": -0.00166666671 }
  ]},
  { "nodeid": 0, "depth": 0, "split": "f22", "split_condition": 0.258835763, "yes": 1, "no": 2, "missing": 1 , "children": [
    { "nodeid": 1, "leaf": -0.0048765433 }, 
    { "nodeid": 2, "leaf": -0.00136363634 }
  ]},
  { "nodeid": 0, "leaf": -0.00480099488 },
  { "nodeid": 0, "leaf": -0.00480198022 },
  { "nodeid": 0, "depth": 0, "split": "f688", "split_condition": 0.678678691, "yes": 1, "no": 2, "missing": 1 , "children": [
    { "nodeid": 1, "leaf": -0.0048689954 }, 
    { "nodeid": 2, "leaf": -0.00166666671 }
  ]},
  { "nodeid": 0, "leaf": -0.00479999976 },
  { "nodeid": 0, "depth": 0, "split": "f805", "split_condition": 0.488683134, "yes": 1, "no": 2, "missing": 1 , "children": [
    { "nodeid": 1, "leaf": -0.00486577163 }, 
    { "nodeid": 2, "leaf": -0.00166666671 }
  ]},
  { "nodeid": 0, "depth": 0, "split": "f799", "split_condition": 0.570121944, "yes": 1, "no": 2, "missing": 1 , "children": [
    { "nodeid": 1, "leaf": -0.00484251976 }, 
    { "nodeid": 2, "leaf": -0.00136363634 }
  ]},
  { "nodeid": 0, "depth": 0, "split": "f799", "split_condition": 0.570121944, "yes": 1, "no": 2, "missing": 1 , "children": [
    { "nodeid": 1, "leaf": -0.00480392156 }, 
    { "nodeid": 2, "leaf": -0.00100000005 }
  ]},
  { "nodeid": 0, "depth": 0, "split": "f799", "split_condition": 0.570121944, "yes": 1, "no": 2, "missing": 1 , "children": [
    { "nodeid": 1, "leaf": -0.004759036 }, 
    { "nodeid": 2, "leaf": -0.000555555569 }
  ]},
  { "nodeid": 0, "depth": 0, "split": "f799", "split_condition": 0.570121944, "yes": 1, "no": 2, "missing": 1 , "children": [
    { "nodeid": 1, "leaf": -0.00470149238 }, 
    { "nodeid": 2, "leaf": -0 }
  ]},
  { "nodeid": 0, "depth": 0, "split": "f799", "split_condition": 0.528455257, "yes": 1, "no": 2, "missing": 1 , "children": [
    { "nodeid": 1, "leaf": -0.00463636359 }, 
    { "nodeid": 2, "leaf": -0 }
  ]},
  { "nodeid": 0, "leaf": -0.00425000023 },
  { "nodeid": 0, "leaf": -0.00433333311 },
  { "nodeid": 0, "leaf": -0.00419999985 },
  { "nodeid": 0, "leaf": -0.00400000019 },
  { "nodeid": 0, "leaf": -0.00382352946 },
  { "nodeid": 0, "leaf": -0.00357142859 },
  { "nodeid": 0, "leaf": -0.00318181794 },
  { "nodeid": 0, "leaf": -0.00277777785 },
  { "nodeid": 0, "leaf": -0.00277777785 },
  { "nodeid": 0, "leaf": 0 },
  { "nodeid": 0, "leaf": 0 },
  { "nodeid": 0, "leaf": 0 },
  { "nodeid": 0, "leaf": 0 },
  { "nodeid": 0, "leaf": 0 },
  { "nodeid": 0, "leaf": 0 },
  { "nodeid": 0, "leaf": 0 },
  { "nodeid": 0, "leaf": 0 },
  { "nodeid": 0, "leaf": 0 },
  { "nodeid": 0, "leaf": 0 },
  { "nodeid": 0, "leaf": 0 },
  { "nodeid": 0, "leaf": 0 },
  { "nodeid": 0, "leaf": 0 },
  { "nodeid": 0, "leaf": 0 },
  { "nodeid": 0, "leaf": 0 },
  { "nodeid": 0, "leaf": 0 },
  { "nodeid": 0, "leaf": 0 },
  { "nodeid": 0, "leaf": 0 },
  { "nodeid": 0, "leaf": 0 },
  { "nodeid": 0, "leaf": 0 },
  { "nodeid": 0, "leaf": 0 },
  { "nodeid": 0, "leaf": 0 },
  { "nodeid": 0, "leaf": 0 },
  { "nodeid": 0, "leaf": 0 },
  { "nodeid": 0, "leaf": 0 },
  { "nodeid": 0, "leaf": 0 },
  { "nodeid": 0, "leaf": 0 },
  { "nodeid": 0, "leaf": 0 },
  { "nodeid": 0, "leaf": 0 },
  { "nodeid": 0, "leaf": 0 },
  { "nodeid": 0, "leaf": 0 },
  { "nodeid": 0, "leaf": 0 },
  { "nodeid": 0, "leaf": 0 },
  { "nodeid": 0, "leaf": 0 },
  { "nodeid": 0, "leaf": 0 },
  { "nodeid": 0, "leaf": 0 },
  { "nodeid": 0, "leaf": 0 },
  { "nodeid": 0, "leaf": 0 },
  { "nodeid": 0, "leaf": 0 },
  { "nodeid": 0, "leaf": 0 },
  { "nodeid": 0, "leaf": 0 },
  { "nodeid": 0, "leaf": 0 },
  { "nodeid": 0, "leaf": 0 },
  { "nodeid": 0, "leaf": 0 },
  { "nodeid": 0, "leaf": 0 },
  { "nodeid": 0, "leaf": 0 },
  { "nodeid": 0, "leaf": 0 },
  { "nodeid": 0, "leaf": 0 },
  { "nodeid": 0, "leaf": 0 },
  { "nodeid": 0, "leaf": 0 },
  { "nodeid": 0, "leaf": 0 },
  { "nodeid": 0, "leaf": 0 },
  { "nodeid": 0, "leaf": 0 },
  { "nodeid": 0, "leaf": 0 },
  { "nodeid": 0, "leaf": 0 },
  { "nodeid": 0, "leaf": 0 },
  { "nodeid": 0, "leaf": 0 },
  { "nodeid": 0, "leaf": 0 },
  { "nodeid": 0, "leaf": 0 },
  { "nodeid": 0, "leaf": 0 },
  { "nodeid": 0, "leaf": 0 },
  { "nodeid": 0, "leaf": 0 },
  { "nodeid": 0, "leaf": 0 },
  { "nodeid": 0, "leaf": 0 },
  { "nodeid": 0, "leaf": 0 },
  { "nodeid": 0, "leaf": 0 },
  { "nodeid": 0, "leaf": 0 },
  { "nodeid": 0, "leaf": 0 },
  { "nodeid": 0, "leaf": 0 },
  { "nodeid": 0, "leaf": 0 },
  { "nodeid": 0, "leaf": 0 },
  { "nodeid": 0, "leaf": 0 },
  { "nodeid": 0, "leaf": 0 },
  { "nodeid": 0, "leaf": 0 },
  { "nodeid": 0, "leaf": 0 },
  { "nodeid": 0, "leaf": 0 },
  { "nodeid": 0, "leaf": 0 },
  { "nodeid": 0, "leaf": 0 },
  { "nodeid": 0, "leaf": 0 },
  { "nodeid": 0, "leaf": 0 },
  { "nodeid": 0, "leaf": 0 },
  { "nodeid": 0, "leaf": 0 },
  { "nodeid": 0, "leaf": 0 },
  { "nodeid": 0, "leaf": 0 },
  { "nodeid": 0, "leaf": 0 },
  { "nodeid": 0, "leaf": 0 },
  { "nodeid": 0, "leaf": 0 },
  { "nodeid": 0, "leaf": 0 },
  { "nodeid": 0, "leaf": 0 },
  { "nodeid": 0, "leaf": 0 },
  { "nodeid": 0, "leaf": 0 },
  { "nodeid": 0, "leaf": 0 },
  { "nodeid": 0, "leaf": 0 },
  { "nodeid": 0, "leaf": 0 },
  { "nodeid": 0, "leaf": 0 },
  { "nodeid": 0, "leaf": 0 },
  { "nodeid": 0, "leaf": 0 },
  { "nodeid": 0, "leaf": 0 },
  { "nodeid": 0, "leaf": 0 },
  { "nodeid": 0, "leaf": 0 },
  { "nodeid": 0, "leaf": 0 },
  { "nodeid": 0, "leaf": 0 },
  { "nodeid": 0, "leaf": 0 },
  { "nodeid": 0, "leaf": 0 },
  { "nodeid": 0, "leaf": 0 },
  { "nodeid": 0, "leaf": 0 },
  { "nodeid": 0, "leaf": 0 },
  { "nodeid": 0, "leaf": 0 },
  { "nodeid": 0, "leaf": 0 },
  { "nodeid": 0, "leaf": 0 },
  { "nodeid": 0, "leaf": 0 },
  { "nodeid": 0, "leaf": 0 },
  { "nodeid": 0, "leaf": 0 },
  { "nodeid": 0, "leaf": 0 },
  { "nodeid": 0, "leaf": 0 },
  { "nodeid": 0, "leaf": 0 },
  { "nodeid": 0, "leaf": 0 },
  { "nodeid": 0, "leaf": 0 },
  { "nodeid": 0, "leaf": 0 },
  { "nodeid": 0, "leaf": 0 },
  { "nodeid": 0, "leaf": 0 },
  { "nodeid": 0, "leaf": 0 },
  { "nodeid": 0, "leaf": 0 },
  { "nodeid": 0, "leaf": 0 },
  { "nodeid": 0, "leaf": 0 },
  { "nodeid": 0, "leaf": 0 },
  { "nodeid": 0, "leaf": 0 },
  { "nodeid": 0, "leaf": 0 },
  { "nodeid": 0, "leaf": 0 },
  { "nodeid": 0, "leaf": 0 },
  { "nodeid": 0, "leaf": 0 },
  { "nodeid": 0, "leaf": 0 },
  { "nodeid": 0, "leaf": 0 },
  { "nodeid": 0, "leaf": 0 },
  { "nodeid": 0, "leaf": 0 },
  { "nodeid": 0, "leaf": 0 },
  { "nodeid": 0, "leaf": 0 },
  { "nodeid": 0, "leaf": 0 },
  { "nodeid": 0, "leaf": 0 },
  { "nodeid": 0, "leaf": 0 },
  { "nodeid": 0, "leaf": 0 },
  { "nodeid": 0, "leaf": 0 },
  { "nodeid": 0, "leaf": 0 },
  { "nodeid": 0, "leaf": 0 },
  { "nodeid": 0, "leaf": 0 },
  { "nodeid": 0, "leaf": 0 },
  { "nodeid": 0, "leaf": 0 },
  { "nodeid": 0, "leaf": 0 },
  { "nodeid": 0, "leaf": 0 },
  { "nodeid": 0, "leaf": 0 },
  { "nodeid": 0, "leaf": 0 },
  { "nodeid": 0, "leaf": 0 },
  { "nodeid": 0, "leaf": 0 },
  { "nodeid": 0, "leaf": 0 },
  { "nodeid": 0, "leaf": 0 },
  { "nodeid": 0, "leaf": 0 },
  { "nodeid": 0, "leaf": 0 },
  { "nodeid": 0, "leaf": 0 },
  { "nodeid": 0, "leaf": 0 },
  { "nodeid": 0, "leaf": 0 },
  { "nodeid": 0, "leaf": 0 },
  { "nodeid": 0, "leaf": 0 },
  { "nodeid": 0, "leaf": 0 },
  { "nodeid": 0, "leaf": 0 },
  { "nodeid": 0, "leaf": 0 },
  { "nodeid": 0, "leaf": 0 },
  { "nodeid": 0, "leaf": 0 },
  { "nodeid": 0, "leaf": 0 },
  { "nodeid": 0, "leaf": 0 },
  { "nodeid": 0, "leaf": 0 },
  { "nodeid": 0, "leaf": 0 },
  { "nodeid": 0, "leaf": 0 },
  { "nodeid": 0, "leaf": 0 },
  { "nodeid": 0, "leaf": 0 },
  { "nodeid": 0, "leaf": 0 },
  { "nodeid": 0, "leaf": 0 },
  { "nodeid": 0, "leaf": 0 },
  { "nodeid": 0, "leaf": 0 },
  { "nodeid": 0, "leaf": 0 },
  { "nodeid": 0, "leaf": 0 },
  { "nodeid": 0, "leaf": 0 },
  { "nodeid": 0, "leaf": 0 },
  { "nodeid": 0, "leaf": 0 },
  { "nodeid": 0, "leaf": 0 },
  { "nodeid": 0, "leaf": 0 },
  { "nodeid": 0, "leaf": 0 },
  { "nodeid": 0, "leaf": 0 },
  { "nodeid": 0, "leaf": 0 },
  { "nodeid": 0, "leaf": 0 },
  { "nodeid": 0, "leaf": 0 },
  { "nodeid": 0, "leaf": 0 },
  { "nodeid": 0, "leaf": 0 },
  { "nodeid": 0, "leaf": 0 },
  { "nodeid": 0, "leaf": 0 },
  { "nodeid": 0, "leaf": 0 },
  { "nodeid": 0, "leaf": 0 },
  { "nodeid": 0, "leaf": 0 },
  { "nodeid": 0, "leaf": 0 },
  { "nodeid": 0, "leaf": 0 },
  { "nodeid": 0, "leaf": 0 },
  { "nodeid": 0, "leaf": 0 },
  { "nodeid": 0, "leaf": 0 },
  { "nodeid": 0, "leaf": 0 },
  { "nodeid": 0, "leaf": 0 },
  { "nodeid": 0, "leaf": 0 },
  { "nodeid": 0, "leaf": 0 },
  { "nodeid": 0, "leaf": 0 },
  { "nodeid": 0, "leaf": 0 },
  { "nodeid": 0, "leaf": 0 },
  { "nodeid": 0, "leaf": 0 },
  { "nodeid": 0, "leaf": 0 },
  { "nodeid": 0, "leaf": 0 },
  { "nodeid": 0, "leaf": 0 },
  { "nodeid": 0, "leaf": 0 },
  { "nodeid": 0, "leaf": 0 },
  { "nodeid": 0, "leaf": 0 },
  { "nodeid": 0, "leaf": 0 },
  { "nodeid": 0, "leaf": 0 },
  { "nodeid": 0, "leaf": 0 },
  { "nodeid": 0, "leaf": 0 },
  { "nodeid": 0, "leaf": 0 },
  { "nodeid": 0, "leaf": 0 },
  { "nodeid": 0, "leaf": 0 },
  { "nodeid": 0, "leaf": 0 },
  { "nodeid": 0, "leaf": 0 },
  { "nodeid": 0, "leaf": 0 },
  { "nodeid": 0, "leaf": 0 },
  { "nodeid": 0, "leaf": 0 },
  { "nodeid": 0, "leaf": 0 },
  { "nodeid": 0, "leaf": 0 },
  { "nodeid": 0, "leaf": 0 },
  { "nodeid": 0, "leaf": 0 },
  { "nodeid": 0, "leaf": 0 },
  { "nodeid": 0, "leaf": 0 },
  { "nodeid": 0, "leaf": 0 },
  { "nodeid": 0, "leaf": 0 },
  { "nodeid": 0, "leaf": 0 },
  { "nodeid": 0, "leaf": 0 },
  { "nodeid": 0, "leaf": 0 },
  { "nodeid": 0, "leaf": 0 },
  { "nodeid": 0, "leaf": 0 },
  { "nodeid": 0, "leaf": 0 },
  { "nodeid": 0, "leaf": 0 },
  { "nodeid": 0, "leaf": 0 },
  { "nodeid": 0, "leaf": 0 },
  { "nodeid": 0, "leaf": 0 },
  { "nodeid": 0, "leaf": 0 },
  { "nodeid": 0, "leaf": 0 },
  { "nodeid": 0, "leaf": 0 },
  { "nodeid": 0, "leaf": 0 },
  { "nodeid": 0, "leaf": 0 },
  { "nodeid": 0, "leaf": 0 },
  { "nodeid": 0, "leaf": 0 },
  { "nodeid": 0, "leaf": 0 },
  { "nodeid": 0, "leaf": 0 },
  { "nodeid": 0, "leaf": 0 },
  { "nodeid": 0, "leaf": 0 },
  { "nodeid": 0, "leaf": 0 },
  { "nodeid": 0, "leaf": 0 },
  { "nodeid": 0, "leaf": 0 },
  { "nodeid": 0, "leaf": 0 },
  { "nodeid": 0, "leaf": 0 },
  { "nodeid": 0, "leaf": 0 },
  { "nodeid": 0, "leaf": 0 },
  { "nodeid": 0, "leaf": 0 },
  { "nodeid": 0, "leaf": 0 },
  { "nodeid": 0, "leaf": 0 },
  { "nodeid": 0, "leaf": 0 },
  { "nodeid": 0, "leaf": 0 },
  { "nodeid": 0, "leaf": 0 },
  { "nodeid": 0, "leaf": 0 },
  { "nodeid": 0, "leaf": 0 },
  { "nodeid": 0, "leaf": 0 },
  { "nodeid": 0, "leaf": 0 },
  { "nodeid": 0, "leaf": 0 },
  { "nodeid": 0, "leaf": 0 },
  { "nodeid": 0, "leaf": 0 },
  { "nodeid": 0, "leaf": 0 },
  { "nodeid": 0, "leaf": 0 },
  { "nodeid": 0, "leaf": 0 },
  { "nodeid": 0, "leaf": 0 },
  { "nodeid": 0, "leaf": 0 },
  { "nodeid": 0, "leaf": 0 },
  { "nodeid": 0, "leaf": 0 },
  { "nodeid": 0, "leaf": 0 },
  { "nodeid": 0, "leaf": 0 },
  { "nodeid": 0, "leaf": 0 },
  { "nodeid": 0, "leaf": 0 },
  { "nodeid": 0, "leaf": 0 },
  { "nodeid": 0, "leaf": 0 },
  { "nodeid": 0, "leaf": 0 },
  { "nodeid": 0, "leaf": 0 },
  { "nodeid": 0, "leaf": 0 },
  { "nodeid": 0, "leaf": 0 },
  { "nodeid": 0, "leaf": 0 },
  { "nodeid": 0, "leaf": 0 },
  { "nodeid": 0, "leaf": 0 },
  { "nodeid": 0, "leaf": 0 },
  { "nodeid": 0, "leaf": 0 },
  { "nodeid": 0, "leaf": 0 },
  { "nodeid": 0, "leaf": 0 },
  { "nodeid": 0, "leaf": 0 },
  { "nodeid": 0, "leaf": 0 },
  { "nodeid": 0, "leaf": 0 },
  { "nodeid": 0, "leaf": 0 },
  { "nodeid": 0, "leaf": 0 },
  { "nodeid": 0, "leaf": 0 },
  { "nodeid": 0, "leaf": 0 },
  { "nodeid": 0, "leaf": 0 },
  { "nodeid": 0, "leaf": 0 },
  { "nodeid": 0, "leaf": 0 },
  { "nodeid": 0, "leaf": 0 },
  { "nodeid": 0, "leaf": 0 },
  { "nodeid": 0, "leaf": 0 },
  { "nodeid": 0, "leaf": 0 },
  { "nodeid": 0, "leaf": 0 },
  { "nodeid": 0, "leaf": 0 },
  { "nodeid": 0, "leaf": 0 },
  { "nodeid": 0, "leaf": 0 },
  { "nodeid": 0, "leaf": 0 },
  { "nodeid": 0, "leaf": 0 },
  { "nodeid": 0, "leaf": 0 },
  { "nodeid": 0, "leaf": 0 },
  { "nodeid": 0, "leaf": 0 },
  { "nodeid": 0, "leaf": 0 },
  { "nodeid": 0, "leaf": 0 },
  { "nodeid": 0, "leaf": 0 },
  { "nodeid": 0, "leaf": 0 },
  { "nodeid": 0, "leaf": 0 },
  { "nodeid": 0, "leaf": 0 },
  { "nodeid": 0, "leaf": 0 },
  { "nodeid": 0, "leaf": 0 },
  { "nodeid": 0, "leaf": 0 },
  { "nodeid": 0, "leaf": 0 },
  { "nodeid": 0, "leaf": 0 },
  { "nodeid": 0, "leaf": 0 },
  { "nodeid": 0, "leaf": 0 },
  { "nodeid": 0, "leaf": 0 },
  { "nodeid": 0, "leaf": 0 },
  { "nodeid": 0, "leaf": 0 },
  { "nodeid": 0, "leaf": 0 },
  { "nodeid": 0, "leaf": 0 },
  { "nodeid": 0, "leaf": 0 },
  { "nodeid": 0, "leaf": 0 },
  { "nodeid": 0, "leaf": 0 },
  { "nodeid": 0, "leaf": 0 },
  { "nodeid": 0, "leaf": 0 }
]