[
  { "nodeid": 0, "depth": 0, "split": "f125", "split_condition": 0.000477900001, "yes": 1, "no": 2, "missing": 1 , "children": [
    { "nodeid": 1, "depth": 1, "split": "f94", "split_condition": 0.000193309999, "yes": 3, "no": 4, "missing": 3 , "children": [
      { "nodeid": 3, "depth": 2, "split": "f27", "split_condition": 0.000475548994, "yes": 7, "no": 8, "missing": 7 , "children": [
        { "nodeid": 7, "depth": 3, "split": "f64", "split_condition": 0.00804996025, "yes": 15, "no": 16, "missing": 15 , "children": [
          { "nodeid": 15, "depth": 4, "split": "f116", "split_condition": 0.158159003, "yes": 31, "no": 32, "missing": 31 , "children": [
            { "nodeid": 31, "depth": 5, "split": "f58", "split_condition": 0.0631894022, "yes": 63, "no": 64, "missing": 63 , "children": [
              { "nodeid": 63, "depth": 6, "split": "f46", "split_condition": 0.0258579999, "yes": 127, "no": 128, "missing": 127 , "children": [
                { "nodeid": 127, "depth": 7, "split": "f52", "split_condition": 0.0115788998, "yes": 251, "no": 252, "missing": 251 , "children": [
                  { "nodeid": 251, "leaf": -0.0165426806 }, 
                  { "nodeid": 252, "leaf": -0.0193761177 }
                ]}, 
                { "nodeid": 128, "depth": 7, "split": "f66", "split_condition": 0.0168207008, "yes": 253, "no": 254, "missing": 253 , "children": [
                  { "nodeid": 253, "leaf": -0.0107894745 }, 
                  { "nodeid": 254, "leaf": -0.0165243894 }
                ]}
              ]}, 
              { "nodeid": 64, "depth": 6, "split": "f41", "split_condition": 0.0116017004, "yes": 129, "no": 130, "missing": 129 , "children": [
                { "nodeid": 129, "depth": 7, "split": "f46", "split_condition": 0.0885583013, "yes": 255, "no": 256, "missing": 255 , "children": [
                  { "nodeid": 255, "leaf": -0.0168627445 }, 
                  { "nodeid": 256, "leaf": -0.00181818183 }
                ]}, 
                { "nodeid": 130, "depth": 7, "split": "f40", "split_condition": 3.32710006e-05, "yes": 257, "no": 258, "missing": 257 , "children": [
                  { "nodeid": 257, "leaf": -0.0133333337 }, 
                  { "nodeid": 258, "leaf": 0.0193684213 }
                ]}
              ]}
            ]}, 
            { "nodeid": 32, "depth": 5, "split": "f40", "split_condition": 0.00417232001, "yes": 65, "no": 66, "missing": 65 , "children": [
              { "nodeid": 65, "depth": 6, "split": "f48", "split_condition": 0.136843994, "yes": 131, "no": 132, "missing": 131 , "children": [
                { "nodeid": 131, "depth": 7, "split": "f62", "split_condition": 0.0334590003, "yes": 259, "no": 260, "missing": 259 , "children": [
                  { "nodeid": 259, "leaf": 0.00617563725 }, 
                  { "nodeid": 260, "leaf": -0.0119658122 }
                ]}, 
                { "nodeid": 132, "depth": 7, "split": "f64", "split_condition": 6.97916994e-06, "yes": 261, "no": 262, "missing": 261 , "children": [
                  { "nodeid": 261, "leaf": -0.00132427842 }, 
                  { "nodeid": 262, "leaf": 0.0169535726 }
                ]}
              ]}, 
              { "nodeid": 66, "depth": 6, "split": "f38", "split_condition": 0.00292859995, "yes": 133, "no": 134, "missing": 133 , "children": [
                { "nodeid": 133, "depth": 7, "split": "f65", "split_condition": 3.98286011e-06, "yes": 263, "no": 264, "missing": 263 , "children": [
                  { "nodeid": 263, "leaf": -0.0111987377 }, 
                  { "nodeid": 264, "leaf": 0.00773925101 }
                ]}, 
                { "nodeid": 134, "depth": 7, "split": "f121", "split_condition": 0.0540422015, "yes": 265, "no": 266, "missing": 265 , "children": [
                  { "nodeid": 265, "leaf": -0.0187291745 }, 
                  { "nodeid": 266, "leaf": 0.00857142825 }
                ]}
              ]}
            ]}
          ]}, 
          { "nodeid": 16, "depth": 4, "split": "f47", "split_condition": 0.00500780996, "yes": 33, "no": 34, "missing": 33 , "children": [
            { "nodeid": 33, "depth": 5, "split": "f41", "split_condition": 3.53678988e-05, "yes": 67, "no": 68, "missing": 67 , "children": [
              { "nodeid": 67, "leaf": -0.0138461543 }, 
              { "nodeid": 68, "leaf": 0.018666666 }
            ]}, 
            { "nodeid": 34, "depth": 5, "split": "f27", "split_condition": 0.000313308003, "yes": 69, "no": 70, "missing": 69 , "children": [
              { "nodeid": 69, "depth": 6, "split": "f111", "split_condition": 0.272715002, "yes": 135, "no": 136, "missing": 135 , "children": [
                { "nodeid": 135, "depth": 7, "split": "f59", "split_condition": 0.0748450011, "yes": 267, "no": 268, "missing": 267 , "children": [
                  { "nodeid": 267, "leaf": -0.0197243374 }, 
                  { "nodeid": 268, "leaf": -0.0146268653 }
                ]}, 
                { "nodeid": 136, "depth": 7, "split": "f47", "split_condition": 0.0341138989, "yes": 269, "no": 270, "missing": 269 , "children": [
                  { "nodeid": 269, "leaf": 0.0169230774 }, 
                  { "nodeid": 270, "leaf": -0.0177142862 }
                ]}
              ]}, 
              { "nodeid": 70, "depth": 6, "split": "f117", "split_condition": 0.370727003, "yes": 137, "no": 138, "missing": 137 , "children": [
                { "nodeid": 137, "leaf": -0.0189610384 }, 
                { "nodeid": 138, "leaf": 0.0190804601 }
              ]}
            ]}
          ]}
        ]}, 
        { "nodeid": 8, "depth": 3, "split": "f89", "split_condition": 0.000163309, "yes": 17, "no": 18, "missing": 17 , "children": [
          { "nodeid": 17, "depth": 4, "split": "f62", "split_condition": 0.0491835997, "yes": 35, "no": 36, "missing": 35 , "children": [
            { "nodeid": 35, "depth": 5, "split": "f42", "split_condition": 0.000266034011, "yes": 71, "no": 72, "missing": 71 , "children": [
              { "nodeid": 71, "depth": 6, "split": "f65", "split_condition": 0.000345395994, "yes": 139, "no": 140, "missing": 139 , "children": [
                { "nodeid": 139, "leaf": -0.0181395356 }, 
                { "nodeid": 140, "leaf": -0.00222222228 }
              ]}, 
              { "nodeid": 72, "depth": 6, "split": "f60", "split_condition": 0.00289878994, "yes": 141, "no": 142, "missing": 141 , "children": [
                { "nodeid": 141, "depth": 7, "split": "f34", "split_condition": 0.00203029998, "yes": 271, "no": 272, "missing": 271 , "children": [
                  { "nodeid": 271, "leaf": 0.0162416101 }, 
                  { "nodeid": 272, "leaf": -0.0149999997 }
                ]}, 
                { "nodeid": 142, "depth": 7, "split": "f120", "split_condition": 0.0179660991, "yes": 273, "no": 274, "missing": 273 , "children": [
                  { "nodeid": 273, "leaf": -0.0175757576 }, 
                  { "nodeid": 274, "leaf": 0.00193548377 }
                ]}
              ]}
            ]}, 
            { "nodeid": 36, "depth": 5, "split": "f103", "split_condition": 0.131033003, "yes": 73, "no": 74, "missing": 73 , "children": [
              { "nodeid": 73, "depth": 6, "split": "f69", "split_condition": 0.196869001, "yes": 143, "no": 144, "missing": 143 , "children": [
                { "nodeid": 143, "depth": 7, "split": "f116", "split_condition": 0.202124998, "yes": 275, "no": 276, "missing": 275 , "children": [
                  { "nodeid": 275, "leaf": -0.0179999992 }, 
                  { "nodeid": 276, "leaf": -0.0113268616 }
                ]}, 
                { "nodeid": 144, "leaf": 0.0142857144 }
              ]}, 
              { "nodeid": 74, "depth": 6, "split": "f44", "split_condition": 9.55179985e-06, "yes": 145, "no": 146, "missing": 145 , "children": [
                { "nodeid": 145, "depth": 7, "split": "f102", "split_condition": 0.289409995, "yes": 277, "no": 278, "missing": 277 , "children": [
                  { "nodeid": 277, "leaf": -0.00333333341 }, 
                  { "nodeid": 278, "leaf": -0.0185964908 }
                ]}, 
                { "nodeid": 146, "depth": 7, "split": "f44", "split_condition": 0.00122556998, "yes": 279, "no": 280, "missing": 279 , "children": [
                  { "nodeid": 279, "leaf": 0.0185714271 }, 
                  { "nodeid": 280, "leaf": -0.0120000001 }
                ]}
              ]}
            ]}
          ]}, 
          { "nodeid": 18, "depth": 4, "split": "f14", "split_condition": 0.0484233983, "yes": 37, "no": 38, "missing": 37 , "children": [
            { "nodeid": 37, "depth": 5, "split": "f126", "split_condition": 0.000878920022, "yes": 75, "no": 76, "missing": 75 , "children": [
              { "nodeid": 75, "depth": 6, "split": "f85", "split_condition": 0.0290872008, "yes": 147, "no": 148, "missing": 147 , "children": [
                { "nodeid": 147, "depth": 7, "split": "f33", "split_condition": 0.673922002, "yes": 281, "no": 282, "missing": 281 , "children": [
                  { "nodeid": 281, "leaf": 0.01842306 }, 
                  { "nodeid": 282, "leaf": -0.0157024786 }
                ]}, 
                { "nodeid": 148, "depth": 7, "split": "f80", "split_condition": 0.00631383015, "yes": 283, "no": 284, "missing": 283 , "children": [
                  { "nodeid": 283, "leaf": 0.0153488368 }, 
                  { "nodeid": 284, "leaf": -0.0146188335 }
                ]}
              ]}, 
              { "nodeid": 76, "depth": 6, "split": "f60", "split_condition": 0.00369028002, "yes": 149, "no": 150, "missing": 149 , "children": [
                { "nodeid": 149, "depth": 7, "split": "f34", "split_condition": 0.000553007005, "yes": 285, "no": 286, "missing": 285 , "children": [
                  { "nodeid": 285, "leaf": 0.0152941179 }, 
                  { "nodeid": 286, "leaf": -0.00999999978 }
                ]}, 
                { "nodeid": 150, "depth": 7, "split": "f71", "split_condition": 0.00201982004, "yes": 287, "no": 288, "missing": 287 , "children": [
                  { "nodeid": 287, "leaf": 0.00352941174 }, 
                  { "nodeid": 288, "leaf": -0.0168211926 }
                ]}
              ]}
            ]}, 
            { "nodeid": 38, "depth": 5, "split": "f39", "split_condition": 0.00134416996, "yes": 77, "no": 78, "missing": 77 , "children": [
              { "nodeid": 77, "depth": 6, "split": "f116", "split_condition": 0.149820998, "yes": 151, "no": 152, "missing": 151 , "children": [
                { "nodeid": 151, "depth": 7, "split": "f37", "split_condition": 0.000498595997, "yes": 289, "no": 290, "missing": 289 , "children": [
                  { "nodeid": 289, "leaf": -0.0186516847 }, 
                  { "nodeid": 290, "leaf": -0 }
                ]}, 
                { "nodeid": 152, "depth": 7, "split": "f73", "split_condition": 0.0128530003, "yes": 291, "no": 292, "missing": 291 , "children": [
                  { "nodeid": 291, "leaf": 0.0187050346 }, 
                  { "nodeid": 292, "leaf": -0.0107692312 }
                ]}
              ]}, 
              { "nodeid": 78, "depth": 6, "split": "f116", "split_condition": 0.212292999, "yes": 153, "no": 154, "missing": 153 , "children": [
                { "nodeid": 153, "depth": 7, "split": "f77", "split_condition": 0.0940027013, "yes": 293, "no": 294, "missing": 293 , "children": [
                  { "nodeid": 293, "leaf": -0.0187210571 }, 
                  { "nodeid": 294, "leaf": -0.00333333341 }
                ]}, 
                { "nodeid": 154, "depth": 7, "split": "f39", "split_condition": 0.00606996007, "yes": 295, "no": 296, "missing": 295 , "children": [
                  { "nodeid": 295, "leaf": 0.00823529437 }, 
                  { "nodeid": 296, "leaf": -0.0142857144 }
                ]}
              ]}
            ]}
          ]}
        ]}
      ]}, 
      { "nodeid": 4, "depth": 2, "split": "f71", "split_condition": 0.00862086006, "yes": 9, "no": 10, "missing": 9 , "children": [
        { "nodeid": 9, "depth": 3, "split": "f33", "split_condition": 0.705582976, "yes": 19, "no": 20, "missing": 19 , "children": [
          { "nodeid": 19, "depth": 4, "split": "f42", "split_condition": 0.0281192996, "yes": 39, "no": 40, "missing": 39 , "children": [
            { "nodeid": 39, "depth": 5, "split": "f96", "split_condition": 0.0514331013, "yes": 79, "no": 80, "missing": 79 , "children": [
              { "nodeid": 79, "depth": 6, "split": "f14", "split_condition": 0.0629604012, "yes": 155, "no": 156, "missing": 155 , "children": [
                { "nodeid": 155, "depth": 7, "split": "f37", "split_condition": 0.00298625999, "yes": 297, "no": 298, "missing": 297 , "children": [
                  { "nodeid": 297, "leaf": 0.0174912065 }, 
                  { "nodeid": 298, "leaf": -0.00582278473 }
                ]}, 
                { "nodeid": 156, "depth": 7, "split": "f89", "split_condition": 0.00100941001, "yes": 299, "no": 300, "missing": 299 , "children": [
                  { "nodeid": 299, "leaf": -0.00957983173 }, 
                  { "nodeid": 300, "leaf": 0.0125623578 }
                ]}
              ]}, 
              { "nodeid": 80, "depth": 6, "split": "f119", "split_condition": 0.0593798012, "yes": 157, "no": 158, "missing": 157 , "children": [
                { "nodeid": 157, "depth": 7, "split": "f104", "split_condition": 0.0733039007, "yes": 301, "no": 302, "missing": 301 , "children": [
                  { "nodeid": 301, "leaf": 0.00499999989 }, 
                  { "nodeid": 302, "leaf": -0.0174683537 }
                ]}, 
                { "nodeid": 158, "depth": 7, "split": "f87", "split_condition": 0.000990148052, "yes": 303, "no": 304, "missing": 303 , "children": [
                  { "nodeid": 303, "leaf": -0.0160000008 }, 
                  { "nodeid": 304, "leaf": 0.0150684929 }
                ]}
              ]}
            ]}, 
            { "nodeid": 40, "depth": 5, "split": "f45", "split_condition": 0.0132807996, "yes": 81, "no": 82, "missing": 81 , "children": [
              { "nodeid": 81, "depth": 6, "split": "f62", "split_condition": 0.121280998, "yes": 159, "no": 160, "missing": 159 , "children": [
                { "nodeid": 159, "depth": 7, "split": "f49", "split_condition": 0.0295029003, "yes": 305, "no": 306, "missing": 305 , "children": [
                  { "nodeid": 305, "leaf": -0.00545454537 }, 
                  { "nodeid": 306, "leaf": 0.0179661009 }
                ]}, 
                { "nodeid": 160, "depth": 7, "split": "f48", "split_condition": 0.198442996, "yes": 307, "no": 308, "missing": 307 , "children": [
                  { "nodeid": 307, "leaf": -0.0158620682 }, 
                  { "nodeid": 308, "leaf": 0.0114285713 }
                ]}
              ]}, 
              { "nodeid": 82, "depth": 6, "split": "f116", "split_condition": 0.250236988, "yes": 161, "no": 162, "missing": 161 , "children": [
                { "nodeid": 161, "depth": 7, "split": "f76", "split_condition": 0.00325903995, "yes": 309, "no": 310, "missing": 309 , "children": [
                  { "nodeid": 309, "leaf": -0.0187616087 }, 
                  { "nodeid": 310, "leaf": -0.005185185 }
                ]}, 
                { "nodeid": 162, "depth": 7, "split": "f59", "split_condition": 0.00962753035, "yes": 311, "no": 312, "missing": 311 , "children": [
                  { "nodeid": 311, "leaf": -0.00666666683 }, 
                  { "nodeid": 312, "leaf": 0.0146666663 }
                ]}
              ]}
            ]}
          ]}, 
          { "nodeid": 20, "depth": 4, "split": "f38", "split_condition": 0.00101552997, "yes": 41, "no": 42, "missing": 41 , "children": [
            { "nodeid": 41, "depth": 5, "split": "f59", "split_condition": 0.0089124199, "yes": 83, "no": 84, "missing": 83 , "children": [
              { "nodeid": 83, "depth": 6, "split": "f62", "split_condition": 0.0197103992, "yes": 163, "no": 164, "missing": 163 , "children": [
                { "nodeid": 163, "depth": 7, "split": "f87", "split_condition": 0.000246051, "yes": 313, "no": 314, "missing": 313 , "children": [
                  { "nodeid": 313, "leaf": -0.00222222228 }, 
                  { "nodeid": 314, "leaf": 0.0169230774 }
                ]}, 
                { "nodeid": 164, "depth": 7, "split": "f109", "split_condition": 0.102688, "yes": 315, "no": 316, "missing": 315 , "children": [
                  { "nodeid": 315, "leaf": -0.0155378478 }, 
                  { "nodeid": 316, "leaf": 0.000363636354 }
                ]}
              ]}, 
              { "nodeid": 84, "depth": 6, "split": "f76", "split_condition": 0.00069060002, "yes": 165, "no": 166, "missing": 165 , "children": [
                { "nodeid": 165, "depth": 7, "split": "f36", "split_condition": 0.00210137991, "yes": 317, "no": 318, "missing": 317 , "children": [
                  { "nodeid": 317, "leaf": 0.00974358991 }, 
                  { "nodeid": 318, "leaf": -0.0089855073 }
                ]}, 
                { "nodeid": 166, "depth": 7, "split": "f10", "split_condition": 0.0438827984, "yes": 319, "no": 320, "missing": 319 , "children": [
                  { "nodeid": 319, "leaf": 0.0178861786 }, 
                  { "nodeid": 320, "leaf": -0.00666666683 }
                ]}
              ]}
            ]}, 
            { "nodeid": 42, "depth": 5, "split": "f43", "split_condition": 0.00469283015, "yes": 85, "no": 86, "missing": 85 , "children": [
              { "nodeid": 85, "depth": 6, "split": "f116", "split_condition": 0.150734007, "yes": 167, "no": 168, "missing": 167 , "children": [
                { "nodeid": 167, "depth": 7, "split": "f87", "split_condition": 0.0133231999, "yes": 321, "no": 322, "missing": 321 , "children": [
                  { "nodeid": 321, "leaf": -0.0185688734 }, 
                  { "nodeid": 322, "leaf": 0.0076923077 }
                ]}, 
                { "nodeid": 168, "depth": 7, "split": "f124", "split_condition": 0.000291061995, "yes": 323, "no": 324, "missing": 323 , "children": [
                  { "nodeid": 323, "leaf": 0.0105882352 }, 
                  { "nodeid": 324, "leaf": -0.0104761906 }
                ]}
              ]}, 
              { "nodeid": 86, "depth": 6, "split": "f119", "split_condition": 0.0327549987, "yes": 169, "no": 170, "missing": 169 , "children": [
                { "nodeid": 169, "depth": 7, "split": "f108", "split_condition": 0.0199717991, "yes": 325, "no": 326, "missing": 325 , "children": [
                  { "nodeid": 325, "leaf": -0.0146666663 }, 
                  { "nodeid": 326, "leaf": 0.00499999989 }
                ]}, 
                { "nodeid": 170, "leaf": 0.0147826085 }
              ]}
            ]}
          ]}
        ]}, 
        { "nodeid": 10, "depth": 3, "split": "f116", "split_condition": 0.164352998, "yes": 21, "no": 22, "missing": 21 , "children": [
          { "nodeid": 21, "depth": 4, "split": "f119", "split_condition": 0.0526265018, "yes": 43, "no": 44, "missing": 43 , "children": [
            { "nodeid": 43, "depth": 5, "split": "f62", "split_condition": 0.0491835997, "yes": 87, "no": 88, "missing": 87 , "children": [
              { "nodeid": 87, "depth": 6, "split": "f106", "split_condition": 0.134839997, "yes": 171, "no": 172, "missing": 171 , "children": [
                { "nodeid": 171, "depth": 7, "split": "f75", "split_condition": 0.00439677993, "yes": 327, "no": 328, "missing": 327 , "children": [
                  { "nodeid": 327, "leaf": -0.0163636357 }, 
                  { "nodeid": 328, "leaf": 0.00499999989 }
                ]}, 
                { "nodeid": 172, "depth": 7, "split": "f51", "split_condition": 0.00406982005, "yes": 329, "no": 330, "missing": 329 , "children": [
                  { "nodeid": 329, "leaf": -0.00400000019 }, 
                  { "nodeid": 330, "leaf": 0.0156862736 }
                ]}
              ]}, 
              { "nodeid": 88, "depth": 6, "split": "f64", "split_condition": 0.00167705002, "yes": 173, "no": 174, "missing": 173 , "children": [
                { "nodeid": 173, "depth": 7, "split": "f93", "split_condition": 4.40359008e-06, "yes": 331, "no": 332, "missing": 331 , "children": [
                  { "nodeid": 331, "leaf": -0.0158567764 }, 
                  { "nodeid": 332, "leaf": -0.00353909447 }
                ]}, 
                { "nodeid": 174, "depth": 7, "split": "f118", "split_condition": 0.0919843987, "yes": 333, "no": 334, "missing": 333 , "children": [
                  { "nodeid": 333, "leaf": -0.0188536476 }, 
                  { "nodeid": 334, "leaf": -0.00254545454 }
                ]}
              ]}
            ]}, 
            { "nodeid": 44, "depth": 5, "split": "f44", "split_condition": 0.000224158997, "yes": 89, "no": 90, "missing": 89 , "children": [
              { "nodeid": 89, "depth": 6, "split": "f72", "split_condition": 0.00538899004, "yes": 175, "no": 176, "missing": 175 , "children": [
                { "nodeid": 175, "depth": 7, "split": "f10", "split_condition": 0.228163004, "yes": 335, "no": 336, "missing": 335 , "children": [
                  { "nodeid": 335, "leaf": -0.0142857144 }, 
                  { "nodeid": 336, "leaf": -0 }
                ]}, 
                { "nodeid": 176, "depth": 7, "split": "f39", "split_condition": 0.0129022999, "yes": 337, "no": 338, "missing": 337 , "children": [
                  { "nodeid": 337, "leaf": 0.0187499989 }, 
                  { "nodeid": 338, "leaf": -0.0120000001 }
                ]}
              ]}, 
              { "nodeid": 90, "depth": 6, "split": "f48", "split_condition": 0.158805996, "yes": 177, "no": 178, "missing": 177 , "children": [
                { "nodeid": 177, "depth": 7, "split": "f76", "split_condition": 0.0173032004, "yes": 339, "no": 340, "missing": 339 , "children": [
                  { "nodeid": 339, "leaf": -0.0178124998 }, 
                  { "nodeid": 340, "leaf": 0.0111111114 }
                ]}, 
                { "nodeid": 178, "depth": 7, "split": "f105", "split_condition": 0.120805003, "yes": 341, "no": 342, "missing": 341 , "children": [
                  { "nodeid": 341, "leaf": 0.0149514563 }, 
                  { "nodeid": 342, "leaf": -0.0120000001 }
                ]}
              ]}
            ]}
          ]}, 
          { "nodeid": 22, "depth": 4, "split": "f48", "split_condition": 0.172641993, "yes": 45, "no": 46, "missing": 45 , "children": [
            { "nodeid": 45, "depth": 5, "split": "f62", "split_condition": 0.110780999, "yes": 91, "no": 92, "missing": 91 , "children": [
              { "nodeid": 91, "depth": 6, "split": "f86", "split_condition": 0.0229234993, "yes": 179, "no": 180, "missing": 179 , "children": [
                { "nodeid": 179, "depth": 7, "split": "f45", "split_condition": 0.0412617996, "yes": 343, "no": 344, "missing": 343 , "children": [
                  { "nodeid": 343, "leaf": 0.0128964055 }, 
                  { "nodeid": 344, "leaf": -0.00336842122 }
                ]}, 
                { "nodeid": 180, "depth": 7, "split": "f121", "split_condition": 0.0109069999, "yes": 345, "no": 346, "missing": 345 , "children": [
                  { "nodeid": 345, "leaf": 0.00222222228 }, 
                  { "nodeid": 346, "leaf": -0.0193893127 }
                ]}
              ]}, 
              { "nodeid": 92, "depth": 6, "split": "f46", "split_condition": 0.0518000983, "yes": 181, "no": 182, "missing": 181 , "children": [
                { "nodeid": 181, "depth": 7, "split": "f125", "split_condition": 0.000387484004, "yes": 347, "no": 348, "missing": 347 , "children": [
                  { "nodeid": 347, "leaf": -0.0165196061 }, 
                  { "nodeid": 348, "leaf": -0.00105263153 }
                ]}, 
                { "nodeid": 182, "depth": 7, "split": "f48", "split_condition": 0.132993996, "yes": 349, "no": 350, "missing": 349 , "children": [
                  { "nodeid": 349, "leaf": -0.0157692302 }, 
                  { "nodeid": 350, "leaf": 0.00703910552 }
                ]}
              ]}
            ]}, 
            { "nodeid": 46, "depth": 5, "split": "f104", "split_condition": 0.144569993, "yes": 93, "no": 94, "missing": 93 , "children": [
              { "nodeid": 93, "depth": 6, "split": "f106", "split_condition": 0.201695994, "yes": 183, "no": 184, "missing": 183 , "children": [
                { "nodeid": 183, "depth": 7, "split": "f99", "split_condition": 0.0570519008, "yes": 351, "no": 352, "missing": 351 , "children": [
                  { "nodeid": 351, "leaf": 0.009333333 }, 
                  { "nodeid": 352, "leaf": -0.00742857158 }
                ]}, 
                { "nodeid": 184, "depth": 7, "split": "f117", "split_condition": 0.375420004, "yes": 353, "no": 354, "missing": 353 , "children": [
                  { "nodeid": 353, "leaf": 0.0168521032 }, 
                  { "nodeid": 354, "leaf": -0.0139999995 }
                ]}
              ]}, 
              { "nodeid": 94, "depth": 6, "split": "f100", "split_condition": 0.135766, "yes": 185, "no": 186, "missing": 185 , "children": [
                { "nodeid": 185, "depth": 7, "split": "f55", "split_condition": 0.0142938001, "yes": 355, "no": 356, "missing": 355 , "children": [
                  { "nodeid": 355, "leaf": -0.009333333 }, 
                  { "nodeid": 356, "leaf": 0.0152941179 }
                ]}, 
                { "nodeid": 186, "leaf": -0.0185714271 }
              ]}
            ]}
          ]}
        ]}
      ]}
    ]}, 
    { "nodeid": 2, "depth": 1, "split": "f93", "split_condition": 4.40359008e-06, "yes": 5, "no": 6, "missing": 5 , "children": [
      { "nodeid": 5, "depth": 2, "split": "f61", "split_condition": 0.144026995, "yes": 11, "no": 12, "missing": 11 , "children": [
        { "nodeid": 11, "depth": 3, "split": "f102", "split_condition": 0.313244998, "yes": 23, "no": 24, "missing": 23 , "children": [
          { "nodeid": 23, "depth": 4, "split": "f46", "split_condition": 0.0288612004, "yes": 47, "no": 48, "missing": 47 , "children": [
            { "nodeid": 47, "depth": 5, "split": "f49", "split_condition": 0.0107375002, "yes": 95, "no": 96, "missing": 95 , "children": [
              { "nodeid": 95, "depth": 6, "split": "f101", "split_condition": 0.0646106005, "yes": 187, "no": 188, "missing": 187 , "children": [
                { "nodeid": 187, "depth": 7, "split": "f100", "split_condition": 0.0313651003, "yes": 357, "no": 358, "missing": 357 , "children": [
                  { "nodeid": 357, "leaf": 0.00222222228 }, 
                  { "nodeid": 358, "leaf": -0.0147826085 }
                ]}, 
                { "nodeid": 188, "depth": 7, "split": "f36", "split_condition": 0.000894750992, "yes": 359, "no": 360, "missing": 359 , "children": [
                  { "nodeid": 359, "leaf": -0.00400000019 }, 
                  { "nodeid": 360, "leaf": 0.0148387095 }
                ]}
              ]}, 
              { "nodeid": 96, "depth": 6, "split": "f64", "split_condition": 0.00167705002, "yes": 189, "no": 190, "missing": 189 , "children": [
                { "nodeid": 189, "depth": 7, "split": "f48", "split_condition": 0.121835999, "yes": 361, "no": 362, "missing": 361 , "children": [
                  { "nodeid": 361, "leaf": -0.0167424232 }, 
                  { "nodeid": 362, "leaf": -0.00636363588 }
                ]}, 
                { "nodeid": 190, "depth": 7, "split": "f11", "split_condition": 0.00803830009, "yes": 363, "no": 364, "missing": 363 , "children": [
                  { "nodeid": 363, "leaf": 0.00222222228 }, 
                  { "nodeid": 364, "leaf": -0.0194630865 }
                ]}
              ]}
            ]}, 
            { "nodeid": 48, "depth": 5, "split": "f52", "split_condition": 0.0206183009, "yes": 97, "no": 98, "missing": 97 , "children": [
              { "nodeid": 97, "depth": 6, "split": "f103", "split_condition": 0.0655993968, "yes": 191, "no": 192, "missing": 191 , "children": [
                { "nodeid": 191, "depth": 7, "split": "f109", "split_condition": 0.126386002, "yes": 365, "no": 366, "missing": 365 , "children": [
                  { "nodeid": 365, "leaf": -0.0116393445 }, 
                  { "nodeid": 366, "leaf": 0.00829139072 }
                ]}, 
                { "nodeid": 192, "depth": 7, "split": "f99", "split_condition": 0.113706, "yes": 367, "no": 368, "missing": 367 , "children": [
                  { "nodeid": 367, "leaf": -0.01638126 }, 
                  { "nodeid": 368, "leaf": 0.00749999983 }
                ]}
              ]}, 
              { "nodeid": 98, "depth": 6, "split": "f112", "split_condition": 0.264459014, "yes": 193, "no": 194, "missing": 193 , "children": [
                { "nodeid": 193, "depth": 7, "split": "f60", "split_condition": 0.00793277007, "yes": 369, "no": 370, "missing": 369 , "children": [
                  { "nodeid": 369, "leaf": -0.0055999998 }, 
                  { "nodeid": 370, "leaf": -0.0186467655 }
                ]}, 
                { "nodeid": 194, "depth": 7, "split": "f40", "split_condition": 0.00520233996, "yes": 371, "no": 372, "missing": 371 , "children": [
                  { "nodeid": 371, "leaf": 0.0162499994 }, 
                  { "nodeid": 372, "leaf": -0.0133333337 }
                ]}
              ]}
            ]}
          ]}, 
          { "nodeid": 24, "depth": 4, "split": "f71", "split_condition": 0.0122576002, "yes": 49, "no": 50, "missing": 49 , "children": [
            { "nodeid": 49, "depth": 5, "split": "f62", "split_condition": 0.131035, "yes": 99, "no": 100, "missing": 99 , "children": [
              { "nodeid": 99, "depth": 6, "split": "f10", "split_condition": 0.00793906022, "yes": 195, "no": 196, "missing": 195 , "children": [
                { "nodeid": 195, "depth": 7, "split": "f64", "split_condition": 0.000319729006, "yes": 373, "no": 374, "missing": 373 , "children": [
                  { "nodeid": 373, "leaf": 0.0145205474 }, 
                  { "nodeid": 374, "leaf": -0.009333333 }
                ]}, 
                { "nodeid": 196, "depth": 7, "split": "f73", "split_condition": 0.0135920998, "yes": 375, "no": 376, "missing": 375 , "children": [
                  { "nodeid": 375, "leaf": 0.015595777 }, 
                  { "nodeid": 376, "leaf": -0.0128888888 }
                ]}
              ]}, 
              { "nodeid": 100, "depth": 6, "split": "f109", "split_condition": 0.160854995, "yes": 197, "no": 198, "missing": 197 , "children": [
                { "nodeid": 197, "depth": 7, "split": "f47", "split_condition": 0.113937996, "yes": 377, "no": 378, "missing": 377 , "children": [
                  { "nodeid": 377, "leaf": -0.0181884058 }, 
                  { "nodeid": 378, "leaf": 0.00111111114 }
                ]}, 
                { "nodeid": 198, "depth": 7, "split": "f106", "split_condition": 0.242961004, "yes": 379, "no": 380, "missing": 379 , "children": [
                  { "nodeid": 379, "leaf": -0.0104878042 }, 
                  { "nodeid": 380, "leaf": 0.0136842104 }
                ]}
              ]}
            ]}, 
            { "nodeid": 50, "depth": 5, "split": "f120", "split_condition": 0.0526034012, "yes": 101, "no": 102, "missing": 101 , "children": [
              { "nodeid": 101, "depth": 6, "split": "f14", "split_condition": 0.0465957001, "yes": 199, "no": 200, "missing": 199 , "children": [
                { "nodeid": 199, "depth": 7, "split": "f62", "split_condition": 0.128916994, "yes": 381, "no": 382, "missing": 381 , "children": [
                  { "nodeid": 381, "leaf": 0.00612612581 }, 
                  { "nodeid": 382, "leaf": -0.011711712 }
                ]}, 
                { "nodeid": 200, "depth": 7, "split": "f103", "split_condition": 0.0648690984, "yes": 383, "no": 384, "missing": 383 , "children": [
                  { "nodeid": 383, "leaf": -0.000705882383 }, 
                  { "nodeid": 384, "leaf": -0.0163285024 }
                ]}
              ]}, 
              { "nodeid": 102, "depth": 6, "split": "f99", "split_condition": 0.130321994, "yes": 201, "no": 202, "missing": 201 , "children": [
                { "nodeid": 201, "depth": 7, "split": "f113", "split_condition": 0.0659940019, "yes": 385, "no": 386, "missing": 385 , "children": [
                  { "nodeid": 385, "leaf": -0.00266666664 }, 
                  { "nodeid": 386, "leaf": -0.0183486231 }
                ]}, 
                { "nodeid": 202, "depth": 7, "split": "f46", "split_condition": 0.0510976017, "yes": 387, "no": 388, "missing": 387 , "children": [
                  { "nodeid": 387, "leaf": 0.0142857144 }, 
                  { "nodeid": 388, "leaf": -0 }
                ]}
              ]}
            ]}
          ]}
        ]}, 
        { "nodeid": 12, "depth": 3, "split": "f48", "split_condition": 0.165211007, "yes": 25, "no": 26, "missing": 25 , "children": [
          { "nodeid": 25, "depth": 4, "split": "f62", "split_condition": 0.116860002, "yes": 51, "no": 52, "missing": 51 , "children": [
            { "nodeid": 51, "depth": 5, "split": "f119", "split_condition": 0.063657999, "yes": 103, "no": 104, "missing": 103 , "children": [
              { "nodeid": 103, "depth": 6, "split": "f49", "split_condition": 0.0172374994, "yes": 203, "no": 204, "missing": 203 , "children": [
                { "nodeid": 203, "depth": 7, "split": "f121", "split_condition": 0.00333717, "yes": 389, "no": 390, "missing": 389 , "children": [
                  { "nodeid": 389, "leaf": -0.00666666683 }, 
                  { "nodeid": 390, "leaf": 0.0162499994 }
                ]}, 
                { "nodeid": 204, "depth": 7, "split": "f48", "split_condition": 0.159629002, "yes": 391, "no": 392, "missing": 391 , "children": [
                  { "nodeid": 391, "leaf": -0.0116939889 }, 
                  { "nodeid": 392, "leaf": 0.00800000038 }
                ]}
              ]}, 
              { "nodeid": 104, "depth": 6, "split": "f101", "split_condition": 0.0887489021, "yes": 205, "no": 206, "missing": 205 , "children": [
                { "nodeid": 205, "leaf": -0.012941177 }, 
                { "nodeid": 206, "depth": 7, "split": "f73", "split_condition": 0.0106907003, "yes": 393, "no": 394, "missing": 393 , "children": [
                  { "nodeid": 393, "leaf": 0.0195330735 }, 
                  { "nodeid": 394, "leaf": -0.0114285713 }
                ]}
              ]}
            ]}, 
            { "nodeid": 52, "depth": 5, "split": "f64", "split_condition": 0.00597068993, "yes": 105, "no": 106, "missing": 105 , "children": [
              { "nodeid": 105, "depth": 6, "split": "f48", "split_condition": 0.141974002, "yes": 207, "no": 208, "missing": 207 , "children": [
                { "nodeid": 207, "depth": 7, "split": "f101", "split_condition": 0.209876001, "yes": 395, "no": 396, "missing": 395 , "children": [
                  { "nodeid": 395, "leaf": -0.016456211 }, 
                  { "nodeid": 396, "leaf": 0.00814814772 }
                ]}, 
                { "nodeid": 208, "depth": 7, "split": "f116", "split_condition": 0.199318007, "yes": 397, "no": 398, "missing": 397 , "children": [
                  { "nodeid": 397, "leaf": -0.0122549022 }, 
                  { "nodeid": 398, "leaf": 0.00523076952 }
                ]}
              ]}, 
              { "nodeid": 106, "depth": 6, "split": "f106", "split_condition": 0.286278009, "yes": 209, "no": 210, "missing": 209 , "children": [
                { "nodeid": 209, "depth": 7, "split": "f48", "split_condition": 0.162861004, "yes": 399, "no": 400, "missing": 399 , "children": [
                  { "nodeid": 399, "leaf": -0.0195940677 }, 
                  { "nodeid": 400, "leaf": -0.009333333 }
                ]}, 
                { "nodeid": 210, "depth": 7, "split": "f36", "split_condition": 0.00644674012, "yes": 401, "no": 402, "missing": 401 , "children": [
                  { "nodeid": 401, "leaf": -0.0111111114 }, 
                  { "nodeid": 402, "leaf": 0.00999999978 }
                ]}
              ]}
            ]}
          ]}, 
          { "nodeid": 26, "depth": 4, "split": "f59", "split_condition": 0.0364052989, "yes": 53, "no": 54, "missing": 53 , "children": [
            { "nodeid": 53, "depth": 5, "split": "f104", "split_condition": 0.146393001, "yes": 107, "no": 108, "missing": 107 , "children": [
              { "nodeid": 107, "depth": 6, "split": "f75", "split_condition": 0.000134176007, "yes": 211, "no": 212, "missing": 211 , "children": [
                { "nodeid": 211, "depth": 7, "split": "f14", "split_condition": 0.0151065998, "yes": 403, "no": 404, "missing": 403 , "children": [
                  { "nodeid": 403, "leaf": -0.0184688997 }, 
                  { "nodeid": 404, "leaf": -0.00322580617 }
                ]}, 
                { "nodeid": 212, "depth": 7, "split": "f40", "split_condition": 0.0124025, "yes": 405, "no": 406, "missing": 405 , "children": [
                  { "nodeid": 405, "leaf": 0.0180161614 }, 
                  { "nodeid": 406, "leaf": 0.00565709267 }
                ]}
              ]}, 
              { "nodeid": 108, "depth": 6, "split": "f52", "split_condition": 0.0155803002, "yes": 213, "no": 214, "missing": 213 , "children": [
                { "nodeid": 213, "depth": 7, "split": "f46", "split_condition": 0.0246584006, "yes": 407, "no": 408, "missing": 407 , "children": [
                  { "nodeid": 407, "leaf": -0.0138983047 }, 
                  { "nodeid": 408, "leaf": 0.0148936165 }
                ]}, 
                { "nodeid": 214, "depth": 7, "split": "f56", "split_condition": 0.00428400002, "yes": 409, "no": 410, "missing": 409 , "children": [
                  { "nodeid": 409, "leaf": 0.00857142825 }, 
                  { "nodeid": 410, "leaf": -0.0188135579 }
                ]}
              ]}
            ]}, 
            { "nodeid": 54, "depth": 5, "split": "f103", "split_condition": 0.0758439004, "yes": 109, "no": 110, "missing": 109 , "children": [
              { "nodeid": 109, "depth": 6, "split": "f123", "split_condition": 0.00805169996, "yes": 215, "no": 216, "missing": 215 , "children": [
                { "nodeid": 215, "depth": 7, "split": "f47", "split_condition": 0.0889680982, "yes": 411, "no": 412, "missing": 411 , "children": [
                  { "nodeid": 411, "leaf": 0.0149629628 }, 
                  { "nodeid": 412, "leaf": -0.00312499981 }
                ]}, 
                { "nodeid": 216, "depth": 7, "split": "f76", "split_condition": 0.00420713983, "yes": 413, "no": 414, "missing": 413 , "children": [
                  { "nodeid": 413, "leaf": -0.0158208944 }, 
                  { "nodeid": 414, "leaf": 0.00999999978 }
                ]}
              ]}, 
              { "nodeid": 110, "depth": 6, "split": "f47", "split_condition": 0.0478386991, "yes": 217, "no": 218, "missing": 217 , "children": [
                { "nodeid": 217, "leaf": 0.0076923077 }, 
                { "nodeid": 218, "depth": 7, "split": "f82", "split_condition": 0.00349229993, "yes": 415, "no": 416, "missing": 415 , "children": [
                  { "nodeid": 415, "leaf": -0.0186387431 }, 
                  { "nodeid": 416, "leaf": 0.00999999978 }
                ]}
              ]}
            ]}
          ]}
        ]}
      ]}, 
      { "nodeid": 6, "depth": 2, "split": "f48", "split_condition": 0.121835999, "yes": 13, "no": 14, "missing": 13 , "children": [
        { "nodeid": 13, "depth": 3, "split": "f102", "split_condition": 0.317171991, "yes": 27, "no": 28, "missing": 27 , "children": [
          { "nodeid": 27, "depth": 4, "split": "f124", "split_condition": 0.000860773027, "yes": 55, "no": 56, "missing": 55 , "children": [
            { "nodeid": 55, "depth": 5, "split": "f44", "split_condition": 0.000186934005, "yes": 111, "no": 112, "missing": 111 , "children": [
              { "nodeid": 111, "depth": 6, "split": "f56", "split_condition": 0.00208709994, "yes": 219, "no": 220, "missing": 219 , "children": [
                { "nodeid": 219, "depth": 7, "split": "f120", "split_condition": 0.0339158997, "yes": 417, "no": 418, "missing": 417 , "children": [
                  { "nodeid": 417, "leaf": -0.00999999978 }, 
                  { "nodeid": 418, "leaf": 0.0127272718 }
                ]}, 
                { "nodeid": 220, "depth": 7, "split": "f61", "split_condition": 0.0321446992, "yes": 419, "no": 420, "missing": 419 , "children": [
                  { "nodeid": 419, "leaf": 0.00499999989 }, 
                  { "nodeid": 420, "leaf": -0.0184905659 }
                ]}
              ]}, 
              { "nodeid": 112, "depth": 6, "split": "f94", "split_condition": 9.67158994e-05, "yes": 221, "no": 222, "missing": 221 , "children": [
                { "nodeid": 221, "depth": 7, "split": "f71", "split_condition": 0.0100415004, "yes": 421, "no": 422, "missing": 421 , "children": [
                  { "nodeid": 421, "leaf": 0.00410958892 }, 
                  { "nodeid": 422, "leaf": -0.0148571432 }
                ]}, 
                { "nodeid": 222, "depth": 7, "split": "f34", "split_condition": 0.000938548008, "yes": 423, "no": 424, "missing": 423 , "children": [
                  { "nodeid": 423, "leaf": -0.0088888891 }, 
                  { "nodeid": 424, "leaf": 0.0178390294 }
                ]}
              ]}
            ]}, 
            { "nodeid": 56, "depth": 5, "split": "f109", "split_condition": 0.0824085996, "yes": 113, "no": 114, "missing": 113 , "children": [
              { "nodeid": 113, "depth": 6, "split": "f89", "split_condition": 0.00386275002, "yes": 223, "no": 224, "missing": 223 , "children": [
                { "nodeid": 223, "depth": 7, "split": "f35", "split_condition": 0.0475156009, "yes": 425, "no": 426, "missing": 425 , "children": [
                  { "nodeid": 425, "leaf": 0.0110679613 }, 
                  { "nodeid": 426, "leaf": -0.0168192759 }
                ]}, 
                { "nodeid": 224, "depth": 7, "split": "f11", "split_condition": 0.0751079991, "yes": 427, "no": 428, "missing": 427 , "children": [
                  { "nodeid": 427, "leaf": -0.0183333326 }, 
                  { "nodeid": 428, "leaf": 0.0190769229 }
                ]}
              ]}, 
              { "nodeid": 114, "depth": 6, "split": "f11", "split_condition": 0.0247690007, "yes": 225, "no": 226, "missing": 225 , "children": [
                { "nodeid": 225, "depth": 7, "split": "f33", "split_condition": 0.364086002, "yes": 429, "no": 430, "missing": 429 , "children": [
                  { "nodeid": 429, "leaf": 0.018632479 }, 
                  { "nodeid": 430, "leaf": -0.0133333337 }
                ]}, 
                { "nodeid": 226, "depth": 7, "split": "f64", "split_condition": 0.00144690997, "yes": 431, "no": 432, "missing": 431 , "children": [
                  { "nodeid": 431, "leaf": -0.00471544685 }, 
                  { "nodeid": 432, "leaf": -0.0174245015 }
                ]}
              ]}
            ]}
          ]}, 
          { "nodeid": 28, "depth": 4, "split": "f33", "split_condition": 0.386067003, "yes": 57, "no": 58, "missing": 57 , "children": [
            { "nodeid": 57, "depth": 5, "split": "f59", "split_condition": 0.0308087002, "yes": 115, "no": 116, "missing": 115 , "children": [
              { "nodeid": 115, "depth": 6, "split": "f84", "split_condition": 0.0720238015, "yes": 227, "no": 228, "missing": 227 , "children": [
                { "nodeid": 227, "depth": 7, "split": "f97", "split_condition": 9.42630941e-05, "yes": 433, "no": 434, "missing": 433 , "children": [
                  { "nodeid": 433, "leaf": -0.0178591553 }, 
                  { "nodeid": 434, "leaf": 0.0127272718 }
                ]}, 
                { "nodeid": 228, "leaf": 0.0115789473 }
              ]}, 
              { "nodeid": 116, "depth": 6, "split": "f62", "split_condition": 0.118253998, "yes": 229, "no": 230, "missing": 229 , "children": [
                { "nodeid": 229, "depth": 7, "split": "f96", "split_condition": 0.0199439991, "yes": 435, "no": 436, "missing": 435 , "children": [
                  { "nodeid": 435, "leaf": -0.0178378373 }, 
                  { "nodeid": 436, "leaf": -0 }
                ]}, 
                { "nodeid": 230, "depth": 7, "split": "f58", "split_condition": 0.0164879002, "yes": 437, "no": 438, "missing": 437 , "children": [
                  { "nodeid": 437, "leaf": 0.0181081071 }, 
                  { "nodeid": 438, "leaf": -0.00999999978 }
                ]}
              ]}
            ]}, 
            { "nodeid": 58, "depth": 5, "split": "f78", "split_condition": 0.0178273991, "yes": 117, "no": 118, "missing": 117 , "children": [
              { "nodeid": 117, "depth": 6, "split": "f62", "split_condition": 0.155263007, "yes": 231, "no": 232, "missing": 231 , "children": [
                { "nodeid": 231, "depth": 7, "split": "f10", "split_condition": 0.135111004, "yes": 439, "no": 440, "missing": 439 , "children": [
                  { "nodeid": 439, "leaf": 0.0179568194 }, 
                  { "nodeid": 440, "leaf": -0.00406779628 }
                ]}, 
                { "nodeid": 232, "depth": 7, "split": "f48", "split_condition": 0.111279003, "yes": 441, "no": 442, "missing": 441 , "children": [
                  { "nodeid": 441, "leaf": -0.018888887 }, 
                  { "nodeid": 442, "leaf": 0.0120000001 }
                ]}
              ]}, 
              { "nodeid": 118, "depth": 6, "split": "f64", "split_condition": 0.00266806991, "yes": 233, "no": 234, "missing": 233 , "children": [
                { "nodeid": 233, "depth": 7, "split": "f94", "split_condition": 0.00113051001, "yes": 443, "no": 444, "missing": 443 , "children": [
                  { "nodeid": 443, "leaf": 0.00978723355 }, 
                  { "nodeid": 444, "leaf": -0.0104347821 }
                ]}, 
                { "nodeid": 234, "depth": 7, "split": "f104", "split_condition": 0.0601911992, "yes": 445, "no": 446, "missing": 445 , "children": [
                  { "nodeid": 445, "leaf": 0.0090909088 }, 
                  { "nodeid": 446, "leaf": -0.0185714271 }
                ]}
              ]}
            ]}
          ]}
        ]}, 
        { "nodeid": 14, "depth": 3, "split": "f109", "split_condition": 0.132854998, "yes": 29, "no": 30, "missing": 29 , "children": [
          { "nodeid": 29, "depth": 4, "split": "f104", "split_condition": 0.114058003, "yes": 59, "no": 60, "missing": 59 , "children": [
            { "nodeid": 59, "depth": 5, "split": "f98", "split_condition": 0.167097002, "yes": 119, "no": 120, "missing": 119 , "children": [
              { "nodeid": 119, "depth": 6, "split": "f48", "split_condition": 0.172132999, "yes": 235, "no": 236, "missing": 235 , "children": [
                { "nodeid": 235, "depth": 7, "split": "f104", "split_condition": 0.0722123981, "yes": 447, "no": 448, "missing": 447 , "children": [
                  { "nodeid": 447, "leaf": -0.00691588735 }, 
                  { "nodeid": 448, "leaf": -0.0187982824 }
                ]}, 
                { "nodeid": 236, "depth": 7, "split": "f104", "split_condition": 0.0645325035, "yes": 449, "no": 450, "missing": 449 , "children": [
                  { "nodeid": 449, "leaf": 0.0177777782 }, 
                  { "nodeid": 450, "leaf": -0.0111111114 }
                ]}
              ]}, 
              { "nodeid": 120, "depth": 6, "split": "f62", "split_condition": 0.163655996, "yes": 237, "no": 238, "missing": 237 , "children": [
                { "nodeid": 237, "depth": 7, "split": "f14", "split_condition": 0.00189949002, "yes": 451, "no": 452, "missing": 451 , "children": [
                  { "nodeid": 451, "leaf": -0.000300300308 }, 
                  { "nodeid": 452, "leaf": 0.0165905915 }
                ]}, 
                { "nodeid": 238, "depth": 7, "split": "f112", "split_condition": 0.111369997, "yes": 453, "no": 454, "missing": 453 , "children": [
                  { "nodeid": 453, "leaf": 0.0117241377 }, 
                  { "nodeid": 454, "leaf": -0.0170909092 }
                ]}
              ]}
            ]}, 
            { "nodeid": 60, "depth": 5, "split": "f64", "split_condition": 0.00160225003, "yes": 121, "no": 122, "missing": 121 , "children": [
              { "nodeid": 121, "depth": 6, "split": "f14", "split_condition": 0.0291841999, "yes": 239, "no": 240, "missing": 239 , "children": [
                { "nodeid": 239, "depth": 7, "split": "f50", "split_condition": 0.0288663991, "yes": 455, "no": 456, "missing": 455 , "children": [
                  { "nodeid": 455, "leaf": -0 }, 
                  { "nodeid": 456, "leaf": -0.0163636357 }
                ]}, 
                { "nodeid": 240, "depth": 7, "split": "f68", "split_condition": 0.00947570987, "yes": 457, "no": 458, "missing": 457 , "children": [
                  { "nodeid": 457, "leaf": -0.0076923077 }, 
                  { "nodeid": 458, "leaf": 0.0184000004 }
                ]}
              ]}, 
              { "nodeid": 122, "depth": 6, "split": "f34", "split_condition": 0.0214438997, "yes": 241, "no": 242, "missing": 241 , "children": [
                { "nodeid": 241, "depth": 7, "split": "f64", "split_condition": 0.00220626988, "yes": 459, "no": 460, "missing": 459 , "children": [
                  { "nodeid": 459, "leaf": -0.00842105225 }, 
                  { "nodeid": 460, "leaf": -0.0197883584 }
                ]}, 
                { "nodeid": 242, "leaf": 0.0111111114 }
              ]}
            ]}
          ]}, 
          { "nodeid": 30, "depth": 4, "split": "f83", "split_condition": 0.0276717003, "yes": 61, "no": 62, "missing": 61 , "children": [
            { "nodeid": 61, "depth": 5, "split": "f93", "split_condition": 0.0152102998, "yes": 123, "no": 124, "missing": 123 , "children": [
              { "nodeid": 123, "depth": 6, "split": "f62", "split_condition": 0.163655996, "yes": 243, "no": 244, "missing": 243 , "children": [
                { "nodeid": 243, "depth": 7, "split": "f48", "split_condition": 0.149207994, "yes": 461, "no": 462, "missing": 461 , "children": [
                  { "nodeid": 461, "leaf": 0.0140830176 }, 
                  { "nodeid": 462, "leaf": 0.0197165478 }
                ]}, 
                { "nodeid": 244, "depth": 7, "split": "f59", "split_condition": 0.0240591001, "yes": 463, "no": 464, "missing": 463 , "children": [
                  { "nodeid": 463, "leaf": -0.000320512831 }, 
                  { "nodeid": 464, "leaf": 0.0178481452 }
                ]}
              ]}, 
              { "nodeid": 124, "depth": 6, "split": "f65", "split_condition": 0.000329798, "yes": 245, "no": 246, "missing": 245 , "children": [
                { "nodeid": 245, "leaf": -0.0193023253 }, 
                { "nodeid": 246, "depth": 7, "split": "f85", "split_condition": 0.00995092001, "yes": 465, "no": 466, "missing": 465 , "children": [
                  { "nodeid": 465, "leaf": -0.0111111114 }, 
                  { "nodeid": 466, "leaf": 0.019322034 }
                ]}
              ]}
            ]}, 
            { "nodeid": 62, "depth": 5, "split": "f65", "split_condition": 0.000881846005, "yes": 125, "no": 126, "missing": 125 , "children": [
              { "nodeid": 125, "depth": 6, "split": "f62", "split_condition": 0.141427994, "yes": 247, "no": 248, "missing": 247 , "children": [
                { "nodeid": 247, "depth": 7, "split": "f89", "split_condition": 0.00100941001, "yes": 467, "no": 468, "missing": 467 , "children": [
                  { "nodeid": 467, "leaf": 0.0131034479 }, 
                  { "nodeid": 468, "leaf": -0.00976744108 }
                ]}, 
                { "nodeid": 248, "depth": 7, "split": "f110", "split_condition": 0.0464639999, "yes": 469, "no": 470, "missing": 469 , "children": [
                  { "nodeid": 469, "leaf": 0.0139999995 }, 
                  { "nodeid": 470, "leaf": -0.0172815528 }
                ]}
              ]}, 
              { "nodeid": 126, "depth": 6, "split": "f64", "split_condition": 0.00597068993, "yes": 249, "no": 250, "missing": 249 , "children": [
                { "nodeid": 249, "depth": 7, "split": "f36", "split_condition": 0.00987171009, "yes": 471, "no": 472, "missing": 471 , "children": [
                  { "nodeid": 471, "leaf": 0.0194570124 }, 
                  { "nodeid": 472, "leaf": -0.009333333 }
                ]}, 
                { "nodeid": 250, "leaf": -0.0160000008 }
              ]}
            ]}
          ]}
        ]}
      ]}
    ]}
  ]},
  { "nodeid": 0, "depth": 0, "split": "f93", "split_condition": 4.40359008e-06, "yes": 1, "no": 2, "missing": 1 , "children": [
    { "nodeid": 1, "depth": 1, "split": "f64", "split_condition": 0.00772080012, "yes": 3, "no": 4, "missing": 3 , "children": [
      { "nodeid": 3, "depth": 2, "split": "f116", "split_condition": 0.159023002, "yes": 7, "no": 8, "missing": 7 , "children": [
        { "nodeid": 7, "depth": 3, "split": "f58", "split_condition": 0.0519095995, "yes": 15, "no": 16, "missing": 15 , "children": [
          { "nodeid": 15, "depth": 4, "split": "f27", "split_condition": 0.665780008, "yes": 31, "no": 32, "missing": 31 , "children": [
            { "nodeid": 31, "depth": 5, "split": "f41", "split_condition": 0.00255136006, "yes": 63, "no": 64, "missing": 63 , "children": [
              { "nodeid": 63, "depth": 6, "split": "f94", "split_condition": 0.0171911009, "yes": 127, "no": 128, "missing": 127 , "children": [
                { "nodeid": 127, "depth": 7, "split": "f116", "split_condition": 0.131293997, "yes": 245, "no": 246, "missing": 245 , "children": [
                  { "nodeid": 245, "leaf": -0.0186735671 }, 
                  { "nodeid": 246, "leaf": -0.0138892336 }
                ]}, 
                { "nodeid": 128, "depth": 7, "split": "f77", "split_condition": 0.0120679997, "yes": 247, "no": 248, "missing": 247 , "children": [
                  { "nodeid": 247, "leaf": 0.016307693 }, 
                  { "nodeid": 248, "leaf": -0.0076923077 }
                ]}
              ]}, 
              { "nodeid": 64, "depth": 6, "split": "f106", "split_condition": 0.262154996, "yes": 129, "no": 130, "missing": 129 , "children": [
                { "nodeid": 129, "depth": 7, "split": "f66", "split_condition": 0.105462, "yes": 249, "no": 250, "missing": 249 , "children": [
                  { "nodeid": 249, "leaf": -0.0137632769 }, 
                  { "nodeid": 250, "leaf": 0.00720720692 }
                ]}, 
                { "nodeid": 130, "depth": 7, "split": "f62", "split_condition": 0.133016005, "yes": 251, "no": 252, "missing": 251 , "children": [
                  { "nodeid": 251, "leaf": 0.0157942846 }, 
                  { "nodeid": 252, "leaf": -0.0128301876 }
                ]}
              ]}
            ]}, 
            { "nodeid": 32, "depth": 5, "split": "f60", "split_condition": 0.00409738021, "yes": 65, "no": 66, "missing": 65 , "children": [
              { "nodeid": 65, "depth": 6, "split": "f89", "split_condition": 1.62290999e-05, "yes": 131, "no": 132, "missing": 131 , "children": [
                { "nodeid": 131, "depth": 7, "split": "f37", "split_condition": 4.08561982e-06, "yes": 253, "no": 254, "missing": 253 , "children": [
                  { "nodeid": 253, "leaf": -0.0135714281 }, 
                  { "nodeid": 254, "leaf": 0.0165217388 }
                ]}, 
                { "nodeid": 132, "depth": 7, "split": "f14", "split_condition": 1.96976998e-05, "yes": 255, "no": 256, "missing": 255 , "children": [
                  { "nodeid": 255, "leaf": 0.0197069589 }, 
                  { "nodeid": 256, "leaf": -0.0111111114 }
                ]}
              ]}, 
              { "nodeid": 66, "depth": 6, "split": "f70", "split_condition": 0.00330852997, "yes": 133, "no": 134, "missing": 133 , "children": [
                { "nodeid": 133, "depth": 7, "split": "f86", "split_condition": 0.00140130997, "yes": 257, "no": 258, "missing": 257 , "children": [
                  { "nodeid": 257, "leaf": -0.00980392098 }, 
                  { "nodeid": 258, "leaf": 0.0149999997 }
                ]}, 
                { "nodeid": 134, "depth": 7, "split": "f109", "split_condition": 0.128027007, "yes": 259, "no": 260, "missing": 259 , "children": [
                  { "nodeid": 259, "leaf": -0.0187499989 }, 
                  { "nodeid": 260, "leaf": -0 }
                ]}
              ]}
            ]}
          ]}, 
          { "nodeid": 16, "depth": 4, "split": "f41", "split_condition": 0.0134736998, "yes": 33, "no": 34, "missing": 33 , "children": [
            { "nodeid": 33, "depth": 5, "split": "f48", "split_condition": 0.215222999, "yes": 67, "no": 68, "missing": 67 , "children": [
              { "nodeid": 67, "depth": 6, "split": "f66", "split_condition": 0.231382996, "yes": 135, "no": 136, "missing": 135 , "children": [
                { "nodeid": 135, "depth": 7, "split": "f103", "split_condition": 0.137329996, "yes": 261, "no": 262, "missing": 261 , "children": [
                  { "nodeid": 261, "leaf": -0.0178743955 }, 
                  { "nodeid": 262, "leaf": 0.00666666683 }
                ]}, 
                { "nodeid": 136, "leaf": 0.00666666683 }
              ]}, 
              { "nodeid": 68, "depth": 6, "split": "f76", "split_condition": 0.00142612995, "yes": 137, "no": 138, "missing": 137 , "children": [
                { "nodeid": 137, "depth": 7, "split": "f46", "split_condition": 0.0436106995, "yes": 263, "no": 264, "missing": 263 , "children": [
                  { "nodeid": 263, "leaf": -0.0180952381 }, 
                  { "nodeid": 264, "leaf": 0.00476190448 }
                ]}, 
                { "nodeid": 138, "depth": 7, "split": "f56", "split_condition": 0.0405318998, "yes": 265, "no": 266, "missing": 265 , "children": [
                  { "nodeid": 265, "leaf": 0.0175000001 }, 
                  { "nodeid": 266, "leaf": -0 }
                ]}
              ]}
            ]}, 
            { "nodeid": 34, "depth": 5, "split": "f83", "split_condition": 0.0276717003, "yes": 69, "no": 70, "missing": 69 , "children": [
              { "nodeid": 69, "depth": 6, "split": "f71", "split_condition": 0.0116467997, "yes": 139, "no": 140, "missing": 139 , "children": [
                { "nodeid": 139, "depth": 7, "split": "f88", "split_condition": 0.00196357002, "yes": 267, "no": 268, "missing": 267 , "children": [
                  { "nodeid": 267, "leaf": -0.00499999989 }, 
                  { "nodeid": 268, "leaf": 0.0120000001 }
                ]}, 
                { "nodeid": 140, "leaf": -0.0153846154 }
              ]}, 
              { "nodeid": 70, "depth": 6, "split": "f48", "split_condition": 0.126121998, "yes": 141, "no": 142, "missing": 141 , "children": [
                { "nodeid": 141, "depth": 7, "split": "f60", "split_condition": 0.00881243963, "yes": 269, "no": 270, "missing": 269 , "children": [
                  { "nodeid": 269, "leaf": 0.0138461543 }, 
                  { "nodeid": 270, "leaf": -0.0111111114 }
                ]}, 
                { "nodeid": 142, "leaf": 0.019906614 }
              ]}
            ]}
          ]}
        ]}, 
        { "nodeid": 8, "depth": 3, "split": "f40", "split_condition": 0.0281473007, "yes": 17, "no": 18, "missing": 17 , "children": [
          { "nodeid": 17, "depth": 4, "split": "f52", "split_condition": 0.000219377005, "yes": 35, "no": 36, "missing": 35 , "children": [
            { "nodeid": 35, "depth": 5, "split": "f107", "split_condition": 0.00973794982, "yes": 71, "no": 72, "missing": 71 , "children": [
              { "nodeid": 71, "depth": 6, "split": "f106", "split_condition": 0.227064997, "yes": 143, "no": 144, "missing": 143 , "children": [
                { "nodeid": 143, "depth": 7, "split": "f125", "split_condition": 0.00685071014, "yes": 271, "no": 272, "missing": 271 , "children": [
                  { "nodeid": 271, "leaf": -0.018895464 }, 
                  { "nodeid": 272, "leaf": 0.00153846154 }
                ]}, 
                { "nodeid": 144, "depth": 7, "split": "f46", "split_condition": 0.0993518978, "yes": 273, "no": 274, "missing": 273 , "children": [
                  { "nodeid": 273, "leaf": -0.014146341 }, 
                  { "nodeid": 274, "leaf": 0.00857142825 }
                ]}
              ]}, 
              { "nodeid": 72, "depth": 6, "split": "f50", "split_condition": 0.0197832007, "yes": 145, "no": 146, "missing": 145 , "children": [
                { "nodeid": 145, "depth": 7, "split": "f71", "split_condition": 0.0582555011, "yes": 275, "no": 276, "missing": 275 , "children": [
                  { "nodeid": 275, "leaf": -0.0147826085 }, 
                  { "nodeid": 276, "leaf": 0.00666666683 }
                ]}, 
                { "nodeid": 146, "depth": 7, "split": "f120", "split_condition": 0.0323226005, "yes": 277, "no": 278, "missing": 277 , "children": [
                  { "nodeid": 277, "leaf": -0.00947368424 }, 
                  { "nodeid": 278, "leaf": 0.0129999993 }
                ]}
              ]}
            ]}, 
            { "nodeid": 36, "depth": 5, "split": "f59", "split_condition": 0.0384907983, "yes": 73, "no": 74, "missing": 73 , "children": [
              { "nodeid": 73, "depth": 6, "split": "f45", "split_condition": 0.0305415001, "yes": 147, "no": 148, "missing": 147 , "children": [
                { "nodeid": 147, "depth": 7, "split": "f14", "split_condition": 0.107919, "yes": 279, "no": 280, "missing": 279 , "children": [
                  { "nodeid": 279, "leaf": 0.0135982418 }, 
                  { "nodeid": 280, "leaf": -0.00392191624 }
                ]}, 
                { "nodeid": 148, "depth": 7, "split": "f48", "split_condition": 0.180958003, "yes": 281, "no": 282, "missing": 281 , "children": [
                  { "nodeid": 281, "leaf": -0.00611785101 }, 
                  { "nodeid": 282, "leaf": 0.0140740741 }
                ]}
              ]}, 
              { "nodeid": 74, "depth": 6, "split": "f103", "split_condition": 0.0746913999, "yes": 149, "no": 150, "missing": 149 , "children": [
                { "nodeid": 149, "depth": 7, "split": "f119", "split_condition": 0.0473516993, "yes": 283, "no": 284, "missing": 283 , "children": [
                  { "nodeid": 283, "leaf": -0.00264705881 }, 
                  { "nodeid": 284, "leaf": 0.0104761906 }
                ]}, 
                { "nodeid": 150, "depth": 7, "split": "f62", "split_condition": 0.0659022033, "yes": 285, "no": 286, "missing": 285 , "children": [
                  { "nodeid": 285, "leaf": 0.000317460333 }, 
                  { "nodeid": 286, "leaf": -0.0180473365 }
                ]}
              ]}
            ]}
          ]}, 
          { "nodeid": 18, "depth": 4, "split": "f10", "split_condition": 4.42565033e-06, "yes": 37, "no": 38, "missing": 37 , "children": [
            { "nodeid": 37, "depth": 5, "split": "f89", "split_condition": 0.000616477977, "yes": 75, "no": 76, "missing": 75 , "children": [
              { "nodeid": 75, "depth": 6, "split": "f109", "split_condition": 0.208938003, "yes": 151, "no": 152, "missing": 151 , "children": [
                { "nodeid": 151, "depth": 7, "split": "f98", "split_condition": 0.304645985, "yes": 287, "no": 288, "missing": 287 , "children": [
                  { "nodeid": 287, "leaf": -0.0164651163 }, 
                  { "nodeid": 288, "leaf": -0.00285714283 }
                ]}, 
                { "nodeid": 152, "depth": 7, "split": "f47", "split_condition": 0.100619003, "yes": 289, "no": 290, "missing": 289 , "children": [
                  { "nodeid": 289, "leaf": 0.0130434781 }, 
                  { "nodeid": 290, "leaf": -0.0127272718 }
                ]}
              ]}, 
              { "nodeid": 76, "depth": 6, "split": "f80", "split_condition": 0.0122002, "yes": 153, "no": 154, "missing": 153 , "children": [
                { "nodeid": 153, "depth": 7, "split": "f112", "split_condition": 0.196779996, "yes": 291, "no": 292, "missing": 291 , "children": [
                  { "nodeid": 291, "leaf": 0.0189958159 }, 
                  { "nodeid": 292, "leaf": -0.0088888891 }
                ]}, 
                { "nodeid": 154, "depth": 7, "split": "f55", "split_condition": 0.00116619002, "yes": 293, "no": 294, "missing": 293 , "children": [
                  { "nodeid": 293, "leaf": 0.00222222228 }, 
                  { "nodeid": 294, "leaf": -0.0172727276 }
                ]}
              ]}
            ]}, 
            { "nodeid": 38, "depth": 5, "split": "f123", "split_condition": 0.00761211989, "yes": 77, "no": 78, "missing": 77 , "children": [
              { "nodeid": 77, "depth": 6, "split": "f62", "split_condition": 0.0774220005, "yes": 155, "no": 156, "missing": 155 , "children": [
                { "nodeid": 155, "depth": 7, "split": "f27", "split_condition": 0.000271074998, "yes": 295, "no": 296, "missing": 295 , "children": [
                  { "nodeid": 295, "leaf": 0.00800000038 }, 
                  { "nodeid": 296, "leaf": -0.0133333337 }
                ]}, 
                { "nodeid": 156, "depth": 7, "split": "f49", "split_condition": 0.0121294996, "yes": 297, "no": 298, "missing": 297 , "children": [
                  { "nodeid": 297, "leaf": 0.00400000019 }, 
                  { "nodeid": 298, "leaf": -0.0186556466 }
                ]}
              ]}, 
              { "nodeid": 78, "depth": 6, "split": "f48", "split_condition": 0.133849993, "yes": 157, "no": 158, "missing": 157 , "children": [
                { "nodeid": 157, "depth": 7, "split": "f98", "split_condition": 0.271176994, "yes": 299, "no": 300, "missing": 299 , "children": [
                  { "nodeid": 299, "leaf": -0.0181424152 }, 
                  { "nodeid": 300, "leaf": -0.00370370341 }
                ]}, 
                { "nodeid": 158, "depth": 7, "split": "f35", "split_condition": 0.171486005, "yes": 301, "no": 302, "missing": 301 , "children": [
                  { "nodeid": 301, "leaf": -0.0151219508 }, 
                  { "nodeid": 302, "leaf": 0.00842105225 }
                ]}
              ]}
            ]}
          ]}
        ]}
      ]}, 
      { "nodeid": 4, "depth": 2, "split": "f41", "split_condition": 0.0217404999, "yes": 9, "no": 10, "missing": 9 , "children": [
        { "nodeid": 9, "depth": 3, "split": "f65", "split_condition": 3.98286011e-06, "yes": 19, "no": 20, "missing": 19 , "children": [
          { "nodeid": 19, "depth": 4, "split": "f94", "split_condition": 0.00309471996, "yes": 39, "no": 40, "missing": 39 , "children": [
            { "nodeid": 39, "depth": 5, "split": "f94", "split_condition": 0.000247766991, "yes": 79, "no": 80, "missing": 79 , "children": [
              { "nodeid": 79, "depth": 6, "split": "f27", "split_condition": 0.043800801, "yes": 159, "no": 160, "missing": 159 , "children": [
                { "nodeid": 159, "depth": 7, "split": "f124", "split_condition": 0.0298673008, "yes": 303, "no": 304, "missing": 303 , "children": [
                  { "nodeid": 303, "leaf": -0.0196639132 }, 
                  { "nodeid": 304, "leaf": 0.0146666663 }
                ]}, 
                { "nodeid": 160, "depth": 7, "split": "f119", "split_condition": 0.0485754982, "yes": 305, "no": 306, "missing": 305 , "children": [
                  { "nodeid": 305, "leaf": -0.0173154362 }, 
                  { "nodeid": 306, "leaf": 0.0127272718 }
                ]}
              ]}, 
              { "nodeid": 80, "depth": 6, "split": "f43", "split_condition": 0.0022760299, "yes": 161, "no": 162, "missing": 161 , "children": [
                { "nodeid": 161, "depth": 7, "split": "f60", "split_condition": 0.00369028002, "yes": 307, "no": 308, "missing": 307 , "children": [
                  { "nodeid": 307, "leaf": 0.00260869553 }, 
                  { "nodeid": 308, "leaf": -0.0187070705 }
                ]}, 
                { "nodeid": 162, "depth": 7, "split": "f10", "split_condition": 0.0875314027, "yes": 309, "no": 310, "missing": 309 , "children": [
                  { "nodeid": 309, "leaf": 0.0177914109 }, 
                  { "nodeid": 310, "leaf": -0.0140740741 }
                ]}
              ]}
            ]}, 
            { "nodeid": 40, "depth": 5, "split": "f76", "split_condition": 0.0025506299, "yes": 81, "no": 82, "missing": 81 , "children": [
              { "nodeid": 81, "depth": 6, "split": "f62", "split_condition": 0.0430709012, "yes": 163, "no": 164, "missing": 163 , "children": [
                { "nodeid": 163, "leaf": 0.0133333337 }, 
                { "nodeid": 164, "depth": 7, "split": "f61", "split_condition": 0.314054012, "yes": 311, "no": 312, "missing": 311 , "children": [
                  { "nodeid": 311, "leaf": -0.0193157066 }, 
                  { "nodeid": 312, "leaf": 0.00999999978 }
                ]}
              ]}, 
              { "nodeid": 82, "depth": 6, "split": "f66", "split_condition": 0.0272147991, "yes": 165, "no": 166, "missing": 165 , "children": [
                { "nodeid": 165, "depth": 7, "split": "f48", "split_condition": 0.135353997, "yes": 313, "no": 314, "missing": 313 , "children": [
                  { "nodeid": 313, "leaf": -0.00823529437 }, 
                  { "nodeid": 314, "leaf": 0.0196226407 }
                ]}, 
                { "nodeid": 166, "depth": 7, "split": "f112", "split_condition": 0.159678996, "yes": 315, "no": 316, "missing": 315 , "children": [
                  { "nodeid": 315, "leaf": 0.00857142825 }, 
                  { "nodeid": 316, "leaf": -0.018730158 }
                ]}
              ]}
            ]}
          ]}, 
          { "nodeid": 20, "depth": 4, "split": "f61", "split_condition": 0.181831002, "yes": 41, "no": 42, "missing": 41 , "children": [
            { "nodeid": 41, "depth": 5, "split": "f106", "split_condition": 0.285073996, "yes": 83, "no": 84, "missing": 83 , "children": [
              { "nodeid": 83, "depth": 6, "split": "f48", "split_condition": 0.183868006, "yes": 167, "no": 168, "missing": 167 , "children": [
                { "nodeid": 167, "depth": 7, "split": "f62", "split_condition": 0.0572171994, "yes": 317, "no": 318, "missing": 317 , "children": [
                  { "nodeid": 317, "leaf": 0.0113513516 }, 
                  { "nodeid": 318, "leaf": -0.0188456383 }
                ]}, 
                { "nodeid": 168, "depth": 7, "split": "f47", "split_condition": 0.0639152005, "yes": 319, "no": 320, "missing": 319 , "children": [
                  { "nodeid": 319, "leaf": 0.0156521741 }, 
                  { "nodeid": 320, "leaf": -0.0120547945 }
                ]}
              ]}, 
              { "nodeid": 84, "depth": 6, "split": "f96", "split_condition": 0.0317710005, "yes": 169, "no": 170, "missing": 169 , "children": [
                { "nodeid": 169, "depth": 7, "split": "f34", "split_condition": 0.00109718996, "yes": 321, "no": 322, "missing": 321 , "children": [
                  { "nodeid": 321, "leaf": -0.00999999978 }, 
                  { "nodeid": 322, "leaf": 0.0182857141 }
                ]}, 
                { "nodeid": 170, "leaf": -0.0163636357 }
              ]}
            ]}, 
            { "nodeid": 42, "depth": 5, "split": "f65", "split_condition": 0.000428310013, "yes": 85, "no": 86, "missing": 85 , "children": [
              { "nodeid": 85, "depth": 6, "split": "f55", "split_condition": 0.0116611999, "yes": 171, "no": 172, "missing": 171 , "children": [
                { "nodeid": 171, "depth": 7, "split": "f49", "split_condition": 0.0243896004, "yes": 323, "no": 324, "missing": 323 , "children": [
                  { "nodeid": 323, "leaf": 0.0149999997 }, 
                  { "nodeid": 324, "leaf": -0.0170000009 }
                ]}, 
                { "nodeid": 172, "depth": 7, "split": "f48", "split_condition": 0.185260996, "yes": 325, "no": 326, "missing": 325 , "children": [
                  { "nodeid": 325, "leaf": -0.014146341 }, 
                  { "nodeid": 326, "leaf": 0.0193187334 }
                ]}
              ]}, 
              { "nodeid": 86, "depth": 6, "split": "f125", "split_condition": 0.00549599994, "yes": 173, "no": 174, "missing": 173 , "children": [
                { "nodeid": 173, "depth": 7, "split": "f98", "split_condition": 0.295911998, "yes": 327, "no": 328, "missing": 327 , "children": [
                  { "nodeid": 327, "leaf": -0.0170621462 }, 
                  { "nodeid": 328, "leaf": 0.0090909088 }
                ]}, 
                { "nodeid": 174, "depth": 7, "split": "f40", "split_condition": 0.00434482982, "yes": 329, "no": 330, "missing": 329 , "children": [
                  { "nodeid": 329, "leaf": 0.0179310348 }, 
                  { "nodeid": 330, "leaf": -0.0160000008 }
                ]}
              ]}
            ]}
          ]}
        ]}, 
        { "nodeid": 10, "depth": 3, "split": "f48", "split_condition": 0.182210997, "yes": 21, "no": 22, "missing": 21 , "children": [
          { "nodeid": 21, "depth": 4, "split": "f59", "split_condition": 0.0657031015, "yes": 43, "no": 44, "missing": 43 , "children": [
            { "nodeid": 43, "depth": 5, "split": "f62", "split_condition": 0.0430709012, "yes": 87, "no": 88, "missing": 87 , "children": [
              { "nodeid": 87, "leaf": 0.00545454537 }, 
              { "nodeid": 88, "depth": 6, "split": "f103", "split_condition": 0.0261221994, "yes": 175, "no": 176, "missing": 175 , "children": [
                { "nodeid": 175, "depth": 7, "split": "f34", "split_condition": 0.000117951, "yes": 331, "no": 332, "missing": 331 , "children": [
                  { "nodeid": 331, "leaf": 0.0138461543 }, 
                  { "nodeid": 332, "leaf": -0.0146666663 }
                ]}, 
                { "nodeid": 176, "depth": 7, "split": "f111", "split_condition": 0.280310005, "yes": 333, "no": 334, "missing": 333 , "children": [
                  { "nodeid": 333, "leaf": -0.01931284 }, 
                  { "nodeid": 334, "leaf": -0.00588235306 }
                ]}
              ]}
            ]}, 
            { "nodeid": 44, "depth": 5, "split": "f35", "split_condition": 0.0927229002, "yes": 89, "no": 90, "missing": 89 , "children": [
              { "nodeid": 89, "leaf": 0.0146666663 }, 
              { "nodeid": 90, "leaf": -0 }
            ]}
          ]}, 
          { "nodeid": 22, "depth": 4, "split": "f33", "split_condition": 0.314411014, "yes": 45, "no": 46, "missing": 45 , "children": [
            { "nodeid": 45, "depth": 5, "split": "f66", "split_condition": 0.0758432001, "yes": 91, "no": 92, "missing": 91 , "children": [
              { "nodeid": 91, "depth": 6, "split": "f121", "split_condition": 0.00226522004, "yes": 177, "no": 178, "missing": 177 , "children": [
                { "nodeid": 177, "leaf": -0.00222222228 }, 
                { "nodeid": 178, "leaf": -0.018723404 }
              ]}, 
              { "nodeid": 92, "depth": 6, "split": "f48", "split_condition": 0.231782004, "yes": 179, "no": 180, "missing": 179 , "children": [
                { "nodeid": 179, "leaf": -0.00499999989 }, 
                { "nodeid": 180, "leaf": 0.0136842104 }
              ]}
            ]}, 
            { "nodeid": 46, "depth": 5, "split": "f87", "split_condition": 0.00120105001, "yes": 93, "no": 94, "missing": 93 , "children": [
              { "nodeid": 93, "leaf": -0.00999999978 }, 
              { "nodeid": 94, "depth": 6, "split": "f14", "split_condition": 0.0030412199, "yes": 181, "no": 182, "missing": 181 , "children": [
                { "nodeid": 181, "leaf": 0.0199197866 }, 
                { "nodeid": 182, "leaf": -0.00499999989 }
              ]}
            ]}
          ]}
        ]}
      ]}
    ]}, 
    { "nodeid": 2, "depth": 1, "split": "f109", "split_condition": 0.140521005, "yes": 5, "no": 6, "missing": 5 , "children": [
      { "nodeid": 5, "depth": 2, "split": "f105", "split_condition": 0.0814374015, "yes": 11, "no": 12, "missing": 11 , "children": [
        { "nodeid": 11, "depth": 3, "split": "f71", "split_condition": 0.00562924007, "yes": 23, "no": 24, "missing": 23 , "children": [
          { "nodeid": 23, "depth": 4, "split": "f90", "split_condition": 0.000822959992, "yes": 47, "no": 48, "missing": 47 , "children": [
            { "nodeid": 47, "depth": 5, "split": "f93", "split_condition": 0.00104703999, "yes": 95, "no": 96, "missing": 95 , "children": [
              { "nodeid": 95, "depth": 6, "split": "f10", "split_condition": 0.00419277977, "yes": 183, "no": 184, "missing": 183 , "children": [
                { "nodeid": 183, "depth": 7, "split": "f86", "split_condition": 0.000233567, "yes": 335, "no": 336, "missing": 335 , "children": [
                  { "nodeid": 335, "leaf": -0.0117241377 }, 
                  { "nodeid": 336, "leaf": 0.0175617784 }
                ]}, 
                { "nodeid": 184, "depth": 7, "split": "f82", "split_condition": 8.61703957e-05, "yes": 337, "no": 338, "missing": 337 , "children": [
                  { "nodeid": 337, "leaf": -0.0136231882 }, 
                  { "nodeid": 338, "leaf": 0.00867924467 }
                ]}
              ]}, 
              { "nodeid": 96, "depth": 6, "split": "f109", "split_condition": 0.108038999, "yes": 185, "no": 186, "missing": 185 , "children": [
                { "nodeid": 185, "depth": 7, "split": "f82", "split_condition": 0.000853451027, "yes": 339, "no": 340, "missing": 339 , "children": [
                  { "nodeid": 339, "leaf": -0.0152475247 }, 
                  { "nodeid": 340, "leaf": 0.00545454537 }
                ]}, 
                { "nodeid": 186, "depth": 7, "split": "f62", "split_condition": 0.0865684971, "yes": 341, "no": 342, "missing": 341 , "children": [
                  { "nodeid": 341, "leaf": -0.00499999989 }, 
                  { "nodeid": 342, "leaf": 0.0152941179 }
                ]}
              ]}
            ]}, 
            { "nodeid": 48, "depth": 5, "split": "f46", "split_condition": 0.0177861992, "yes": 97, "no": 98, "missing": 97 , "children": [
              { "nodeid": 97, "depth": 6, "split": "f52", "split_condition": 0.0206183009, "yes": 187, "no": 188, "missing": 187 , "children": [
                { "nodeid": 187, "depth": 7, "split": "f64", "split_condition": 0.00138577004, "yes": 343, "no": 344, "missing": 343 , "children": [
                  { "nodeid": 343, "leaf": -0.00804597698 }, 
                  { "nodeid": 344, "leaf": -0.019135559 }
                ]}, 
                { "nodeid": 188, "leaf": 0.0133333337 }
              ]}, 
              { "nodeid": 98, "depth": 6, "split": "f45", "split_condition": 0.0117587, "yes": 189, "no": 190, "missing": 189 , "children": [
                { "nodeid": 189, "depth": 7, "split": "f84", "split_condition": 0.00557726016, "yes": 345, "no": 346, "missing": 345 , "children": [
                  { "nodeid": 345, "leaf": -0.0120000001 }, 
                  { "nodeid": 346, "leaf": 0.0128476815 }
                ]}, 
                { "nodeid": 190, "depth": 7, "split": "f124", "split_condition": 0.00216059992, "yes": 347, "no": 348, "missing": 347 , "children": [
                  { "nodeid": 347, "leaf": 0.00439024391 }, 
                  { "nodeid": 348, "leaf": -0.0175384618 }
                ]}
              ]}
            ]}
          ]}, 
          { "nodeid": 24, "depth": 4, "split": "f48", "split_condition": 0.0974654034, "yes": 49, "no": 50, "missing": 49 , "children": [
            { "nodeid": 49, "depth": 5, "split": "f64", "split_condition": 0.00115880999, "yes": 99, "no": 100, "missing": 99 , "children": [
              { "nodeid": 99, "depth": 6, "split": "f93", "split_condition": 0.000223541007, "yes": 191, "no": 192, "missing": 191 , "children": [
                { "nodeid": 191, "depth": 7, "split": "f90", "split_condition": 0.00074295298, "yes": 349, "no": 350, "missing": 349 , "children": [
                  { "nodeid": 349, "leaf": 0.0145454546 }, 
                  { "nodeid": 350, "leaf": -0.00814814772 }
                ]}, 
                { "nodeid": 192, "depth": 7, "split": "f62", "split_condition": 0.0242643002, "yes": 351, "no": 352, "missing": 351 , "children": [
                  { "nodeid": 351, "leaf": 0.0153846154 }, 
                  { "nodeid": 352, "leaf": -0.0147239268 }
                ]}
              ]}, 
              { "nodeid": 100, "depth": 6, "split": "f38", "split_condition": 0.0126814004, "yes": 193, "no": 194, "missing": 193 , "children": [
                { "nodeid": 193, "depth": 7, "split": "f49", "split_condition": 0.00875019003, "yes": 353, "no": 354, "missing": 353 , "children": [
                  { "nodeid": 353, "leaf": 0.00545454537 }, 
                  { "nodeid": 354, "leaf": -0.0191574264 }
                ]}, 
                { "nodeid": 194, "depth": 7, "split": "f43", "split_condition": 0.000324493012, "yes": 355, "no": 356, "missing": 355 , "children": [
                  { "nodeid": 355, "leaf": -0.0171428565 }, 
                  { "nodeid": 356, "leaf": 0.014482758 }
                ]}
              ]}
            ]}, 
            { "nodeid": 50, "depth": 5, "split": "f104", "split_condition": 0.0638613999, "yes": 101, "no": 102, "missing": 101 , "children": [
              { "nodeid": 101, "depth": 6, "split": "f119", "split_condition": 0.031632401, "yes": 195, "no": 196, "missing": 195 , "children": [
                { "nodeid": 195, "depth": 7, "split": "f113", "split_condition": 0.0780223012, "yes": 357, "no": 358, "missing": 357 , "children": [
                  { "nodeid": 357, "leaf": -0.0124528296 }, 
                  { "nodeid": 358, "leaf": 0.00564102596 }
                ]}, 
                { "nodeid": 196, "depth": 7, "split": "f111", "split_condition": 0.151244998, "yes": 359, "no": 360, "missing": 359 , "children": [
                  { "nodeid": 359, "leaf": 0.0166060608 }, 
                  { "nodeid": 360, "leaf": -0.005185185 }
                ]}
              ]}, 
              { "nodeid": 102, "depth": 6, "split": "f90", "split_condition": 0.000430209009, "yes": 197, "no": 198, "missing": 197 , "children": [
                { "nodeid": 197, "depth": 7, "split": "f54", "split_condition": 0.00988882966, "yes": 361, "no": 362, "missing": 361 , "children": [
                  { "nodeid": 361, "leaf": 0.0148387095 }, 
                  { "nodeid": 362, "leaf": -0.0081081083 }
                ]}, 
                { "nodeid": 198, "depth": 7, "split": "f108", "split_condition": 0.00263974001, "yes": 363, "no": 364, "missing": 363 , "children": [
                  { "nodeid": 363, "leaf": 0.0090909088 }, 
                  { "nodeid": 364, "leaf": -0.0153333331 }
                ]}
              ]}
            ]}
          ]}
        ]}, 
        { "nodeid": 12, "depth": 3, "split": "f104", "split_condition": 0.114868999, "yes": 25, "no": 26, "missing": 25 , "children": [
          { "nodeid": 25, "depth": 4, "split": "f107", "split_condition": 0.0210231002, "yes": 51, "no": 52, "missing": 51 , "children": [
            { "nodeid": 51, "depth": 5, "split": "f98", "split_condition": 0.173032001, "yes": 103, "no": 104, "missing": 103 , "children": [
              { "nodeid": 103, "depth": 6, "split": "f112", "split_condition": 0.0977604985, "yes": 199, "no": 200, "missing": 199 , "children": [
                { "nodeid": 199, "depth": 7, "split": "f78", "split_condition": 0.0120082004, "yes": 365, "no": 366, "missing": 365 , "children": [
                  { "nodeid": 365, "leaf": 0.0129926996 }, 
                  { "nodeid": 366, "leaf": -0.0162499994 }
                ]}, 
                { "nodeid": 200, "depth": 7, "split": "f126", "split_condition": 0.000591329008, "yes": 367, "no": 368, "missing": 367 , "children": [
                  { "nodeid": 367, "leaf": -0.00142857141 }, 
                  { "nodeid": 368, "leaf": -0.0166887417 }
                ]}
              ]}, 
              { "nodeid": 104, "depth": 6, "split": "f74", "split_condition": 0.0120203998, "yes": 201, "no": 202, "missing": 201 , "children": [
                { "nodeid": 201, "depth": 7, "split": "f126", "split_condition": 0.00453939009, "yes": 369, "no": 370, "missing": 369 , "children": [
                  { "nodeid": 369, "leaf": 0.0109486505 }, 
                  { "nodeid": 370, "leaf": -0.0161290318 }
                ]}, 
                { "nodeid": 202, "depth": 7, "split": "f68", "split_condition": 0.0362539999, "yes": 371, "no": 372, "missing": 371 , "children": [
                  { "nodeid": 371, "leaf": 0.0169874057 }, 
                  { "nodeid": 372, "leaf": -0.00491803279 }
                ]}
              ]}
            ]}, 
            { "nodeid": 52, "depth": 5, "split": "f66", "split_condition": 0.00741886999, "yes": 105, "no": 106, "missing": 105 , "children": [
              { "nodeid": 105, "depth": 6, "split": "f64", "split_condition": 0.00363784004, "yes": 203, "no": 204, "missing": 203 , "children": [
                { "nodeid": 203, "leaf": 0.0133333337 }, 
                { "nodeid": 204, "leaf": -0.00999999978 }
              ]}, 
              { "nodeid": 106, "depth": 6, "split": "f14", "split_condition": 0.126392007, "yes": 205, "no": 206, "missing": 205 , "children": [
                { "nodeid": 205, "depth": 7, "split": "f51", "split_condition": 0.0125908004, "yes": 373, "no": 374, "missing": 373 , "children": [
                  { "nodeid": 373, "leaf": 0.00499999989 }, 
                  { "nodeid": 374, "leaf": -0.0194202904 }
                ]}, 
                { "nodeid": 206, "depth": 7, "split": "f103", "split_condition": 0.0535820015, "yes": 375, "no": 376, "missing": 375 , "children": [
                  { "nodeid": 375, "leaf": 0.0114285713 }, 
                  { "nodeid": 376, "leaf": -0.0138461543 }
                ]}
              ]}
            ]}
          ]}, 
          { "nodeid": 26, "depth": 4, "split": "f119", "split_condition": 0.0495762005, "yes": 53, "no": 54, "missing": 53 , "children": [
            { "nodeid": 53, "depth": 5, "split": "f64", "split_condition": 0.00115880999, "yes": 107, "no": 108, "missing": 107 , "children": [
              { "nodeid": 107, "depth": 6, "split": "f73", "split_condition": 0.00631672004, "yes": 207, "no": 208, "missing": 207 , "children": [
                { "nodeid": 207, "depth": 7, "split": "f78", "split_condition": 0.00206433004, "yes": 377, "no": 378, "missing": 377 , "children": [
                  { "nodeid": 377, "leaf": 0.0114285713 }, 
                  { "nodeid": 378, "leaf": -0.0159183666 }
                ]}, 
                { "nodeid": 208, "depth": 7, "split": "f77", "split_condition": 0.00797144976, "yes": 379, "no": 380, "missing": 379 , "children": [
                  { "nodeid": 379, "leaf": 0.017419355 }, 
                  { "nodeid": 380, "leaf": -0.00666666683 }
                ]}
              ]}, 
              { "nodeid": 108, "depth": 6, "split": "f122", "split_condition": 0.0380181, "yes": 209, "no": 210, "missing": 209 , "children": [
                { "nodeid": 209, "depth": 7, "split": "f127", "split_condition": 0.00249645999, "yes": 381, "no": 382, "missing": 381 , "children": [
                  { "nodeid": 381, "leaf": -0.019531915 }, 
                  { "nodeid": 382, "leaf": -0.00499999989 }
                ]}, 
                { "nodeid": 210, "depth": 7, "split": "f85", "split_condition": 0.0271342993, "yes": 383, "no": 384, "missing": 383 , "children": [
                  { "nodeid": 383, "leaf": -0.015636364 }, 
                  { "nodeid": 384, "leaf": 0.0149999997 }
                ]}
              ]}
            ]}, 
            { "nodeid": 54, "depth": 5, "split": "f60", "split_condition": 0.0138143003, "yes": 109, "no": 110, "missing": 109 , "children": [
              { "nodeid": 109, "leaf": 0.017692307 }, 
              { "nodeid": 110, "depth": 6, "split": "f46", "split_condition": 0.0885583013, "yes": 211, "no": 212, "missing": 211 , "children": [
                { "nodeid": 211, "depth": 7, "split": "f96", "split_condition": 0.0979017988, "yes": 385, "no": 386, "missing": 385 , "children": [
                  { "nodeid": 385, "leaf": -0.0159183666 }, 
                  { "nodeid": 386, "leaf": 0.00800000038 }
                ]}, 
                { "nodeid": 212, "leaf": 0.0170370378 }
              ]}
            ]}
          ]}
        ]}
      ]}, 
      { "nodeid": 6, "depth": 2, "split": "f48", "split_condition": 0.116671003, "yes": 13, "no": 14, "missing": 13 , "children": [
        { "nodeid": 13, "depth": 3, "split": "f102", "split_condition": 0.318610996, "yes": 27, "no": 28, "missing": 27 , "children": [
          { "nodeid": 27, "depth": 4, "split": "f10", "split_condition": 0.0179315992, "yes": 55, "no": 56, "missing": 55 , "children": [
            { "nodeid": 55, "depth": 5, "split": "f126", "split_condition": 0.00122621004, "yes": 111, "no": 112, "missing": 111 , "children": [
              { "nodeid": 111, "depth": 6, "split": "f98", "split_condition": 0.194563001, "yes": 213, "no": 214, "missing": 213 , "children": [
                { "nodeid": 213, "depth": 7, "split": "f57", "split_condition": 0.00756875006, "yes": 387, "no": 388, "missing": 387 , "children": [
                  { "nodeid": 387, "leaf": 0.00857142825 }, 
                  { "nodeid": 388, "leaf": -0.0163636357 }
                ]}, 
                { "nodeid": 214, "depth": 7, "split": "f61", "split_condition": 0.166712999, "yes": 389, "no": 390, "missing": 389 , "children": [
                  { "nodeid": 389, "leaf": 0.017586207 }, 
                  { "nodeid": 390, "leaf": -0 }
                ]}
              ]}, 
              { "nodeid": 112, "depth": 6, "split": "f39", "split_condition": 0.0292645004, "yes": 215, "no": 216, "missing": 215 , "children": [
                { "nodeid": 215, "depth": 7, "split": "f34", "split_condition": 0.00146961003, "yes": 391, "no": 392, "missing": 391 , "children": [
                  { "nodeid": 391, "leaf": 0.00400000019 }, 
                  { "nodeid": 392, "leaf": -0.014915254 }
                ]}, 
                { "nodeid": 216, "depth": 7, "split": "f43", "split_condition": 5.77799983e-06, "yes": 393, "no": 394, "missing": 393 , "children": [
                  { "nodeid": 393, "leaf": -0.00666666683 }, 
                  { "nodeid": 394, "leaf": 0.0182222221 }
                ]}
              ]}
            ]}, 
            { "nodeid": 56, "depth": 5, "split": "f64", "split_condition": 0.00193479995, "yes": 113, "no": 114, "missing": 113 , "children": [
              { "nodeid": 113, "depth": 6, "split": "f92", "split_condition": 0.000861726003, "yes": 217, "no": 218, "missing": 217 , "children": [
                { "nodeid": 217, "depth": 7, "split": "f122", "split_condition": 0.0286919996, "yes": 395, "no": 396, "missing": 395 , "children": [
                  { "nodeid": 395, "leaf": -0.00553191453 }, 
                  { "nodeid": 396, "leaf": 0.0148571432 }
                ]}, 
                { "nodeid": 218, "depth": 7, "split": "f123", "split_condition": 0.00224791002, "yes": 397, "no": 398, "missing": 397 , "children": [
                  { "nodeid": 397, "leaf": 0.00666666683 }, 
                  { "nodeid": 398, "leaf": -0.0158490557 }
                ]}
              ]}, 
              { "nodeid": 114, "depth": 6, "split": "f70", "split_condition": 0.00841413997, "yes": 219, "no": 220, "missing": 219 , "children": [
                { "nodeid": 219, "depth": 7, "split": "f36", "split_condition": 0.0059161298, "yes": 399, "no": 400, "missing": 399 , "children": [
                  { "nodeid": 399, "leaf": 0.00046511626 }, 
                  { "nodeid": 400, "leaf": -0.0164999999 }
                ]}, 
                { "nodeid": 220, "depth": 7, "split": "f104", "split_condition": 0.0505253002, "yes": 401, "no": 402, "missing": 401 , "children": [
                  { "nodeid": 401, "leaf": -0.00400000019 }, 
                  { "nodeid": 402, "leaf": -0.0198160913 }
                ]}
              ]}
            ]}
          ]}, 
          { "nodeid": 28, "depth": 4, "split": "f68", "split_condition": 0.0244849008, "yes": 57, "no": 58, "missing": 57 , "children": [
            { "nodeid": 57, "depth": 5, "split": "f45", "split_condition": 0.00954374019, "yes": 115, "no": 116, "missing": 115 , "children": [
              { "nodeid": 115, "depth": 6, "split": "f99", "split_condition": 0.0713073015, "yes": 221, "no": 222, "missing": 221 , "children": [
                { "nodeid": 221, "depth": 7, "split": "f101", "split_condition": 0.155568004, "yes": 403, "no": 404, "missing": 403 , "children": [
                  { "nodeid": 403, "leaf": -0.00370370341 }, 
                  { "nodeid": 404, "leaf": 0.0169230774 }
                ]}, 
                { "nodeid": 222, "leaf": -0.0185542163 }
              ]}, 
              { "nodeid": 116, "depth": 6, "split": "f78", "split_condition": 0.0232612994, "yes": 223, "no": 224, "missing": 223 , "children": [
                { "nodeid": 223, "depth": 7, "split": "f63", "split_condition": 0.155021995, "yes": 405, "no": 406, "missing": 405 , "children": [
                  { "nodeid": 405, "leaf": 0.0156097552 }, 
                  { "nodeid": 406, "leaf": -0.00893617049 }
                ]}, 
                { "nodeid": 224, "depth": 7, "split": "f39", "split_condition": 0.00778666977, "yes": 407, "no": 408, "missing": 407 , "children": [
                  { "nodeid": 407, "leaf": 0.00434782589 }, 
                  { "nodeid": 408, "leaf": -0.0182222221 }
                ]}
              ]}
            ]}, 
            { "nodeid": 58, "depth": 5, "split": "f91", "split_condition": 1.72738e-05, "yes": 117, "no": 118, "missing": 117 , "children": [
              { "nodeid": 117, "depth": 6, "split": "f123", "split_condition": 0.0069327401, "yes": 225, "no": 226, "missing": 225 , "children": [
                { "nodeid": 225, "depth": 7, "split": "f107", "split_condition": 0.0123434998, "yes": 409, "no": 410, "missing": 409 , "children": [
                  { "nodeid": 409, "leaf": 0.0177142862 }, 
                  { "nodeid": 410, "leaf": -0.00499999989 }
                ]}, 
                { "nodeid": 226, "depth": 7, "split": "f39", "split_condition": 0.00158925995, "yes": 411, "no": 412, "missing": 411 , "children": [
                  { "nodeid": 411, "leaf": 0.00499999989 }, 
                  { "nodeid": 412, "leaf": -0.0142857144 }
                ]}
              ]}, 
              { "nodeid": 118, "depth": 6, "split": "f51", "split_condition": 0.0107326005, "yes": 227, "no": 228, "missing": 227 , "children": [
                { "nodeid": 227, "depth": 7, "split": "f41", "split_condition": 0.0107623003, "yes": 413, "no": 414, "missing": 413 , "children": [
                  { "nodeid": 413, "leaf": 0.0133333337 }, 
                  { "nodeid": 414, "leaf": -0.0133333337 }
                ]}, 
                { "nodeid": 228, "depth": 7, "split": "f36", "split_condition": 0.0256075002, "yes": 415, "no": 416, "missing": 415 , "children": [
                  { "nodeid": 415, "leaf": -0.0190384611 }, 
                  { "nodeid": 416, "leaf": -0.00181818183 }
                ]}
              ]}
            ]}
          ]}
        ]}, 
        { "nodeid": 14, "depth": 3, "split": "f71", "split_condition": 0.0192297995, "yes": 29, "no": 30, "missing": 29 , "children": [
          { "nodeid": 29, "depth": 4, "split": "f93", "split_condition": 0.0108163003, "yes": 59, "no": 60, "missing": 59 , "children": [
            { "nodeid": 59, "depth": 5, "split": "f48", "split_condition": 0.150461003, "yes": 119, "no": 120, "missing": 119 , "children": [
              { "nodeid": 119, "depth": 6, "split": "f65", "split_condition": 9.64076025e-05, "yes": 229, "no": 230, "missing": 229 , "children": [
                { "nodeid": 229, "depth": 7, "split": "f72", "split_condition": 0.00477762008, "yes": 417, "no": 418, "missing": 417 , "children": [
                  { "nodeid": 417, "leaf": 0.00916827843 }, 
                  { "nodeid": 418, "leaf": -0.0115107913 }
                ]}, 
                { "nodeid": 230, "depth": 7, "split": "f35", "split_condition": 0.226677999, "yes": 419, "no": 420, "missing": 419 , "children": [
                  { "nodeid": 419, "leaf": 0.0180445462 }, 
                  { "nodeid": 420, "leaf": 0.000363636354 }
                ]}
              ]}, 
              { "nodeid": 120, "depth": 6, "split": "f98", "split_condition": 0.309078008, "yes": 231, "no": 232, "missing": 231 , "children": [
                { "nodeid": 231, "depth": 7, "split": "f62", "split_condition": 0.163655996, "yes": 421, "no": 422, "missing": 421 , "children": [
                  { "nodeid": 421, "leaf": 0.0197812188 }, 
                  { "nodeid": 422, "leaf": 0.0160020087 }
                ]}, 
                { "nodeid": 232, "depth": 7, "split": "f80", "split_condition": 0.00749007985, "yes": 423, "no": 424, "missing": 423 , "children": [
                  { "nodeid": 423, "leaf": 0.0165325087 }, 
                  { "nodeid": 424, "leaf": -0.0121212127 }
                ]}
              ]}
            ]}, 
            { "nodeid": 60, "depth": 5, "split": "f14", "split_condition": 1.96976998e-05, "yes": 121, "no": 122, "missing": 121 , "children": [
              { "nodeid": 121, "depth": 6, "split": "f65", "split_condition": 3.98286011e-06, "yes": 233, "no": 234, "missing": 233 , "children": [
                { "nodeid": 233, "depth": 7, "split": "f99", "split_condition": 0.0387963988, "yes": 425, "no": 426, "missing": 425 , "children": [
                  { "nodeid": 425, "leaf": 0.00499999989 }, 
                  { "nodeid": 426, "leaf": -0.0178947356 }
                ]}, 
                { "nodeid": 234, "depth": 7, "split": "f36", "split_condition": 0.00644674012, "yes": 427, "no": 428, "missing": 427 , "children": [
                  { "nodeid": 427, "leaf": 0.0197492149 }, 
                  { "nodeid": 428, "leaf": -0.00545454537 }
                ]}
              ]}, 
              { "nodeid": 122, "depth": 6, "split": "f121", "split_condition": 0.0265941005, "yes": 235, "no": 236, "missing": 235 , "children": [
                { "nodeid": 235, "leaf": -0.0194736831 }, 
                { "nodeid": 236, "depth": 7, "split": "f47", "split_condition": 0.0679064989, "yes": 429, "no": 430, "missing": 429 , "children": [
                  { "nodeid": 429, "leaf": 0.0120000001 }, 
                  { "nodeid": 430, "leaf": -0.00999999978 }
                ]}
              ]}
            ]}
          ]}, 
          { "nodeid": 30, "depth": 4, "split": "f65", "split_condition": 0.000701820012, "yes": 61, "no": 62, "missing": 61 , "children": [
            { "nodeid": 61, "depth": 5, "split": "f77", "split_condition": 0.00660856022, "yes": 123, "no": 124, "missing": 123 , "children": [
              { "nodeid": 123, "depth": 6, "split": "f37", "split_condition": 0.000294783997, "yes": 237, "no": 238, "missing": 237 , "children": [
                { "nodeid": 237, "depth": 7, "split": "f40", "split_condition": 0.00603856007, "yes": 431, "no": 432, "missing": 431 , "children": [
                  { "nodeid": 431, "leaf": -0.00736842072 }, 
                  { "nodeid": 432, "leaf": 0.016631579 }
                ]}, 
                { "nodeid": 238, "depth": 7, "split": "f102", "split_condition": 0.325585008, "yes": 433, "no": 434, "missing": 433 , "children": [
                  { "nodeid": 433, "leaf": -0.0180952381 }, 
                  { "nodeid": 434, "leaf": 0.00499999989 }
                ]}
              ]}, 
              { "nodeid": 124, "depth": 6, "split": "f113", "split_condition": 0.154742002, "yes": 239, "no": 240, "missing": 239 , "children": [
